tree
version=v4
num_class=1
num_tree_per_iteration=1
label_index=0
max_feature_idx=121
objective=regression
feature_names=Column_0 Column_1 Column_2 Column_3 Column_4 Column_5 Column_6 Column_7 Column_8 Column_9 Column_10 Column_11 Column_12 Column_13 Column_14 Column_15 Column_16 Column_17 Column_18 Column_19 Column_20 Column_21 Column_22 Column_23 Column_24 Column_25 Column_26 Column_27 Column_28 Column_29 Column_30 Column_31 Column_32 Column_33 Column_34 Column_35 Column_36 Column_37 Column_38 Column_39 Column_40 Column_41 Column_42 Column_43 Column_44 Column_45 Column_46 Column_47 Column_48 Column_49 Column_50 Column_51 Column_52 Column_53 Column_54 Column_55 Column_56 Column_57 Column_58 Column_59 Column_60 Column_61 Column_62 Column_63 Column_64 Column_65 Column_66 Column_67 Column_68 Column_69 Column_70 Column_71 Column_72 Column_73 Column_74 Column_75 Column_76 Column_77 Column_78 Column_79 Column_80 Column_81 Column_82 Column_83 Column_84 Column_85 Column_86 Column_87 Column_88 Column_89 Column_90 Column_91 Column_92 Column_93 Column_94 Column_95 Column_96 Column_97 Column_98 Column_99 Column_100 Column_101 Column_102 Column_103 Column_104 Column_105 Column_106 Column_107 Column_108 Column_109 Column_110 Column_111 Column_112 Column_113 Column_114 Column_115 Column_116 Column_117 Column_118 Column_119 Column_120 Column_121
feature_infos=[84:633083] [0:16] [0:4512] [0:9519] [0:2] [13:125] [0:7087] [1:20175] [1:8388607] [1:8388607] [-60:480480] [1:8388607] [0:1000000] [2:8388607] [10:8388607] [-6:2147483648] [0:43] [0:79] [0:40] [0:78] [0:124] [0:26] [0:1] [0:1] [0:1] [0:1] [0:1] [0:1] [0:1] [0:1] [0:1] [0:1] [0:1] [0:1] [0:1] [0:1] [0:1] [0:1] [0:1] [0:1] [0:1] [0:1] [0:1] [0:1] [0:1] [0:1] [0:1] [0:1] [0:1] [0:1] [0:1] [0:1] [0:1] [0:1] [0:1] [0:1] [0:1] [0:1] [0:1] [0:1] [0:1] [0:1] [0:1] [0:1] [0:1] [0:1] [0:1] [0:1] [0:1] [0:1] [0:1] [0:1] [0:1] [0:1] [0:1] [0:1] [0:1] [0:1] [0:1] [0:1] [0:1] [0:1] [0:1] [0:1] [0:1] [0:1] [0:1] [0:1] [0:1] [0:1] [0:1] [0:1] [0:1] [0:1] [0:1] [0:1] [0:1] [0:1] [0:1] [0:1] [0:1] [0:1] [0:1] [0:1] [0:1] [0:1] [0:1] [0:1] [0:1] [0:1] [0:1] [0:1] [0:1] [0:1] [0:1] [0:1] [0:1] [0:1] [0:1] [0:1] [0:1] [0:1]
tree_sizes=6167

Tree=0
num_leaves=63
num_cat=0
split_feature=13 6 14 5 14 5 12 8 8 114 8 6 6 10 21 4 15 4 15 42 20 15 15 15 10 15 15 10 10 7 10 10 17 10 8 15 10 15 16 10 14 5 15 7 15 14 14 5 1 18 7 10 7 7 7 4 18 17 17 5 15 15
split_gain=2159.31 11374.5 71.5517 567.034 5503.96 7357.17 41.5924 6.24417 4.32694 6.34963 37.3909 1.99021 1.36668 0.24933 0.216156 0.186931 0.163253 0.145804 0.137636 0.14634 2.42476 0.127545 0.120734 0.0978912 0.0956502 0.0906028 0.0752021 0.0727462 0.070745 0.0619794 0.0527082 0.0457817 0.0456946 0.0421273 0.0407617 0.0405976 0.0395484 0.0383611 0.0366391 0.0290998 0.0290665 0.0274797 0.0253772 0.0237432 0.0235767 0.0225899 0.0222821 0.0214472 0.0745485 0.524693 0.0159944 0.0151846 0.0148276 0.0147595 0.0147269 0.0144247 0.0143452 0.0126817 0.0123748 0.0117486 0.0114626 0.0111044
threshold=45.500000000000007 72.500000000000014 1140.5000000000002 22.500000000000004 1137.5000000000002 21.500000000000004 929.50000000000011 289.50000000000006 290.50000000000006 0.88097006082534801 305.50000000000006 69.500000000000014 68.500000000000014 192.50000000000003 1.0000000180025095e-35 1.5000000000000002 27.500000000000004 1.5000000000000002 26.500000000000004 0.71807804703712474 46.500000000000007 27.500000000000004 27.500000000000004 26.500000000000004 193.50000000000003 26.500000000000004 1.0000000180025095e-35 158.50000000000003 192.50000000000003 142.50000000000003 193.50000000000003 192.50000000000003 14.500000000000002 193.50000000000003 282.50000000000006 27.500000000000004 192.50000000000003 1.0000000180025095e-35 4.5000000000000009 193.50000000000003 1379.5000000000002 30.500000000000004 1.0000000180025095e-35 175.50000000000003 26.500000000000004 1379.5000000000002 1378.5000000000002 26.500000000000004 13.500000000000002 18.500000000000004 190.50000000000003 193.50000000000003 170.50000000000003 194.50000000000003 183.50000000000003 1.5000000000000002 29.500000000000004 15.500000000000002 14.500000000000002 34.500000000000007 27.500000000000004 1.0000000180025095e-35
decision_type=2 2 2 2 2 2 2 2 2 2 2 2 2 2 2 2 2 2 2 2 2 2 2 2 2 2 2 2 2 2 2 2 2 2 2 2 2 2 2 2 2 2 2 2 2 2 2 2 2 2 2 2 2 2 2 2 2 2 2 2 2 2
left_child=1 -1 3 4 -2 -6 7 17 11 15 -11 12 21 -13 22 -10 18 -4 26 24 -21 25 23 42 32 37 -15 -19 -25 51 38 -31 41 43 -5 39 -17 -9 40 44 46 50 -14 57 61 -43 -30 48 -46 -50 -20 58 -49 -38 60 -39 -48 -33 -27 -34 -29 -16
right_child=2 -3 6 34 5 -7 -8 8 9 10 -12 13 14 16 35 36 -18 27 19 20 -22 -23 -24 28 -26 29 -28 54 30 31 -32 33 59 -35 -36 -37 53 55 -40 -41 -42 45 -44 -45 47 -47 56 52 49 -51 -52 -53 -54 -55 -56 -57 -58 -59 -60 -61 -62 -63
leaf_value=0.0017217314088866403 0.0012436148539238382 3.6787626301182867 0.00084586571254409188 0.0017564178797948706 0.001294447397421629 3.6739159314613747 0.17207302424973192 -0.00024208112406079674 0.00051226340543074626 0.20045782212516874 0.0010985208858136485 0.0015741062103729953 -0.00053743667158160377 -0.00028405206790340439 -0.00035165267206628998 0.0016841342664189768 0.001270992520719207 0.0020222589828295637 -5.3211829121139132e-05 0.046326420946276023 0.00010249753322704018 0.0010015804324850386 0.0011466695365043417 0.0011831508256151895 0.0011221809229689352 -0.000399986536454132 0.0010256747641741418 0.0012731973010678469 0.0004696838247774656 0.0011066817188055543 0.00072865480296339707 -0.00019789376400027167 0.00041328899523386352 0.00068622009868322931 0.00086096779309734954 0.0012061620885697429 0.0010600683093668927 0.0004068446223175778 -0.00016301768419898997 0.00092980239493620025 0.00034350319369034929 -0.00022269247312402631 0.00072765297969887733 0.00016197445276966798 -0.00023738918785243623 0.00056950129169423456 -0.0007940303443383709 -0.00052995878463327228 0.01815258507707011 -0.00016646733217316926 0.00025197772793642643 0.00042165535107298123 -0.00013667234968141624 0.0013228267945299432 0.0016840529566680385 0.00091154781213930857 -0.00024310302677047475 4.7186806587235552e-05 -0.00013500419029374917 6.9134306456365946e-05 0.0015679826924691075 0.00074094100792602329
leaf_weight=53 193 9.9999999999999982 2299 1000 12 10 13.999999999999998 812 5629 10.999999999999998 65 1373 225 538 132 1557 1333 4778 4529 11.999999999999998 209 1116 327 183 769 8844 2368 2426 140 349 230 9992 2610 741 1034 198 6843 2293 938 204 226 9587 537 3117 1068 374 163096 3635 18 119 2766 263 1302 3109 4197 752 474 2677 2201 1600 2891 315
leaf_count=53 193 10 2299 1000 12 10 14 812 5629 11 65 1373 225 538 132 1557 1333 4778 4529 12 209 1116 327 183 769 8844 2368 2426 140 349 230 9992 2610 741 1034 198 6843 2293 938 204 226 9587 537 3117 1068 374 163096 3635 18 119 2766 263 1302 3109 4197 752 474 2677 2201 1600 2891 315
internal_value=-3.27616e-10 0.585379 -0.000136256 0.0176262 0.172068 1.67067 -0.000285086 -0.000294077 -0.000417886 0.0011124 0.0299532 -0.000530176 -0.000637553 0.000259907 -0.000750053 0.000984505 0.000192314 0.001585 0.00013562 5.18173e-05 0.00261239 -4.93289e-05 -0.000772942 -0.000776722 2.6367e-05 -8.59324e-05 0.0007832 0.0017039 -0.000781936 -0.00014814 -0.000784114 -2.67504e-05 -1.28895e-05 -5.06851e-05 0.00130121 -0.00020533 0.00121548 0.000368631 -0.000786224 -0.000246472 -0.00078979 -8.49551e-05 0.000354103 -8.52756e-05 -0.00028289 -0.000192948 -0.000791355 -0.000333921 4.43197e-05 0.00224042 6.2505e-05 -0.0003293 -0.00042624 0.00114215 0.00154402 0.000531487 -0.000792434 -0.000146107 -0.000347182 0.000282494 0.00143348 0.000418296
internal_weight=270723 63 270660 2249 215 22 268411 268397 251806 17214 76 234592 206524 28068 173367 17138 26695 16591 25362 22456 221 33157 166376 166049 22235 32041 2906 14292 165287 28184 165104 16876 21466 16527 2034 6991 11509 3857 164874 6793 163936 17256 762 15786 6589 9961 163710 6142 1205 137 7295 11308 4937 9952 9514 3045 163570 12669 11045 4210 5317 447
internal_count=270723 63 270660 2249 215 22 268411 268397 251806 17214 76 234592 206524 28068 173367 17138 26695 16591 25362 22456 221 33157 166376 166049 22235 32041 2906 14292 165287 28184 165104 16876 21466 16527 2034 6991 11509 3857 164874 6793 163936 17256 762 15786 6589 9961 163710 6142 1205 137 7295 11308 4937 9952 9514 3045 163570 12669 11045 4210 5317 447
is_linear=0
shrinkage=1


end of trees

feature_importances:
Column_15=13
Column_10=10
Column_7=6
Column_5=5
Column_14=5
Column_8=4
Column_4=3
Column_6=3
Column_17=3
Column_18=2
Column_1=1
Column_12=1
Column_13=1
Column_16=1
Column_20=1
Column_21=1
Column_42=1
Column_114=1

parameters:
[boosting: gbdt]
[objective: regression]
[metric: rmse]
[tree_learner: serial]
[device_type: cpu]
[data_sample_strategy: bagging]
[data: ]
[valid: ]
[num_iterations: 10000]
[learning_rate: 0.1]
[num_leaves: 63]
[num_threads: 0]
[seed: 1]
[deterministic: 0]
[force_col_wise: 0]
[force_row_wise: 0]
[histogram_pool_size: -1]
[max_depth: -1]
[min_data_in_leaf: 10]
[min_sum_hessian_in_leaf: 0.001]
[bagging_fraction: 0.9]
[pos_bagging_fraction: 1]
[neg_bagging_fraction: 1]
[bagging_freq: 0]
[bagging_seed: 18467]
[bagging_by_query: 0]
[feature_fraction: 0.9]
[feature_fraction_bynode: 1]
[feature_fraction_seed: 26500]
[extra_trees: 0]
[extra_seed: 15724]
[early_stopping_round: 0]
[early_stopping_min_delta: 0]
[first_metric_only: 0]
[max_delta_step: 0]
[lambda_l1: 0]
[lambda_l2: 0]
[linear_lambda: 0]
[min_gain_to_split: 0]
[drop_rate: 0.1]
[max_drop: 50]
[skip_drop: 0.5]
[xgboost_dart_mode: 0]
[uniform_drop: 0]
[drop_seed: 6334]
[top_rate: 0.2]
[other_rate: 0.1]
[min_data_per_group: 100]
[max_cat_threshold: 32]
[cat_l2: 10]
[cat_smooth: 10]
[max_cat_to_onehot: 4]
[top_k: 20]
[monotone_constraints: ]
[monotone_constraints_method: basic]
[monotone_penalty: 0]
[feature_contri: ]
[forcedsplits_filename: ]
[refit_decay_rate: 0.9]
[cegb_tradeoff: 1]
[cegb_penalty_split: 0]
[cegb_penalty_feature_lazy: ]
[cegb_penalty_feature_coupled: ]
[path_smooth: 0]
[interaction_constraints: ]
[verbosity: -1]
[saved_feature_importance_type: 0]
[use_quantized_grad: 0]
[num_grad_quant_bins: 4]
[quant_train_renew_leaf: 0]
[stochastic_rounding: 1]
[linear_tree: 0]
[max_bin: 255]
[max_bin_by_feature: ]
[min_data_in_bin: 3]
[bin_construct_sample_cnt: 200000]
[data_random_seed: 41]
[is_enable_sparse: 1]
[enable_bundle: 1]
[use_missing: 1]
[zero_as_missing: 0]
[feature_pre_filter: 1]
[pre_partition: 0]
[two_round: 0]
[header: 0]
[label_column: ]
[weight_column: ]
[group_column: ]
[ignore_column: ]
[categorical_feature: ]
[forcedbins_filename: ]
[precise_float_parser: 0]
[parser_config_file: ]
[objective_seed: 19169]
[num_class: 1]
[is_unbalance: 0]
[scale_pos_weight: 1]
[sigmoid: 1]
[boost_from_average: 1]
[reg_sqrt: 0]
[alpha: 0.9]
[fair_c: 1]
[poisson_max_delta_step: 0.7]
[tweedie_variance_power: 1.5]
[lambdarank_truncation_level: 30]
[lambdarank_norm: 1]
[label_gain: ]
[lambdarank_position_bias_regularization: 0]
[eval_at: ]
[multi_error_top_k: 1]
[auc_mu_weights: ]
[num_machines: 1]
[local_listen_port: 12400]
[time_out: 120]
[machine_list_filename: ]
[machines: ]
[gpu_platform_id: -1]
[gpu_device_id: -1]
[gpu_use_dp: 0]
[num_gpu: 1]

end of parameters

pandas_categorical:null
