tree
version=v4
num_class=1
num_tree_per_iteration=1
label_index=0
max_feature_idx=10
objective=regression
feature_names=Column_0 Column_1 Column_2 Column_3 Column_4 Column_5 Column_6 Column_7 Column_8 Column_9 Column_10
feature_infos=[84:630117] [0:16] [0:1] [18:56] [52:83] [28:444] [0:37] [0:34] [0:65] [0:109] [0:21]
tree_sizes=5604 5595 5614 5643 5619 5620 5607 5622 5613 5645 5629 5625 5654 5645 5628 5640 5658 5649 5652 5673 5671 5656 5654 5633 5667 5651 5704 5642 5668 5680 5676 5712 5698 5743 5715 5711 5730 5736 5757 5720 5741 5723 5764 5807 5734 5792 5744 5755 5775 5810 5805 5760 5789 5820 5821 5807 5787 5817 5843 5816 5837 5776 5823 5852 5778 5786 5867 5858 5815 5885 5888 5793 5884 5843 5837 5853 5862 5879 5847 5952 5865 5917 5891 5858 5862 5932 5902 5881 5896 5908 5958 5876 5865 5878 5903 5902 5903 5832 5953 5842 5943 5875 5876 5947 5951 5871 5998 5943 5915 5844 5846 5871 5907 5911 5972 5974 5930 5920 5929 5932 5976 5924 5949 5988 5992 5943 5953 5975 6005 5917 5899 5983 5978 5929 6057 6015 6085 5905 6016 6056 5970 5930 6066 5951 6011 6022 6014 6064 6117 5904 6044 6026 6111 5958

Tree=0
num_leaves=63
num_cat=0
split_feature=2 5 0 0 3 0 3 3 5 0 5 3 5 3 3 0 3 4 0 5 8 0 5 0 1 10 0 0 4 7 4 7 7 0 5 0 0 0 7 5 5 5 5 0 3 3 3 7 3 0 3 3 3 8 4 3 0 5 3 5 7 3
split_gain=9831.62 863.904 448.448 313.183 285.396 217.442 114.843 110.282 86.7247 76.118 62.8563 62.2009 60.5322 50.436 50.0916 49.9695 48.6724 41.9432 37.4182 30.5337 29.5294 28.5554 28.3222 24.8291 22.804 22.1469 22.023 21.7491 19.8845 19.4512 19.2645 18.5163 18.4757 18.1636 17.9669 17.7518 16.6158 15.6769 14.9189 13.5437 13.3723 12.7155 12.2773 12.2609 12.1845 11.935 11.7409 11.7061 11.2433 11.2307 11.2176 10.9258 10.4519 10.3698 9.73765 9.46865 9.12679 9.01423 8.92045 8.79164 8.35414 8.32406
threshold=1.0000000180025095e-35 181.50000000000003 256769.00000000003 253540.00000000003 35.500000000000007 289438.00000000006 36.500000000000007 33.500000000000007 163.50000000000003 97069.000000000015 126.50000000000001 28.500000000000004 163.50000000000003 28.500000000000004 44.500000000000007 466400.00000000006 34.500000000000007 69.500000000000014 130422.00000000001 194.50000000000003 31.500000000000004 117809.50000000001 197.50000000000003 464298.00000000006 7.5000000000000009 6.5000000000000009 26014.500000000004 464298.00000000006 72.500000000000014 6.5000000000000009 69.500000000000014 15.500000000000002 15.500000000000002 107417.00000000001 195.50000000000003 59153.000000000007 26014.500000000004 421819.00000000006 6.5000000000000009 143.50000000000003 194.50000000000003 222.50000000000003 211.50000000000003 38262.000000000007 26.500000000000004 26.500000000000004 33.500000000000007 6.5000000000000009 28.500000000000004 436921.00000000006 32.500000000000007 33.500000000000007 28.500000000000004 31.500000000000004 72.500000000000014 46.500000000000007 23796.000000000004 210.50000000000003 29.500000000000004 195.50000000000003 6.5000000000000009 25.500000000000004
decision_type=2 2 2 2 2 2 2 2 2 2 2 2 2 2 2 2 2 2 2 2 2 2 2 2 2 2 2 2 2 2 2 2 2 2 2 2 2 2 2 2 2 2 2 2 2 2 2 2 2 2 2 2 2 2 2 2 2 2 2 2 2 2
left_child=5 3 4 6 9 10 8 15 21 22 -1 19 27 30 26 29 18 33 56 54 -17 -2 28 50 40 55 -6 46 48 -4 -14 -13 -28 58 -33 -18 -19 -15 -8 -25 -22 53 -34 -40 -35 -38 -5 -26 -3 -32 -7 -24 -23 -31 -11 57 -12 -9 -10 61 -27 -49
right_child=1 2 7 12 14 23 38 25 17 11 16 31 13 37 -16 20 35 36 -20 -21 24 52 51 39 47 60 32 -29 -30 41 49 34 42 44 -36 -37 45 -39 43 -41 -42 -43 -44 -45 -46 -47 -48 59 -50 -51 -52 -53 -54 -55 -56 -57 -58 -59 -60 -61 -62 -63
leaf_value=-0.066427685313268203 0.016350149258851459 0.061156876593598156 0.0087997590597697108 -0.0089828344454391824 0.040382634008511512 -0.063309892250430905 -0.018100927472344607 0.0058238470128867481 0.046120955397544031 0.043484412567495308 -0.0305102131022972 0.013328145102727351 0.018006608727349781 -0.0048640189360777131 0.0092626148296019555 0.034679848805087135 -0.049034316689405957 0.03315238599899907 -0.051524522108779766 0.057625445252360345 -0.02355617023174171 0.0039754495530055873 0.064974390396069504 -0.085449908981090353 -0.014847429306058894 -0.026615719908394214 0.0069473663415064585 -0.032145462650200046 0.032044349106106838 0.03806896220314672 0.008208368738093913 0.027856525155064652 0.023693561695406373 0.037055101169698214 0.04118907863354726 -0.063088748795884275 0.024514238282785632 -0.019550035540005312 0.011884902379613324 -0.072795135305170039 0.0032619422027403426 0.045367944165109857 0.035856771773843596 -0.0016878575037258705 0.020851379028204123 0.010553773262615751 -0.026769912758499034 0.023875622778900894 0.047415896981926997 -0.01078154454561402 -0.076594341802330393 0.049684097763186982 -0.012802842663807655 0.025951474902579472 0.022357410583686094 -0.0078277356210025972 -0.040795253272713203 0.018749869811864561 0.032939739598430738 0.026272466255944326 -0.0043736798559463209 -0.0044721778485720554
leaf_weight=602 380 250 103 324 306 541 100 410 280 369 298 101 272 409 445 113 354 157 960 627 74 223 706 459 29 49 123 263 139 245 177 427 658 182 619 615 228 327 238 392 125 144 303 553 320 466 130 45 368 139 225 140 159 632 64 84 781 201 237 154 305 61
leaf_count=602 380 250 103 324 306 541 100 410 280 369 298 101 272 409 445 113 354 157 960 627 74 223 706 459 29 49 123 263 139 245 177 427 658 182 619 615 228 327 238 392 125 144 303 553 320 466 130 45 368 139 225 140 159 632 64 84 781 201 237 154 305 61
internal_value=-1.10155e-09 0.0218698 0.0319732 0.0065822 0.0400626 -0.058505 0.0156112 0.0155115 0.0208637 0.0478648 -0.0516797 0.0418417 -0.00900293 -0.00266632 0.0238629 0.0232858 -0.0487282 0.0266574 -0.0443436 0.0505734 0.0116479 0.00664558 0.0561573 -0.0737425 0.00631469 0.0027272 0.0285371 -0.020704 0.0491314 0.0295085 0.00825178 0.0337724 0.0251933 0.0335005 0.0357464 -0.0579543 0.0184633 -0.0113889 9.5543e-05 -0.0796207 -0.00671062 0.0315977 0.0275286 0.00239598 0.026726 0.0151402 -0.0140761 0.0152837 0.0529745 -0.000144789 -0.067212 0.0624441 -0.00300819 0.0293366 0.0403617 0.00791219 -0.0379547 0.0100761 0.0400785 0.0186445 -0.00745238 0.00756227
internal_weight=19210 13983 8419 5564 5645 5227 3523 2774 2632 3810 3610 2207 2041 1324 1835 1725 3008 1870 2039 1060 601 762 1603 1617 488 1049 1390 717 757 1124 588 1147 1084 1019 1046 969 851 736 891 851 199 1021 961 791 502 694 454 289 618 316 766 846 382 877 433 695 1079 611 517 260 354 106
internal_count=19210 13983 8419 5564 5645 5227 3523 2774 2632 3810 3610 2207 2041 1324 1835 1725 3008 1870 2039 1060 601 762 1603 1617 488 1049 1390 717 757 1124 588 1147 1084 1019 1046 969 851 736 891 851 199 1021 961 791 502 694 454 289 618 316 766 846 382 877 433 695 1079 611 517 260 354 106
is_linear=0
shrinkage=1


Tree=1
num_leaves=63
num_cat=0
split_feature=2 5 0 0 3 0 9 9 3 3 9 5 9 3 3 5 0 5 0 3 0 5 5 5 5 0 0 3 0 10 5 9 5 4 0 0 7 3 7 3 5 7 5 0 3 9 5 9 0 3 0 9 4 0 5 3 7 4 3 4 1 3
split_gain=8873.03 779.674 404.724 282.648 258.185 196.241 111.251 101.793 99.5295 61.805 59.2868 54.6303 46.0001 45.7182 43.9034 43.8626 39.3828 36.2301 35.8471 33.698 30.1252 29.6655 28.1184 25.7815 24.055 22.4083 21.8368 20.8447 20.0121 19.9876 18.6787 18.0896 17.47 17.4429 17.157 16.7789 16.5861 15.3907 15.0657 14.3057 13.7646 13.5088 13.4801 12.7882 12.3876 12.3033 12.2232 11.7074 11.64 11.222 11.1472 11.0872 11.0317 10.8435 10.3929 10.3853 10.3533 10.2133 10.1238 9.97731 9.88759 9.67729
threshold=1.0000000180025095e-35 181.50000000000003 256769.00000000003 253540.00000000003 33.500000000000007 289438.00000000006 46.500000000000007 47.500000000000007 33.500000000000007 41.500000000000007 50.500000000000007 163.50000000000003 48.500000000000007 29.500000000000004 36.500000000000007 163.50000000000003 113340.00000000001 156.50000000000003 464298.00000000006 34.500000000000007 41289.500000000007 126.50000000000001 127.50000000000001 194.50000000000003 195.50000000000003 464298.00000000006 59153.000000000007 39.500000000000007 412336.50000000006 6.5000000000000009 196.50000000000003 51.500000000000007 201.50000000000003 69.500000000000014 130422.00000000001 61671.000000000007 15.500000000000002 34.500000000000007 15.500000000000002 46.500000000000007 211.50000000000003 10.500000000000002 211.50000000000003 140636.00000000003 29.500000000000004 53.500000000000007 143.50000000000003 48.500000000000007 104749.50000000001 29.500000000000004 421819.00000000006 50.500000000000007 72.500000000000014 154287.50000000003 171.50000000000003 33.500000000000007 6.5000000000000009 69.500000000000014 32.500000000000007 69.500000000000014 7.5000000000000009 29.500000000000004
decision_type=2 2 2 2 2 2 2 2 2 2 2 2 2 2 2 2 2 2 2 2 2 2 2 2 2 2 2 2 2 2 2 2 2 2 2 2 2 2 2 2 2 2 2 2 2 2 2 2 2 2 2 2 2 2 2 2 2 2 2 2 2 2
left_child=5 3 4 6 7 10 15 16 12 20 22 28 41 31 17 43 32 -8 40 33 51 -12 -1 48 -20 58 -19 35 55 -10 -18 59 52 -17 37 -23 -22 -24 -25 47 -14 -4 45 -2 -40 -38 -27 -11 -9 -45 -15 -6 -3 -46 -35 -5 -16 -28 -7 -13 -43 -32
right_child=1 2 8 11 9 25 14 23 29 39 21 13 18 50 56 19 30 26 24 -21 36 27 34 38 -26 46 57 -29 -30 -31 61 -33 -34 54 -36 -37 42 -39 44 -41 -42 60 -44 49 53 -47 -48 -49 -50 -51 -52 -53 -54 -55 -56 -57 -58 -59 -60 -61 -62 -63
leaf_value=-0.056181038219986837 0.018400513516226784 0.060164789437101442 0.009041206121187785 -0.0060494754048309824 0.050311889487096188 -0.060144395857718871 -0.0053567311226409703 0.038093461594384884 0.0075165805102346082 0.031626539749270099 -0.066577232534235184 0.024491848364292135 0.018537905985839483 -0.0058318224119157892 -0.020733087361362337 0.042519031140189859 0.039191133143188311 0.026082765171494156 -0.011303421036789118 0.014565370036258461 0.0092753920681594351 -0.040190663537771926 -0.027067267262906421 0.024104211669653021 0.013650238890545367 -0.081177411233288019 0.016620750756462657 -0.062163630333156951 -0.028246461220397839 -0.007079760466424727 0.061491173915812269 -0.001276883021970448 0.07106850917026869 0.011230587271380831 -0.044989681792910033 -0.05196220449329917 0.033104207253782082 -0.044052281494975642 0.050375840218318362 0.0054140733389306025 0.035375743500729341 0.025488221626772497 0.037039260818970819 0.010978413684781464 0.044071681221397839 0.019180354036628763 -0.069155376671091173 0.01418366514711465 0.024129712239784357 -0.01807459612630985 -0.018770120892900435 0.035097867364216558 0.040443253056063055 0.027021424161949498 0.032524363248584064 -0.024397855848497289 -0.00087167038594329149 0.0058117670039135238 -0.072764623122082817 0.0068256136035603106 0.03872407526323688 0.043180310713645635
leaf_weight=236 250 455 58 258 203 541 240 266 695 137 385 155 467 368 74 466 359 368 159 228 124 411 459 94 246 459 468 363 349 354 226 332 382 77 419 1149 260 188 513 305 164 213 324 84 312 407 392 323 340 55 304 292 84 133 224 110 579 410 225 165 418 106
leaf_count=236 250 455 58 258 203 541 240 266 695 137 385 155 467 368 74 466 359 368 159 228 124 411 459 94 246 459 468 363 349 354 226 332 382 77 419 1149 260 188 513 305 164 213 324 84 312 407 392 323 340 55 304 292 84 133 224 110 579 410 225 165 418 106
internal_value=1.61952e-10 0.0207763 0.0303745 0.00625309 0.0380595 -0.0555797 0.0148307 0.0471724 0.0147359 0.0255123 -0.0490958 -0.00855278 0.0221215 -0.002533 0.00768361 0.0258766 0.0561192 0.0124322 0.0154629 0.0314422 0.0310722 -0.0539084 -0.0405646 0.0384739 0.00385362 -0.0700553 0.0158586 -0.051372 -0.0196688 0.00259084 0.0470966 0.0068996 0.0628886 0.036459 -0.0371073 -0.0488609 0.0265151 -0.0320026 0.0432061 0.013811 0.0229141 0.0321336 0.0286723 0.0116406 0.0450804 0.0246079 -0.0756396 0.0193786 0.030259 -0.000517382 -0.0116849 0.0413372 0.0570913 0.0389758 0.0270771 -0.011534 -0.00312243 0.0115733 -0.0638514 0.0153827 0.0342562 0.0556449
internal_weight=19210 13983 8419 5564 5645 5227 3523 3270 2774 2375 3610 2041 1725 1324 2139 1384 1612 1486 1036 995 1610 2308 1302 1658 405 1617 1246 1923 717 1049 691 652 921 767 1066 1560 1115 647 1052 765 631 689 991 389 958 667 851 460 606 139 672 495 539 445 301 368 653 878 766 320 631 332
internal_count=19210 13983 8419 5564 5645 5227 3523 3270 2774 2375 3610 2041 1725 1324 2139 1384 1612 1486 1036 995 1610 2308 1302 1658 405 1617 1246 1923 717 1049 691 652 921 767 1066 1560 1115 647 1052 765 631 689 991 389 958 667 851 460 606 139 672 495 539 445 301 368 653 878 766 320 631 332
is_linear=0
shrinkage=0.05


Tree=2
num_leaves=63
num_cat=0
split_feature=2 5 0 3 0 0 9 3 9 9 5 3 5 9 5 9 5 5 3 5 5 5 0 3 0 4 0 0 0 7 3 5 10 3 3 0 3 0 5 3 9 0 3 3 5 3 4 0 0 5 10 0 5 5 0 3 7 4 3 3 5 3
split_gain=8007.91 704.819 414.961 259.637 202.304 177.108 120.541 103.668 77.1795 53.5064 46.5002 45.5864 41.8482 41.6033 34.6912 29.3173 29.2973 29.0774 28.8836 27.998 27.6024 25.3768 24.8229 24.6337 23.7649 21.4582 20.2235 19.507 18.8939 18.7003 17.3878 16.6622 16.4368 16.36 16.3047 15.7957 15.6395 16.4678 15.0676 14.8953 14.3687 13.97 13.8315 13.5546 13.2747 12.9628 12.1702 12.1603 11.9107 11.8938 11.6448 11.4401 11.2826 11.0314 10.2656 9.88847 9.87965 9.86581 9.71168 9.45409 9.19864 9.13677
threshold=1.0000000180025095e-35 176.50000000000003 256769.00000000003 35.500000000000007 265599.00000000006 289438.00000000006 47.500000000000007 30.500000000000004 46.500000000000007 50.500000000000007 196.50000000000003 44.500000000000007 194.50000000000003 49.500000000000007 157.50000000000003 48.500000000000007 156.50000000000003 163.50000000000003 26.500000000000004 189.50000000000003 138.50000000000003 127.50000000000001 124367.50000000001 36.500000000000007 464298.00000000006 69.500000000000014 464298.00000000006 71403.500000000015 127454.50000000001 6.5000000000000009 29.500000000000004 196.50000000000003 12.500000000000002 29.500000000000004 34.500000000000007 104749.50000000001 44.500000000000007 105397.50000000001 199.50000000000003 37.500000000000007 50.500000000000007 42660.500000000007 27.500000000000004 34.500000000000007 195.50000000000003 29.500000000000004 69.500000000000014 140636.00000000003 466400.00000000006 227.50000000000003 12.500000000000002 68695.000000000015 226.50000000000003 143.50000000000003 130422.00000000001 37.500000000000007 19.500000000000004 70.500000000000014 30.500000000000004 28.500000000000004 120.50000000000001 32.500000000000007
decision_type=2 2 2 2 2 2 2 2 2 2 2 2 2 2 2 2 2 2 2 2 2 2 2 2 2 2 2 2 2 2 2 2 2 2 2 2 2 2 2 2 2 2 2 2 2 2 2 2 2 2 2 2 2 2 2 2 2 2 2 2 2 2
left_child=5 4 3 6 8 9 10 13 17 21 22 15 35 44 -6 51 -10 47 40 48 60 -1 45 28 49 43 61 -12 -18 -21 -29 -26 55 -14 50 -8 37 -23 -17 54 57 -35 -37 -19 46 -3 -4 -2 -9 -15 56 -5 -43 -28 -22 -20 -31 -16 -49 -27 -11 -7
right_child=1 2 7 11 14 26 12 19 16 20 27 -13 33 24 18 38 23 25 32 29 39 36 -24 -25 31 59 53 30 -30 34 -32 -33 -34 41 -36 42 -38 -39 -40 -41 -42 52 -44 -45 -46 -47 -48 58 -50 -51 -52 -53 -54 -55 -56 -57 -58 -59 -60 -61 -62 -63
leaf_value=-0.053371985858479923 0.017480487728491426 0.055316676035125925 0.039257925547763847 0.042592298938796729 -0.023380682961888527 -0.057137175610843298 0.033013783304485143 -0.00080014660573901738 -0.007948511691454857 -0.066898517961640966 0.067699236439100627 0.0069775389899938535 0.046127273983712483 0.018881493965487602 0.022687542029926858 0.013455143668755998 0.018325585488167959 0.038278336757664677 -0.0056891778854732955 -0.009396672035918395 -0.038550585585352806 -0.027126134686653099 0.034329076922237106 -0.0022912755739353885 -0.0068667285598836801 0.024741522580734455 -0.077118542579394281 0.059606048199252241 0.0044222525607101838 0.043958979799515678 0.041288319048131024 0.015091136570593251 -0.03305227596226127 0.046450770188515123 0.0054840133928836339 0.030769000655232831 -0.060272155335899129 -0.039924774456380013 0.025515093621522617 -0.056006746179756629 -0.0044893589310423679 0.026712268014096222 0.01432887359745693 0.017630083578314595 0.039342352447352152 0.04128152085568676 0.019256979309220733 0.0083757420113586174 -0.017581273611217873 0.044255370213924089 -0.0041675650786298013 0.027529942896377682 0.043795281668592784 -0.065697609436964358 -0.048681137274885725 -0.019396005714073142 0.018633588693324436 -0.0044250476427133319 -0.017924737985819006 0.0055290035042365286 -0.055034978010609185 -0.069126391417450375
leaf_weight=236 250 403 107 223 438 541 454 301 373 206 368 503 563 489 124 520 548 360 444 138 514 483 438 423 167 136 459 352 441 45 205 179 86 190 647 203 59 524 516 311 197 415 346 102 289 278 263 108 163 51 48 290 126 392 487 187 267 46 52 121 790 225
leaf_count=236 250 403 107 223 438 541 454 301 373 206 368 503 563 489 124 520 548 360 444 138 514 483 438 423 167 136 459 352 441 45 205 179 86 190 647 203 59 524 516 311 197 415 346 102 289 278 263 108 163 51 48 290 126 392 487 187 267 46 52 121 790 225
internal_value=5.49948e-11 0.0197375 0.0273894 0.0347112 0.00326929 -0.0528007 0.041639 0.0125485 0.0109861 -0.046641 0.0504715 0.0200555 0.0337794 0.0217992 -0.0115052 0.0243023 0.00451464 0.0212178 -0.00670687 0.0036657 -0.051213 -0.0385364 0.0436149 0.00780696 0.0147231 0.0272772 -0.0665526 0.0587662 0.012126 0.00786436 0.0528643 0.00449298 -0.0125461 0.0397211 0.0102298 0.0261138 -0.0352519 -0.033786 0.0194618 -0.0464488 0.00470109 0.0347872 0.0204078 0.0337196 0.0313128 0.0495872 0.025041 0.0105917 -0.00669524 0.0212779 0.0187591 0.0340775 0.0306909 -0.0718577 -0.0434792 -0.00975126 0.0222863 0.0153512 -0.000171914 0.0156959 -0.0574887 -0.0606588
internal_weight=19210 13983 9547 6393 4436 5227 4341 3154 2914 3610 2044 2052 2297 1545 1522 1549 1785 1129 1084 1609 2308 1302 1119 1412 886 719 1617 925 989 1145 557 346 717 1294 1007 1003 1066 1007 1036 1312 367 731 549 462 659 681 370 410 464 540 360 513 541 851 1001 631 312 170 160 257 996 766
internal_count=19210 13983 9547 6393 4436 5227 4341 3154 2914 3610 2044 2052 2297 1545 1522 1549 1785 1129 1084 1609 2308 1302 1119 1412 886 719 1617 925 989 1145 557 346 717 1294 1007 1003 1066 1007 1036 1312 367 731 549 462 659 681 370 410 464 540 360 513 541 851 1001 631 312 170 160 257 996 766
is_linear=0
shrinkage=0.05


Tree=3
num_leaves=63
num_cat=0
split_feature=2 5 0 0 9 0 9 9 9 5 0 7 5 0 5 5 5 5 9 7 8 9 4 7 0 5 8 5 5 5 0 7 0 0 0 0 7 4 10 8 8 0 0 8 8 4 5 0 5 4 7 0 0 1 5 5 7 1 7 10 7 9
split_gain=7227.14 639.414 330.086 230.321 177.078 159.84 90.4366 61.3256 48.2895 44.9381 44.5948 37.9966 37.6096 37.4028 35.4483 33.2654 24.9112 23.0036 22.9971 20.7169 19.7767 19.5909 18.7094 18.7025 17.5398 17.5292 17.4166 17.0378 16.3449 15.9005 14.9345 14.3698 13.5398 13.5277 13.0323 12.9433 12.1284 12.7071 11.9556 11.9139 11.282 11.0435 10.4261 10.1769 10.1516 10.1409 10.008 9.6083 9.26776 9.2435 8.88462 8.82814 8.60857 8.41364 8.33194 8.2072 8.05458 8.02561 7.97692 7.71301 7.53228 7.47019
threshold=1.0000000180025095e-35 181.50000000000003 256769.00000000003 253540.00000000003 47.500000000000007 289438.00000000006 46.500000000000007 47.500000000000007 50.500000000000007 163.50000000000003 467710.00000000006 15.500000000000002 163.50000000000003 53307.000000000007 163.50000000000003 194.50000000000003 138.50000000000003 126.50000000000001 48.500000000000007 6.5000000000000009 28.500000000000004 38.500000000000007 69.500000000000014 15.500000000000002 464298.00000000006 201.50000000000003 28.500000000000004 195.50000000000003 197.50000000000003 210.50000000000003 130422.00000000001 6.5000000000000009 59153.000000000007 474526.00000000006 429369.50000000006 130422.00000000001 15.500000000000002 70.500000000000014 11.500000000000002 31.500000000000004 29.500000000000004 42660.500000000007 140636.00000000003 28.500000000000004 28.500000000000004 69.500000000000014 279.50000000000006 145369.00000000003 171.50000000000003 74.500000000000014 14.500000000000002 467710.00000000006 66073.500000000015 7.5000000000000009 123.50000000000001 143.50000000000003 14.500000000000002 7.5000000000000009 6.5000000000000009 12.500000000000002 12.500000000000002 44.500000000000007
decision_type=2 2 2 2 2 2 2 2 2 2 2 2 2 2 2 2 2 2 2 2 2 2 2 2 2 2 2 2 2 2 2 2 2 2 2 2 2 2 2 2 2 2 2 2 2 2 2 2 2 2 2 2 2 2 2 2 2 2 2 2 2 2
left_child=5 3 4 6 13 8 14 19 17 24 29 38 35 25 42 44 54 -1 45 -4 -14 28 47 -7 -5 49 -17 53 -15 31 -19 -9 -18 -25 -20 -8 -22 -38 43 -21 -23 -28 -2 -6 -13 -11 -43 -16 -24 -3 -34 -47 -46 -12 -10 -35 -44 -41 -29 61 -42 -26
right_child=1 2 7 9 11 23 12 10 16 18 27 15 20 21 22 26 32 30 34 39 36 40 48 33 59 -27 41 58 -30 -31 -32 -33 50 55 -36 -37 37 -39 -40 57 60 46 56 -45 52 51 -48 -49 -50 -51 -52 -53 -54 -55 -56 -57 -58 -59 -60 -61 -62 -63
leaf_value=-0.051470541727433011 0.016606463263370098 0.048351135746182494 0.00012087031486041752 -0.011896542279260149 0.033672055516105436 -0.072527215164384734 0.0028552935737250606 -0.0080760500293665678 -0.062472022100100444 0.014470947154425921 -0.023010093526970043 0.029901669367375358 0.021671236385671849 0.028725719369737945 0.038111855192469873 0.041302249427037974 -0.035960255911200986 -0.028884385122343516 -0.0014812340062853614 0.035949600879883074 -0.0050514253413341216 0.055622968345660453 0.0064420274503831521 -0.055591191753188156 -0.0037224093093894996 0.061944161045924366 0.037947666551624161 -0.012464423246727495 0.042122206467716222 0.023151265260796729 -0.040877335762258535 0.012781302697441302 -0.056951328400326406 -0.071983993674756788 -0.013729104195336926 -0.011585746926699707 0.013649024931695678 0.0012530404136434543 -0.030899562221020461 0.013921257017886622 0.015235610581934454 0.026866180418688792 -0.029834194462746384 0.0096059376703799045 0.026267031077413433 0.005893215035113572 0.055225554970093071 0.024405544102600953 0.024228242365176164 0.0056030515294808615 -0.04485656873351665 -0.015785896483767058 0.014730587976700847 -0.0046869486423604416 -0.051952743159309138 -0.059267450467399931 0.0044591874549431464 0.026762190814453409 0.0069928840810480983 -0.043540699244101325 0.04360743997462483 -0.028097384258023935
leaf_weight=217 250 464 81 454 52 405 363 93 252 223 101 258 347 448 414 441 366 655 481 241 153 237 97 699 39 348 337 61 463 350 430 737 190 283 396 271 714 291 15.999999999999998 179 25 1118 20 283 237 157 32 185 299 12.999999999999998 756 67 509 165 744 230 119 380 386 62 364 162
leaf_count=217 250 464 81 454 52 405 363 93 252 223 101 258 347 448 414 441 366 655 481 241 153 237 97 699 39 348 337 61 463 350 430 737 190 283 396 271 714 291 16 179 25 1118 20 283 237 157 32 185 299 13 756 67 509 165 744 230 119 380 386 62 364 162
internal_value=6.13487e-12 0.0187506 0.0274427 0.00559845 0.034383 -0.0501607 0.0133414 0.0133195 -0.0443089 -0.00776683 0.00824789 0.0268715 0.00689753 0.0448233 0.0233006 0.0287326 -0.0486523 -0.0366096 -0.0023071 0.024217 0.0112007 0.0402136 0.028304 -0.063225 -0.0178487 0.0534113 0.0325759 -0.00162474 0.0355343 0.0142133 -0.0336374 0.0104443 -0.0441264 -0.0601165 -0.00701163 -0.00331745 0.00806319 0.0100597 0.0113249 0.0266567 0.0470234 0.0299879 0.0105028 0.0133416 0.0213524 0.00692304 0.0276553 0.0338787 0.0198715 0.0471861 -0.0472857 -0.000591162 0.0183957 -0.0116442 -0.0546142 -0.0662826 -0.000475112 0.0226503 0.00433764 -0.0281235 0.0417841 -0.0233679
internal_weight=19210 13983 8419 5564 5645 5227 3523 2774 3610 2041 1893 3283 2139 2362 1384 2932 2308 1302 1324 881 1505 1537 995 1617 717 825 1928 713 911 1180 1085 830 1312 1212 877 634 1158 1005 351 800 626 1487 389 335 1004 447 1150 599 396 477 946 224 746 266 996 513 139 559 447 263 389 201
internal_count=19210 13983 8419 5564 5645 5227 3523 2774 3610 2041 1893 3283 2139 2362 1384 2932 2308 1302 1324 881 1505 1537 995 1617 717 825 1928 713 911 1180 1085 830 1312 1212 877 634 1158 1005 351 800 626 1487 389 335 1004 447 1150 599 396 477 946 224 746 266 996 513 139 559 447 263 389 201
is_linear=0
shrinkage=0.05


Tree=4
num_leaves=63
num_cat=0
split_feature=2 5 3 9 9 10 10 10 10 5 5 9 3 5 5 7 3 4 4 10 8 10 5 3 4 5 3 7 9 10 10 7 10 5 9 8 5 7 3 5 9 8 8 3 8 3 7 5 5 5 3 10 10 5 10 10 10 4 9 3 4 5
split_gain=6522.5 578.724 294.578 181.77 105.384 70.0573 67.4878 61.7988 56.9998 56.2257 53.4201 45.3228 42.5416 40.5916 38.9685 34.2537 32.1954 30.5047 28.9144 27.3852 26.1139 25.7692 20.7165 20.5584 20.461 18.9948 18.8667 18.3925 16.3389 14.4194 14.0795 13.4391 13.4185 13.274 12.8633 12.6737 12.5111 11.8043 11.4264 11.3939 11.1177 10.655 10.6534 10.6315 10.629 10.2337 9.92517 9.70911 9.32669 9.31319 9.10453 8.78513 8.71109 8.35392 8.22868 8.18083 7.91791 7.7667 7.62358 7.62 7.40905 7.33259
threshold=1.0000000180025095e-35 176.50000000000003 35.500000000000007 47.500000000000007 46.500000000000007 6.5000000000000009 6.5000000000000009 6.5000000000000009 6.5000000000000009 126.50000000000001 194.50000000000003 50.500000000000007 43.500000000000007 202.50000000000003 163.50000000000003 15.500000000000002 36.500000000000007 70.500000000000014 69.500000000000014 1.0000000180025095e-35 28.500000000000004 2.5000000000000004 196.50000000000003 39.500000000000007 73.500000000000014 188.50000000000003 44.500000000000007 14.500000000000002 38.500000000000007 6.5000000000000009 1.0000000180025095e-35 2.5000000000000004 2.5000000000000004 211.50000000000003 47.500000000000007 30.500000000000004 156.50000000000003 15.500000000000002 31.500000000000004 167.50000000000003 40.500000000000007 27.500000000000004 30.500000000000004 27.500000000000004 28.500000000000004 29.500000000000004 12.500000000000002 154.50000000000003 163.50000000000003 189.50000000000003 29.500000000000004 6.5000000000000009 12.500000000000002 145.50000000000003 6.5000000000000009 3.5000000000000004 12.500000000000002 70.500000000000014 38.500000000000007 31.500000000000004 70.500000000000014 219.50000000000003
decision_type=2 2 2 2 2 2 2 2 2 2 2 2 2 2 2 2 2 2 2 2 2 2 2 2 2 2 2 2 2 2 2 2 2 2 2 2 2 2 2 2 2 2 2 2 2 2 2 2 2 2 2 2 2 2 2 2 2 2 2 2 2 2
left_child=5 4 3 10 14 9 13 12 16 -1 17 26 19 20 42 -8 21 29 38 33 -5 39 57 32 46 -17 53 56 31 40 37 -12 -13 -4 -7 59 -23 -15 51 -6 -3 -14 -2 -20 -27 54 -22 -18 -37 -9 -30 -16 -46 -11 -44 -24 -10 -21 -19 -29 -38 -43
right_child=1 2 7 6 8 34 15 49 27 11 28 23 41 30 18 25 47 58 43 22 24 36 55 -25 -26 44 -28 35 50 -31 -32 -33 -34 -35 -36 48 60 -39 -40 -41 -42 61 45 -45 52 -47 -48 -49 -50 -51 -52 -53 -54 -55 -56 -57 -58 -59 -60 -61 -62 -63
leaf_value=-0.057190524783410301 0.013357190258582312 0.038338867963127153 0.0065590286280627092 0.033087054232335898 -0.0069294304814904416 -0.051511581378526516 -0.015769231516542366 -0.015764850561921725 -0.025359860442292232 -0.036949367364296243 0.017794313632338396 -0.048770582181296873 0.018953834821444915 0.0054932988115719388 0.034659358773099641 0.0035649975739508511 -0.022746072990368262 0.020473976577746147 0.016440821720752865 0.022455536001732695 0.0079475128944332327 -0.0019166332208848697 0.026631302425876059 -0.056234204596667385 0.0023128961437086791 0.035707700021347315 -0.05926047975404395 0.013247574314557234 0.057363886124192354 0.024951251302548175 0.040334947761073242 0.043777808658678682 -0.040347820484652824 0.021566625788783933 -0.064326633276468842 -0.024031102330007249 0.017703129767663285 0.031321915002836549 0.01635439909900049 0.0054115803188730868 0.052807089577232437 -0.00030685861233296327 0.011932495602117905 -0.00044486601289890995 0.021801050509033866 -0.0095017578067162489 0.022907568789208712 -0.005766882166348325 -0.0092300975282026132 -0.00033671043572228469 0.04496890800049079 0.017382124673107079 0.0066674633288300415 -0.028344063358979727 -0.007664501650306659 0.039700203124269563 -0.053708305230571164 0.010208008545014309 0.031994084512310415 -0.019522790300349396 0.0047513727301828051 0.014307197295773538
leaf_weight=776 185 399 473 439 430 286 103 137 78 594 53 863 111 49 315 251 99 388 190 281 124 141 389 432 161 92 72 68 398 133 559 815 1046 214 621 190 463 455 213 331 199 515 171 183 301 195 1047 563 242 342 236 96 139 537 78 173 36 240 228 24 145 103
leaf_count=776 185 399 473 439 430 286 103 137 78 594 53 863 111 49 315 251 99 388 190 281 124 141 389 432 161 92 72 68 398 133 559 815 1046 214 621 190 463 455 213 331 199 515 171 183 301 195 1047 563 242 342 236 96 139 537 78 173 36 240 228 24 145 103
internal_value=-4.6467e-11 0.0178131 0.0247468 0.0306604 0.00289054 -0.0476527 0.0233817 0.0117024 -0.00297176 -0.0450003 0.0401644 -0.0423311 0.0148559 0.0271472 0.0130216 0.011337 0.00088776 0.0329346 0.0191697 0.0190426 0.0225112 0.00491843 0.023996 -0.0463845 0.0190256 0.0149027 -0.0344434 -0.0161111 0.0466481 0.0398418 0.034871 0.0421913 -0.0441555 0.0112339 -0.0602857 -0.0121513 0.0115023 0.0288108 0.025753 -0.00156166 0.0431535 0.00469065 0.00327641 0.00815642 0.0202519 -0.000923913 0.0213234 -0.00830607 -0.0157398 -0.00474935 0.05275 0.0306238 0.0170202 -0.0328636 0.00579368 0.0306543 -0.034312 0.0168137 0.0247379 0.00469878 0.0146143 0.00212882
internal_weight=19210 13983 9547 6569 4436 5227 3720 2978 2810 4320 2849 3544 2499 2834 1626 886 2172 1347 997 1770 1771 1510 1083 2341 1332 783 1203 638 1502 731 1063 868 1909 687 907 524 749 504 624 761 598 729 629 373 532 444 1171 662 432 479 634 411 440 1131 249 562 114 521 616 92 608 618
internal_count=19210 13983 9547 6569 4436 5227 3720 2978 2810 4320 2849 3544 2499 2834 1626 886 2172 1347 997 1770 1771 1510 1083 2341 1332 783 1203 638 1502 731 1063 868 1909 687 907 524 749 504 624 761 598 729 629 373 532 444 1171 662 432 479 634 411 440 1131 249 562 114 521 616 92 608 618
is_linear=0
shrinkage=0.05


Tree=5
num_leaves=63
num_cat=0
split_feature=2 5 0 0 9 0 9 8 0 5 5 0 7 9 5 5 0 5 7 7 8 7 7 8 5 9 8 5 4 8 0 9 5 9 0 5 5 4 10 0 5 8 8 4 7 0 0 8 7 8 0 5 4 7 10 7 8 8 7 7 5 5
split_gain=5886.55 524.768 287.103 199.505 147.089 138.488 73.2747 54.3987 48.2384 40.3492 40.2763 33.3461 32.3943 31.8335 28.3162 27.8407 27.734 27.3606 18.104 18.0778 16.7877 16.7729 16.6478 16.3712 15.6537 15.3403 15.0389 14.8025 14.5829 14.5769 14.5195 12.4801 12.1533 12.0518 11.4609 11.4364 11.066 10.325 10.2101 10.0108 9.99415 9.92904 13.8326 11.0791 9.86872 9.83744 8.90119 8.87332 8.83342 8.67169 8.6176 8.58877 8.42116 8.38398 8.27042 7.89425 7.78341 8.30072 7.74073 7.66737 7.4079 7.26467
threshold=1.0000000180025095e-35 181.50000000000003 256769.00000000003 245182.00000000003 47.500000000000007 289438.00000000006 46.500000000000007 31.500000000000004 464298.00000000006 157.50000000000003 132.50000000000003 53307.000000000007 15.500000000000002 50.500000000000007 163.50000000000003 194.50000000000003 429369.50000000006 163.50000000000003 12.500000000000002 6.5000000000000009 31.500000000000004 6.5000000000000009 15.500000000000002 28.500000000000004 189.50000000000003 51.500000000000007 31.500000000000004 201.50000000000003 69.500000000000014 28.500000000000004 59153.000000000007 47.500000000000007 144.50000000000003 47.500000000000007 145369.00000000003 195.50000000000003 229.50000000000003 70.500000000000014 11.500000000000002 130422.00000000001 226.50000000000003 35.500000000000007 46.500000000000007 72.500000000000014 14.500000000000002 61671.000000000007 476793.50000000006 31.500000000000004 19.500000000000004 25.500000000000004 140636.00000000003 187.50000000000003 70.500000000000014 2.5000000000000004 12.500000000000002 15.500000000000002 28.500000000000004 36.500000000000007 14.500000000000002 6.5000000000000009 209.50000000000003 171.50000000000003
decision_type=2 2 2 2 2 2 2 2 2 2 2 2 2 2 2 2 2 2 2 2 2 2 2 2 2 2 2 2 2 2 2 2 2 2 2 2 2 2 2 2 2 2 2 2 2 2 2 2 2 2 2 2 2 2 2 2 2 2 2 2 2 2
left_child=5 3 4 6 11 10 17 51 19 47 45 27 38 34 39 48 25 50 -13 -9 -18 -10 -7 -16 -23 -11 60 52 55 -17 -15 -26 46 -21 -12 -28 -35 44 49 -8 41 43 -43 -31 -25 -1 -24 -5 -14 -6 -2 -4 -3 -22 -33 -19 -50 -58 -52 -32 -20 -30
right_child=1 2 7 9 12 22 14 8 21 16 13 18 15 30 23 29 20 28 26 33 53 24 32 37 31 -27 35 -29 61 40 59 54 -34 36 -36 -37 -38 -39 -40 -41 -42 42 -44 -45 -46 -47 -48 -49 56 -51 58 -53 -54 -55 -56 -57 57 -59 -60 -61 -62 -63
leaf_value=-0.040305115190878982 0.015501275861868636 0.049943110746586236 0.014696356171922987 -0.0039871358996422237 0.033179923741235622 -0.066206866554272034 0.0028606555577926854 -0.0035726994805207312 -0.018077962174266576 0.0094975530937813687 -0.025262733034699555 0.016289068896395083 0.037364113998773978 -0.033148106427296958 0.0201942721807351 0.037641264854171665 0.0049779565141313889 0.010895594059151005 0.0415680738473726 0.023291852716540329 -0.029614957113733034 -0.012750195151807479 -0.054096914228819154 -0.0043560010588407751 0.018932866674466906 -0.0030005819080280095 0.02774568576233984 0.056734808978902977 0.0061313141788764116 0.026394307660933938 -0.052183158031209959 0.0048789164223797766 -0.048770254749982131 0.010367764163512557 -0.036882978901731263 0.038996008602297121 0.027727837515232664 5.5495916898924593e-05 -0.028951963665895166 -0.010284343479042758 0.035197009036450518 0.037282309263052114 0.021712804803118001 0.012604945482327099 0.012749533291635995 -0.051251883624881395 -0.065654329455811788 -0.022273307757149564 0.02595853131696987 0.0088866650122404588 -0.031052830297913815 0.029014055325868815 0.036653752124642211 -0.012189493135973409 -0.011828133619580699 0.032929550917719583 0.010451421359841256 0.021362090248005609 0.0045379497014022994 -0.041743905480917123 0.056100657188965543 0.022468598308984296
leaf_weight=284 250 234 139 79 42 405 363 132 125 418 626 104 64 457 335 441 134 44 404 380 81 149 403 96 132 595 403 348 89 351 215 364 525 730 321 514 105 323 15.999999999999998 241 315 300 272 249 693 740 284 414 239 293 18 425 243 467 93 534 376 325 101 967 112 289
leaf_count=284 250 234 139 79 42 405 363 132 125 418 626 104 64 457 335 441 134 44 404 380 81 149 403 96 132 595 403 348 89 351 215 364 525 730 321 514 105 323 16 241 315 300 272 249 693 740 284 414 239 293 18 425 243 467 93 534 376 325 101 967 112 289
internal_value=5.32422e-11 0.0169224 0.0247968 0.00500755 0.0312694 -0.04527 0.0126297 0.0116253 0.00808811 -0.00675309 -0.0398231 0.0407847 0.0244235 -0.0364997 0.00670899 0.026142 -0.00309123 0.0217944 0.0364322 0.0140009 -0.010886 -0.00114076 -0.0574305 0.0105047 0.00172801 0.0021566 0.0378941 0.0488937 0.0262583 0.0296579 -0.0407165 0.00539057 -0.0544977 0.0159101 -0.0292016 0.0340518 0.0125508 0.00758559 0.0100687 -0.00238429 0.0272903 0.0251652 0.0298786 0.0206717 0.0106683 -0.0482159 -0.0588747 -0.0193431 0.0193902 0.0119324 0.0102295 0.0254854 0.0431731 -0.0147652 0.00147901 0.0312522 0.0181665 0.0155099 -0.00084553 -0.0436428 0.0447224 0.018622
internal_weight=19210 13983 8419 5564 5645 5227 3376 2774 2210 2188 3610 2362 3283 2586 2051 2932 1695 1325 1537 1347 682 863 1617 1447 738 1013 1433 825 956 1928 1639 589 1212 1215 947 917 835 1112 351 604 1487 1172 572 600 789 1024 687 493 1004 335 369 564 477 548 457 578 940 701 119 1182 516 378
internal_count=19210 13983 8419 5564 5645 5227 3376 2774 2210 2188 3610 2362 3283 2586 2051 2932 1695 1325 1537 1347 682 863 1617 1447 738 1013 1433 825 956 1928 1639 589 1212 1215 947 917 835 1112 351 604 1487 1172 572 600 789 1024 687 493 1004 335 369 564 477 548 457 578 940 701 119 1182 516 378
is_linear=0
shrinkage=0.05


Tree=6
num_leaves=63
num_cat=0
split_feature=2 5 0 3 0 0 3 3 3 0 3 5 8 0 0 1 5 3 5 0 4 1 10 3 5 0 0 5 8 5 7 5 7 0 0 7 5 4 0 5 0 3 10 10 4 5 8 5 7 3 0 5 5 4 5 5 7 3 5 7 5 3
split_gain=5312.61 475.217 293.383 208.276 143.825 125.066 83.9194 68.9673 60.6821 56.1197 41.8685 35.0741 34.8541 32.9133 32.5689 30.3831 27.0362 24.8866 22.2879 20.8524 19.9353 19.6227 19.576 16.6559 15.9939 15.4751 15.2969 14.6358 14.6159 14.5771 14.3719 13.7692 13.1509 11.9841 11.7889 11.657 11.2336 10.7347 10.5433 10.528 9.98768 9.77993 10.1175 9.53469 9.42152 9.05105 11.1093 8.74922 8.9787 8.64979 8.6414 8.47257 8.42568 8.21592 8.95195 8.10889 7.81433 7.70584 7.49986 7.48805 7.46825 7.36558
threshold=1.0000000180025095e-35 176.50000000000003 256769.00000000003 37.500000000000007 235233.50000000003 296932.00000000006 30.500000000000004 32.500000000000007 28.500000000000004 42660.500000000007 34.500000000000007 194.50000000000003 31.500000000000004 429369.50000000006 111356.50000000001 7.5000000000000009 194.50000000000003 45.500000000000007 211.50000000000003 103086.00000000001 70.500000000000014 5.5000000000000009 6.5000000000000009 27.500000000000004 154.50000000000003 39715.000000000007 76774.000000000015 200.50000000000003 31.500000000000004 126.50000000000001 15.500000000000002 187.50000000000003 11.500000000000002 32176.000000000004 326713.00000000006 12.500000000000002 141.50000000000003 70.500000000000014 97782.000000000015 143.50000000000003 464298.00000000006 49.500000000000007 12.500000000000002 12.500000000000002 75.500000000000014 250.50000000000003 28.500000000000004 152.50000000000003 15.500000000000002 36.500000000000007 472963.50000000006 195.50000000000003 209.50000000000003 70.500000000000014 163.50000000000003 169.50000000000003 12.500000000000002 39.500000000000007 219.50000000000003 15.500000000000002 154.50000000000003 45.500000000000007
decision_type=2 2 2 2 2 2 2 2 2 2 2 2 2 2 2 2 2 2 2 2 2 2 2 2 2 2 2 2 2 2 2 2 2 2 2 2 2 2 2 2 2 2 2 2 2 2 2 2 2 2 2 2 2 2 2 2 2 2 2 2 2 2
left_child=5 4 3 8 7 10 15 19 11 27 14 20 -6 23 39 21 -11 26 22 53 38 -4 49 -14 -21 -12 51 37 -17 -16 -7 -30 -18 61 -33 -28 -32 -10 -3 -1 -23 42 -20 60 52 46 -34 -35 -49 -8 -24 -5 -13 54 -2 -25 -45 -38 -46 -26 -15 -9
right_child=1 2 6 17 12 30 18 33 9 16 25 44 13 43 29 28 32 -19 41 24 -22 40 50 55 59 -27 35 -29 31 -31 36 34 45 47 -36 -37 57 -39 -40 -41 -42 -43 -44 56 58 -47 -48 48 -50 -51 -52 -53 -54 -55 -56 -57 -58 -59 -60 -61 -62 -63
leaf_value=-0.032602100235624973 0.017919312631764283 0.049627526288774489 0.017341458273922902 0.016673782230082385 0.005361356100886356 -0.063120825187736804 0.0079917138369906323 0.013078626460481843 0.041381549051226076 0.017212536154435517 -0.036558826264468033 0.044908983118916196 0.0038921235158031393 -0.027495528749122679 -0.049871086427028581 0.034147878739839564 0.011711539647946453 0.0023657708627676283 0.01532018863218039 -0.0056382283584865854 0.025837783318767134 0.0076661816001967441 -0.0039701753316256101 -0.01458919590498124 -0.0014401071503016283 -0.049274742673425118 -0.0082914687132208866 0.047023538540481045 0.0085471307790255507 -0.036774849246754129 -0.05669974023340614 0.033697657864637347 0.039136794225018985 -0.017022453189792452 0.018288861843269257 0.013843662003356889 -0.044689734740490004 0.027523558945849555 0.034762823354851986 -0.022535335802508469 -0.012174131265808748 -0.026478782383834616 -0.0045927701948369907 -0.057315867513418196 0.016461710406597271 0.048551991605721136 0.026676151525511185 -0.015220987543995894 0.0016960600892968912 -0.0028077378612093133 -0.01911903131339996 0.030057777091616202 0.054919372541616107 0.010906209445027548 0.030592952597102055 -0.0023116490169472637 -0.026123558238660007 -0.062779851280041599 0.047166520095354804 0.01659560143297633 -0.013297562474318745 -0.0070755362335018753
leaf_weight=514 220 192 326 235 405 393 379 238 268 799 333 576 329 124 259 247 99 426 397 113 439 143 195 374 64 850 66 365 191 1183 618 202 233 93 322 602 485 292 315 525 114 17 76 25 43 67 770 91 568 363 182 238 331 107 380 210 102 67 37 571 366 56
leaf_count=514 220 192 326 235 405 393 379 238 268 799 333 576 329 124 259 247 99 426 397 113 439 143 195 374 64 850 66 365 191 1183 618 202 233 93 322 602 485 292 315 525 114 17 76 25 43 67 770 91 568 363 182 238 331 107 380 210 102 67 37 571 366 56
internal_value=-3.22782e-12 0.0160763 0.0223595 0.028516 0.00255392 -0.0430065 0.0098806 0.010473 0.0336585 0.0290755 -0.0379551 0.0405176 -0.00768155 -0.0111341 -0.0342643 0.0182037 0.0243012 0.0126781 0.00188858 0.0175129 0.033638 0.00919679 -0.00200554 -0.00510547 0.0116936 -0.0456954 0.0165283 0.0392332 0.0236621 -0.0391271 -0.0548482 0.0200398 0.0291462 0.000680351 0.0242289 0.0116567 -0.0520694 0.0341556 0.0403921 -0.0275154 -0.00113458 0.0107815 0.0121206 -0.0200549 0.0471113 0.0307593 0.0295708 -0.00266601 -0.000639981 0.00270842 -0.0112834 0.0234082 0.0485622 0.0236698 0.025946 -0.0101743 -0.0322638 -0.0468855 0.0306627 0.0147778 -0.0168905 0.00923974
internal_weight=19210 13983 9547 6393 4436 5227 3154 2501 4826 2893 3664 1933 1935 1530 2481 1545 1968 1567 1609 1455 946 583 1119 913 748 1183 1141 925 962 1442 1563 715 1169 1046 524 668 1170 560 507 1039 257 490 473 617 987 1070 1003 752 659 742 377 473 907 707 600 584 127 552 80 635 490 294
internal_count=19210 13983 9547 6393 4436 5227 3154 2501 4826 2893 3664 1933 1935 1530 2481 1545 1968 1567 1609 1455 946 583 1119 913 748 1183 1141 925 962 1442 1563 715 1169 1046 524 668 1170 560 507 1039 257 490 473 617 987 1070 1003 752 659 742 377 473 907 707 600 584 127 552 80 635 490 294
is_linear=0
shrinkage=0.05


Tree=7
num_leaves=63
num_cat=0
split_feature=2 5 0 3 0 0 3 9 3 3 5 9 3 9 0 8 0 5 5 5 0 4 0 5 3 7 0 0 0 8 3 5 5 5 0 0 4 5 3 0 0 7 10 4 7 5 1 5 0 3 5 3 0 3 3 1 4 3 7 9 5 8
split_gain=4794.63 431.309 236.731 192.797 163.25 113.83 79.2114 61.8291 46.6541 43.9283 41.9009 38.0313 33.9793 33.7632 33.0335 28.452 22.9206 20.449 20.3488 17.8392 17.2499 17.2321 16.7584 16.4983 16.2375 15.3611 14.7812 14.2993 14.243 13.1125 12.9999 12.8601 12.794 11.8387 11.5829 11.5137 11.4466 10.2982 10.2849 10.2607 10.2276 9.71352 9.6204 9.50777 9.28418 10.8449 9.28002 9.18942 9.15729 9.01614 8.56327 8.31087 8.21109 8.04672 7.95623 7.78066 8.16971 7.70052 7.54208 7.42356 7.177 7.02315
threshold=1.0000000180025095e-35 181.50000000000003 289438.00000000006 33.500000000000007 234198.50000000003 323518.50000000006 32.500000000000007 47.500000000000007 27.500000000000004 41.500000000000007 163.50000000000003 50.500000000000007 29.500000000000004 47.500000000000007 113340.00000000001 31.500000000000004 41289.500000000007 135.50000000000003 211.50000000000003 209.50000000000003 32176.000000000004 69.500000000000014 130422.00000000001 166.50000000000003 34.500000000000007 6.5000000000000009 412336.50000000006 455471.00000000006 127454.50000000001 28.500000000000004 32.500000000000007 141.50000000000003 226.50000000000003 196.50000000000003 421819.00000000006 471058.00000000006 73.500000000000014 205.50000000000003 45.500000000000007 26014.500000000004 66073.500000000015 15.500000000000002 12.500000000000002 72.500000000000014 15.500000000000002 152.50000000000003 8.5000000000000018 212.50000000000003 59153.000000000007 33.500000000000007 195.50000000000003 49.500000000000007 436921.00000000006 32.500000000000007 31.500000000000004 7.5000000000000009 71.500000000000014 29.500000000000004 15.500000000000002 51.500000000000007 143.50000000000003 31.500000000000004
decision_type=2 2 2 2 2 2 2 2 2 2 2 2 2 2 2 2 2 2 2 2 2 2 2 2 2 2 2 2 2 2 2 2 2 2 2 2 2 2 2 2 2 2 2 2 2 2 2 2 2 2 2 2 2 2 2 2 2 2 2 2 2 2
left_child=5 4 3 7 6 11 13 14 27 16 26 22 21 23 37 53 -5 -13 25 29 38 59 24 -2 60 -17 49 -4 -15 -9 -19 -7 36 -16 -14 -27 58 43 -8 -11 -32 -31 51 -3 -22 -46 -21 -41 -43 -6 55 -20 -23 -10 -24 -29 -57 -33 -18 -12 -1 -52
right_child=1 2 8 9 10 31 20 19 15 39 12 17 34 28 33 18 32 30 42 46 44 52 54 -25 -26 35 -28 50 -30 41 40 57 -34 -35 -36 -37 -38 -39 -40 47 -42 48 -44 -45 45 -47 -48 -49 -50 -51 61 -53 -54 -55 -56 56 -58 -59 -60 -61 -62 -63
leaf_value=-0.026065027609316484 0.017181772297617498 0.047607506886052697 0.026124007521524075 0.03065501076132859 -0.0046093600864558588 -0.058114525350232454 0.015273252475881209 0.033649105821673707 0.028346151233164835 0.01883586207337706 0.021379509044962823 -0.046031098017885824 -0.0030445597259921003 0.017237131835982623 0.028783449152278102 -0.020611499217608253 0.0058796530067224372 -0.03252599913491664 0.014052564235346263 0.027469809080008418 -0.013576300568350658 0.0052127396555317479 -0.03217459348717483 0.031611313923315794 -0.035734617735609445 0.004018015506013539 -0.022180933326285221 -0.012173932228513339 0.0048637609087292593 0.0073343678745821277 -0.033163033330433064 -0.042879805531939152 0.029654443136084355 0.040593459620425126 -0.015416038433498839 -0.0088957939655283248 0.0050100398845321949 0.056134172813035545 -0.0065482076585221182 0.0010959645967175454 -0.046043783934858515 0.033729853882531531 -0.0070603834572248161 0.032143540310955468 -0.017006387133886549 0.0028400605131572191 0.040992354718976332 0.013748712774487077 0.021199666691491707 -0.019983008129952046 0.039267825697149553 -0.028273334540426732 -0.0094069165727123632 0.010865959561242445 -0.044291622295147846 0.024870945792205914 -0.0036048188883190356 -0.053797875115682625 0.020084084918738917 0.0071124887081502374 -0.014435704138561371 0.014346055798295912
leaf_weight=259 320 518 359 495 358 697 319 343 115 165 198 943 501 602 441 121 107 847 346 200 127 267 429 520 242 416 349 54 379 98 231 324 196 409 304 295 201 280 65 473 463 187 75 123 76 730 347 206 662 130 35 11.999999999999998 150 154 198 53 48 322 738 169 272 147
leaf_count=259 320 518 359 495 358 697 319 343 115 165 198 943 501 602 441 121 107 847 346 200 127 267 429 520 242 416 349 54 379 98 231 324 196 409 304 295 201 280 65 473 463 187 75 123 76 730 347 206 662 130 35 12 150 154 198 53 48 322 738 169 272 147
internal_value=-2.22496e-11 0.0152725 0.0224113 0.0274441 0.00447058 -0.0408562 0.012001 0.0349081 0.00844363 0.0170102 -0.00526998 -0.0365174 -0.00050087 0.0187568 0.0415743 0.00357222 0.0215571 -0.0402318 0.000432112 0.0284814 0.00265991 0.00690806 -0.029927 0.0261143 -0.0250002 -0.00414274 -0.0143239 0.0191803 0.0124568 0.0252729 -0.036683 -0.0534042 0.0179311 0.0344661 -0.00771652 -0.00134003 0.0157344 0.0481345 0.0115795 0.0076523 -0.0417564 0.0222391 0.00922258 0.0446402 -0.00101118 0.000968683 0.0360481 0.00493465 0.0239596 -0.0087048 0.0117833 0.0126338 -4.61295e-05 0.0183389 -0.036001 0.00314669 0.0113379 -0.0483219 0.0182854 0.0148097 -0.020108 0.0191387
internal_weight=19210 13983 8419 6189 5564 5227 3138 3608 2230 2581 2426 3884 1589 1821 1771 1534 1737 2484 1265 1837 1317 784 1400 840 773 832 837 696 981 1290 1541 1343 1242 850 805 711 1046 921 384 844 694 947 433 641 933 806 547 679 849 488 337 358 417 269 627 155 101 646 845 367 531 182
internal_count=19210 13983 8419 6189 5564 5227 3138 3608 2230 2581 2426 3884 1589 1821 1771 1534 1737 2484 1265 1837 1317 784 1400 840 773 832 837 696 981 1290 1541 1343 1242 850 805 711 1046 921 384 844 694 947 433 641 933 806 547 679 849 488 337 358 417 269 627 155 101 646 845 367 531 182
is_linear=0
shrinkage=0.05


Tree=8
num_leaves=63
num_cat=0
split_feature=2 5 0 3 0 0 9 3 3 0 0 5 0 3 8 9 3 10 3 5 5 10 5 3 3 5 0 9 0 3 5 9 5 5 0 7 9 3 5 4 5 9 4 3 10 5 3 9 5 8 3 7 7 0 5 0 4 9 3 5 9 0
split_gain=4327.16 390.782 240.76 171.593 118.179 102.928 81.1583 70.0437 51.9045 37.3083 31.7272 29.8867 29.6541 29.2076 25.8861 25.2031 21.41 21.2727 20.4836 19.4077 18.3329 16.9935 16.9636 16.9607 16.2275 16.1438 15.1974 14.7617 14.5388 14.2329 14.0585 13.6311 11.643 11.128 10.9772 10.9162 10.598 9.80479 8.66235 8.62575 8.523 8.47993 8.42725 8.11796 8.27817 8.08146 7.96317 7.75725 7.75229 7.55414 7.54469 7.51081 8.54134 7.85339 7.41694 7.36877 7.356 7.26564 7.17456 7.14903 7.1342 7.07412
threshold=1.0000000180025095e-35 176.50000000000003 256769.00000000003 37.500000000000007 265599.00000000006 343924.50000000006 47.500000000000007 30.500000000000004 32.500000000000007 59153.000000000007 135461.50000000003 187.50000000000003 53307.000000000007 32.500000000000007 31.500000000000004 49.500000000000007 46.500000000000007 12.500000000000002 29.500000000000004 141.50000000000003 211.50000000000003 6.5000000000000009 208.50000000000003 28.500000000000004 40.500000000000007 196.50000000000003 42660.500000000007 48.500000000000007 474526.00000000006 30.500000000000004 152.50000000000003 50.500000000000007 144.50000000000003 132.50000000000003 68695.000000000015 15.500000000000002 40.500000000000007 39.500000000000007 201.50000000000003 72.500000000000014 120.50000000000001 50.500000000000007 69.500000000000014 49.500000000000007 12.500000000000002 225.50000000000003 45.500000000000007 46.500000000000007 200.50000000000003 31.500000000000004 36.500000000000007 6.5000000000000009 19.500000000000004 455471.00000000006 163.50000000000003 104749.50000000001 70.500000000000014 38.500000000000007 27.500000000000004 253.50000000000003 50.500000000000007 472963.50000000006
decision_type=2 2 2 2 2 2 2 2 2 2 2 2 2 2 2 2 2 2 2 2 2 2 2 2 2 2 2 2 2 2 2 2 2 2 2 2 2 2 2 2 2 2 2 2 2 2 2 2 2 2 2 2 2 2 2 2 2 2 2 2 2 2
left_child=5 4 3 6 8 9 12 15 10 24 31 39 38 19 -6 36 27 29 25 40 21 50 28 -13 41 57 -25 -5 -17 32 -12 -2 -16 -7 -10 -28 51 -35 56 55 -11 -1 -34 44 -22 -37 -15 -32 -29 -24 -9 -4 -53 -54 -36 -8 -3 -14 -42 -20 -21 -23
right_child=1 2 7 16 14 33 11 20 34 13 30 23 18 46 17 22 -18 -19 59 60 43 61 49 26 -26 -27 35 48 -30 -31 47 -33 42 37 54 45 -38 -39 -40 -41 58 -43 -44 -45 -46 -47 -48 -49 -50 -51 -52 52 53 -55 -56 -57 -58 -59 -60 -61 -62 -63
leaf_value=-0.018416608655119432 0.025626912793454706 0.047427250160986686 -0.00096257961820811033 0.022577134456005107 0.0042249521634476952 -0.058497647194139149 0.02424145141216939 0.0073951701609059036 0.0056923677289350818 -0.04875312211612861 -0.009840847635402895 0.035167654626039484 0.027160730765776738 -0.042522559031479841 -0.026566138346943092 0.011861874375722489 0.00036757315614915106 -0.02866495521115961 0.024668424542319808 -0.022609675460116704 0.013780235899207641 -0.0039584798101956649 0.043295561863730354 0.033602049051343383 -0.039774188695507896 0.045918487743909164 0.0045473338201128212 0.0063378289196214695 -0.0043161329379597423 -0.015893688317653705 0.015102084972775251 0.013717074032497665 0.0029473246245179329 -0.046073001058843814 -0.011027999140826011 0.020707988497256115 0.033551049869710546 -0.061741341098115368 0.052357907002944307 0.0033285457168875095 -0.032492466405442288 -0.028352987851672597 -0.010264593151199127 -0.024280987482737094 -0.0042319197424053288 0.033033102247036476 -0.054412881713584965 0.0042435654834690993 0.015994625969070361 0.018514577253893796 -0.002690847045979296 0.037655761426846901 0.023864620816813592 0.0080212451225557067 -0.00017031646577294831 0.013699801313264301 0.034801400892019912 0.0390072277645864 -0.042042200092457085 0.055882530541796441 -0.032034423456759262 -0.017664899960880494
leaf_weight=381 482 239 40 387 296 389 301 379 488 177 117 568 296 928 53 435 343 170 531 320 397 195 36 353 201 375 87 453 204 486 290 479 325 717 248 669 199 116 290 110 454 492 192 17 76 166 166 380 384 211 363 70 232 118 430 369 223 230 347 19 539 182
leaf_count=381 482 239 40 387 296 389 301 379 488 177 117 568 296 928 53 435 343 170 531 320 397 195 36 353 201 375 87 453 204 486 290 479 325 717 248 669 199 116 290 110 454 492 192 17 76 166 166 380 384 211 363 70 232 118 430 369 223 230 347 19 539 182
internal_value=3.80376e-12 0.0145089 0.0202066 0.0257837 0.00224649 -0.0388134 0.0304514 0.0089021 0.00814452 -0.0349377 0.0135946 0.0245092 0.0375266 -0.037859 -0.00904581 0.016506 0.011408 -0.0122498 0.0333504 -0.0340072 0.00160064 -0.00193112 0.0109985 0.0279813 -0.0269656 0.0379919 0.0247798 0.0145019 0.00669706 -0.00960725 0.00615093 0.0196906 -0.00424724 -0.0515155 -2.59901e-05 0.0214021 0.0239107 -0.0482549 0.0455846 0.0163052 -0.0388236 -0.0240165 -0.00195923 0.00966602 0.0108861 0.0231583 -0.0443268 0.00894352 0.0107682 0.0221264 0.00246091 0.0197402 0.0217119 0.0185231 -0.00414186 0.0184357 0.041333 0.0323408 -0.0366295 0.0257467 -0.0285235 -0.0105754
internal_weight=19210 13983 9547 6393 4436 5227 4826 3154 2914 4005 1748 2623 2203 2931 1522 1545 1567 1226 1451 1837 1609 1119 886 1843 1074 901 1275 1224 639 1056 787 961 570 1222 1166 922 659 833 752 780 978 873 517 490 473 835 1094 670 837 247 742 460 420 350 678 670 462 526 801 550 859 377
internal_count=19210 13983 9547 6393 4436 5227 4826 3154 2914 4005 1748 2623 2203 2931 1522 1545 1567 1226 1451 1837 1609 1119 886 1843 1074 901 1275 1224 639 1056 787 961 570 1222 1166 922 659 833 752 780 978 873 517 490 473 835 1094 670 837 247 742 460 420 350 678 670 462 526 801 550 859 377
is_linear=0
shrinkage=0.05


Tree=9
num_leaves=63
num_cat=0
split_feature=2 5 0 3 0 0 3 0 5 3 0 3 3 0 5 3 4 0 4 8 1 0 0 7 7 10 1 7 10 0 7 0 0 5 5 5 3 0 5 4 7 3 5 4 7 10 7 5 10 0 3 8 5 8 5 5 0 5 5 4 7 5
split_gain=3905.26 357.955 185.716 157.642 117.559 94.0204 87.3279 59.245 45.5856 42.6607 39.6686 32.8835 29.7253 24.7173 24.349 24.0436 22.6801 21.8178 20.6212 20.2095 19.8783 17.2403 15.942 13.625 13.3812 13.172 12.9039 12.1792 12.0612 11.9122 11.7566 11.666 11.6605 11.3458 10.9679 10.8975 10.0171 9.45198 8.97496 8.96362 8.95293 8.75804 8.69577 15.4282 8.6164 8.14511 8.01952 7.94069 7.89997 7.65539 7.49323 7.35638 6.88185 6.83429 6.98244 6.7371 6.70447 6.69503 6.66494 8.49852 6.43693 6.7245
threshold=1.0000000180025095e-35 187.50000000000003 245182.00000000003 33.500000000000007 289438.00000000006 289438.00000000006 33.500000000000007 256769.00000000003 163.50000000000003 27.500000000000004 96155.500000000015 34.500000000000007 43.500000000000007 130422.00000000001 164.50000000000003 28.500000000000004 70.500000000000014 421819.00000000006 70.500000000000014 31.500000000000004 7.5000000000000009 31015.000000000004 108383.00000000001 1.0000000180025095e-35 12.500000000000002 12.500000000000002 5.5000000000000009 15.500000000000002 6.5000000000000009 39715.000000000007 6.5000000000000009 32176.000000000004 117809.50000000001 143.50000000000003 169.50000000000003 178.50000000000003 46.500000000000007 436921.00000000006 126.50000000000001 71.500000000000014 19.500000000000004 26.500000000000004 202.50000000000003 73.500000000000014 15.500000000000002 6.5000000000000009 14.500000000000002 151.50000000000003 7.5000000000000009 436921.00000000006 24.500000000000004 31.500000000000004 135.50000000000003 31.500000000000004 254.50000000000003 141.50000000000003 230787.00000000003 172.50000000000003 233.50000000000003 72.500000000000014 15.500000000000002 170.50000000000003
decision_type=2 2 2 2 2 2 2 2 2 2 2 2 2 2 2 2 2 2 2 2 2 2 2 2 2 2 2 2 2 2 2 2 2 2 2 2 2 2 2 2 2 2 2 2 2 2 2 2 2 2 2 2 2 2 2 2 2 2 2 2 2 2
left_child=5 2 6 4 10 11 8 12 32 14 -3 13 21 33 49 42 22 34 -16 57 26 -5 60 -21 48 27 -6 -7 -19 -13 -22 -25 -2 -1 -11 -18 45 -20 -15 -36 -32 -24 43 -12 -17 -9 -34 -33 -23 -4 -29 -28 -31 -46 -55 -52 -44 -8 59 -26 -10 -62
right_child=1 3 9 7 20 25 19 36 16 17 15 29 -14 38 18 44 35 28 37 23 30 24 41 31 58 -27 51 50 -30 52 40 47 46 -35 39 -37 -38 -39 -40 -41 -42 -43 56 -45 53 -47 -48 -49 -50 -51 55 -53 -54 54 -56 -57 -58 -59 -60 -61 61 -63
leaf_value=-0.028929751034314506 0.012525392285887916 0.04173042629956205 -0.00097524107978832748 0.030381494074934286 0.013474496309185229 -0.053214683157851161 0.0057964645642354052 0.0077481300923053775 0.014676612537732581 -0.011180239353158447 0.033930529093865874 -0.03126606440616285 0.006308166832070557 -0.043589218372715198 0.015247382215879429 0.0057170572732998569 0.0061149308649465391 -0.0086170181359353833 0.005874888266317194 -0.014909303833696106 -0.00062005093116595438 0.0062479072083490642 0.025960579808442238 0.010893373126303604 0.022009449363976117 -0.060058298805618998 0.014085963178475045 -0.034879969930577015 -0.022146736534971536 -0.048137949056350271 0.034332262709802761 -0.019327698668764375 -0.022807630484825689 -0.019459025661513335 0.003114864059413473 0.018799931540371337 -0.012791009058686671 -0.011678196014907525 -0.032244078418455807 -0.010681286498556456 0.018908260514117856 0.014635364692897279 0.044138218678148065 0.010388608258813848 0.032691915516018827 -0.0031116434616538196 0.0017772216917197596 0.00019060588738939259 -0.03826913217251951 -0.016287673128976464 -0.049157000417544457 -0.011035743146017194 -0.038842287729141271 0.020386974197673172 0.045193734249720972 -0.040190140477606023 0.031289700444715171 0.017874883828619383 0.02957394553446456 0.011737380526448253 0.023901349424262683 0.034583063673791152
leaf_weight=637 307 1030 182 380 215 367 215 514 64 381 460 333 433 213 452 66 276 295 185 137 66 106 293 267 546 170 38 240 373 325 113 56 38 628 462 438 99 131 960 158 562 409 298 82 192 260 261 750 10.999999999999998 148 441 125 514 521 30 399 154 246 152 319 214 473
leaf_count=637 307 1030 182 380 215 367 215 514 64 381 460 333 433 213 452 66 276 295 185 137 66 106 293 267 546 170 38 240 373 325 113 56 38 628 462 438 99 131 960 158 562 409 298 82 192 260 261 750 11 148 441 125 514 521 30 399 154 246 152 319 214 473
internal_value=-2.91733e-11 0.0137834 0.00603087 0.0220386 0.0284827 -0.0368727 0.0123625 0.0130076 0.0178034 -0.00413814 0.0339025 -0.0323847 0.0178605 -0.029076 0.00351617 0.0294306 0.0211935 -0.00917376 0.00839691 0.00333335 0.0147613 0.0211644 0.0247793 -6.06948e-05 0.0180758 -0.0468924 0.00543073 -0.0453456 -0.0161718 -0.0392674 0.019521 0.00183517 0.00568063 -0.0242281 -0.00450374 0.0138965 0.00218465 -0.00140187 -0.0343042 -0.000400929 0.0214904 0.0193623 0.0346395 0.0303688 0.0230304 0.00410014 -0.00134727 -0.0011655 0.00206254 -0.00784263 -0.0426716 -0.00517915 -0.0424431 0.0245683 0.0217376 -0.0448977 0.0397606 0.0122418 0.019918 0.0182213 0.0298429 0.0312557
internal_weight=19210 13983 7211 6772 3952 5227 4444 2820 2773 2767 2833 3610 1947 2438 1098 1803 2167 1669 768 1671 1119 1514 1453 1210 1134 1617 378 1447 668 1172 741 1073 606 1265 1001 714 873 316 1173 620 675 702 994 542 809 774 299 806 117 330 1080 163 839 743 551 840 452 461 1017 865 751 687
internal_count=19210 13983 7211 6772 3952 5227 4444 2820 2773 2767 2833 3610 1947 2438 1098 1803 2167 1669 768 1671 1119 1514 1453 1210 1134 1617 378 1447 668 1172 741 1073 606 1265 1001 714 873 316 1173 620 675 702 994 542 809 774 299 806 117 330 1080 163 839 743 551 840 452 461 1017 865 751 687
is_linear=0
shrinkage=0.05


Tree=10
num_leaves=63
num_cat=0
split_feature=2 5 0 9 0 0 9 0 8 0 5 5 5 9 8 7 8 0 9 4 8 5 7 5 7 7 4 10 8 8 7 0 7 5 7 0 0 10 5 7 9 4 5 4 10 0 4 5 5 4 0 7 10 4 0 8 5 8 7 0 0 0
split_gain=3524.5 323.055 167.608 141.728 85.112 76.1355 76.0301 48.0477 39.5197 35.0095 28.1236 26.8017 25.5459 23.1971 22.5637 17.6154 17.4501 17.3251 16.1466 14.8275 14.1753 13.9058 13.5718 12.6095 12.1662 11.9775 11.2023 10.5282 10.2958 10.9288 9.90772 9.39973 10.0545 9.18391 9.04279 8.69106 8.67547 8.44043 8.38385 8.11875 7.97103 7.83539 10.3028 7.70721 7.54236 7.33854 7.06056 6.9278 6.84549 8.30358 6.76601 6.71213 6.68453 6.67762 6.64703 6.58091 6.44776 6.41817 6.15696 6.14897 5.99072 5.94184
threshold=1.0000000180025095e-35 187.50000000000003 245182.00000000003 47.500000000000007 263684.00000000006 326713.00000000006 47.500000000000007 137329.50000000003 31.500000000000004 429369.50000000006 127.50000000000001 165.50000000000003 163.50000000000003 50.500000000000007 28.500000000000004 15.500000000000002 28.500000000000004 455471.00000000006 40.500000000000007 69.500000000000014 31.500000000000004 168.50000000000003 15.500000000000002 226.50000000000003 2.5000000000000004 6.5000000000000009 72.500000000000014 12.500000000000002 36.500000000000007 46.500000000000007 12.500000000000002 57335.000000000007 12.500000000000002 223.50000000000003 31.500000000000004 59153.000000000007 449415.00000000006 12.500000000000002 171.50000000000003 12.500000000000002 48.500000000000007 69.500000000000014 171.50000000000003 72.500000000000014 12.500000000000002 130422.00000000001 71.500000000000014 214.50000000000003 152.50000000000003 69.500000000000014 125994.50000000001 15.500000000000002 12.500000000000002 74.500000000000014 129136.00000000001 28.500000000000004 132.50000000000003 31.500000000000004 15.500000000000002 140636.00000000003 54977.500000000007 42660.500000000007
decision_type=2 2 2 2 2 2 2 2 2 2 2 2 2 2 2 2 2 2 2 2 2 2 2 2 2 2 2 2 2 2 2 2 2 2 2 2 2 2 2 2 2 2 2 2 2 2 2 2 2 2 2 2 2 2 2 2 2 2 2 2 2 2
left_child=4 2 6 7 10 14 12 31 41 21 -1 39 59 45 44 -16 -13 40 24 50 -7 -10 -23 26 36 -22 61 33 -28 -30 52 -3 -33 -27 48 -15 -9 -19 -21 -8 -6 42 -4 51 -5 -12 -24 53 -32 -50 -14 -18 -11 57 -41 -40 -42 -26 -37 -2 -53 -17
right_child=1 3 8 5 17 20 11 18 9 30 13 16 19 35 15 23 43 37 -20 38 25 22 46 -25 47 27 28 -29 29 -31 34 32 -34 -35 -36 58 -38 -39 55 54 56 -43 -44 -45 -46 -47 -48 -49 49 -51 -52 60 -54 -55 -56 -57 -58 -59 -60 -61 -62 -63
leaf_value=-0.039927159070844348 0.012395357105508447 0.041247919900068507 0.0049363234198068857 0.028469658213739507 -0.032348127218845037 0.018015524852691461 -0.015169264973887313 0.012140925136398958 -0.0082688488684249453 -0.021011260621016846 -0.018790913504203626 0.018343994801649718 0.030757490581352499 -0.026201303301155041 0.0054262485367984614 0.026765354175586255 -0.0013834694809156645 -0.046460205880317462 0.032392910634274075 0.002975752574177145 -0.013508243187512379 -0.013297804389655105 0.0084177171301963276 0.026915454605875796 0.028509173810085248 0.0028608080510651563 0.0059416872344990636 -0.0099007303270935362 0.027988277933233094 0.0079088461160194135 -0.023175553624581003 0.0069583418610919684 0.034261722292394825 0.017048707428993341 -0.027301858202554288 -0.041110181929062239 -0.023789454360182087 -0.059877220026331307 0.027478017244786237 0.0044572293171713266 -0.049000163141403118 0.0013279394780585129 0.023051718357643386 -0.004122484005859752 0.00099468377347175898 -0.027820522715270087 -0.0034594587995477859 0.028806905721046546 -0.0020129274579424022 -0.013952812629051096 0.020723154884948584 0.015446041326129875 -0.047398863478253284 0.00076214887122524552 -0.0053996551671216244 0.015994008480905104 -0.038708688146126852 0.01680673671255031 -0.032107533487995693 -0.0013354274963340452 0.0072236752409794887 0.017937401854764393
leaf_weight=607 250 679 182 636 312 147 93 56 487 120 647 440 508 530 290 236 160 748 367 89 119 115 482 373 169 509 363 123 148 125 89 36 532 147 88 237 24 139 178 430 222 283 138 142 26 345 169 247 277 307 251 311 30 47 284 417 484 382 956 121 770 991
leaf_count=607 250 679 182 636 312 147 93 56 487 120 647 440 508 530 290 236 160 748 367 89 119 115 482 373 169 509 363 123 148 125 89 36 532 147 88 237 24 139 178 430 222 283 138 142 26 345 169 247 277 307 251 311 30 47 284 417 484 382 956 121 770 991
internal_value=-8.35275e-12 0.0130943 0.00572933 0.0209366 -0.0350291 0.0153346 0.0117444 0.0302763 -0.00393124 -0.00708553 -0.0301975 0.0063129 0.0196191 -0.0280222 0.0191738 0.0170203 0.00967118 -0.0434545 0.023519 0.0226277 0.00362232 -0.0016628 0.00253713 0.018524 0.0199982 0.00126619 0.016844 0.00352313 0.0114587 0.0187944 -0.014544 0.0372775 0.0325312 0.00604011 -0.012229 -0.0315291 0.00136181 -0.0485628 0.0172886 -0.0012734 -0.0390036 0.00738865 0.0127486 0.00691193 0.0273906 -0.0219313 0.00533439 0.0217625 -0.0102581 -0.00828955 0.0274392 0.00817453 -0.0262888 0.0188529 0.000536564 0.0194296 -0.0419448 0.0203961 -0.033896 0.00791712 0.00958922 0.0196354
internal_weight=19210 13983 7211 6772 5227 4233 4444 2539 2767 2164 3322 2630 1814 2715 3188 2526 1823 1905 1292 1443 1045 1253 766 2236 925 898 1863 779 636 273 911 1247 568 656 761 1723 80 887 684 807 1018 603 320 1383 662 992 651 845 673 584 759 1241 150 598 714 595 706 551 1193 371 1081 1227
internal_count=19210 13983 7211 6772 5227 4233 4444 2539 2767 2164 3322 2630 1814 2715 3188 2526 1823 1905 1292 1443 1045 1253 766 2236 925 898 1863 779 636 273 911 1247 568 656 761 1723 80 887 684 807 1018 603 320 1383 662 992 651 845 673 584 759 1241 150 598 714 595 706 551 1193 371 1081 1227
is_linear=0
shrinkage=0.05


Tree=11
num_leaves=63
num_cat=0
split_feature=2 5 3 0 0 0 9 0 3 5 3 9 0 3 8 1 5 3 0 4 9 5 3 9 0 0 3 3 1 5 5 3 3 8 5 5 10 3 1 5 0 0 4 10 5 4 5 3 4 3 5 3 5 0 4 3 5 0 5 5 4 5
split_gain=3180.86 295.472 181.157 148.401 88.7354 77.1941 57.8576 49.3325 38.5608 35.9392 32.3598 31.2282 27.0594 25.6937 25.6447 22.2576 20.5358 18.1793 17.9899 16.3624 16.1411 16.111 14.1354 14.0944 12.79 12.4407 11.9179 11.6302 11.5936 11.5105 10.8504 10.6404 10.6158 9.99104 9.52198 9.44495 8.72587 8.7007 8.60938 8.44595 8.28005 8.2437 8.07446 7.8443 7.79318 7.68002 7.50533 7.46938 7.18169 6.81445 6.52871 8.5737 6.35171 6.25814 5.97272 5.9349 5.84434 5.84169 5.81615 5.59696 9.72293 5.50714
threshold=1.0000000180025095e-35 176.50000000000003 35.500000000000007 289438.00000000006 138930.00000000003 343924.50000000006 50.500000000000007 256769.00000000003 29.500000000000004 154.50000000000003 26.500000000000004 50.500000000000007 53307.000000000007 45.500000000000007 31.500000000000004 7.5000000000000009 202.50000000000003 29.500000000000004 312235.00000000006 72.500000000000014 48.500000000000007 135.50000000000003 43.500000000000007 46.500000000000007 105397.50000000001 66073.500000000015 46.500000000000007 27.500000000000004 5.5000000000000009 196.50000000000003 223.50000000000003 32.500000000000007 25.500000000000004 31.500000000000004 200.50000000000003 132.50000000000003 6.5000000000000009 39.500000000000007 7.5000000000000009 201.50000000000003 100759.50000000001 32176.000000000004 72.500000000000014 7.5000000000000009 186.50000000000003 70.500000000000014 211.50000000000003 35.500000000000007 71.500000000000014 26.500000000000004 226.50000000000003 29.500000000000004 168.50000000000003 46070.500000000007 69.500000000000014 28.500000000000004 143.50000000000003 130422.00000000001 213.50000000000003 110.50000000000001 68.500000000000014 207.50000000000003
decision_type=2 2 2 2 2 2 2 2 2 2 2 2 2 2 2 2 2 2 2 2 2 2 2 2 2 2 2 2 2 2 2 2 2 2 2 2 2 2 2 2 2 2 2 2 2 2 2 2 2 2 2 2 2 2 2 2 2 2 2 2 2 2
left_child=5 4 3 6 8 11 12 13 52 59 23 22 39 20 61 28 19 29 47 25 58 -13 24 45 -1 -8 33 -27 49 48 36 57 -17 -10 -22 -7 -9 -37 -18 55 -33 -35 -36 -20 -19 -11 -34 -12 -14 -16 51 -40 -2 -52 -25 -3 -26 -23 -4 -6 -61 -5
right_child=1 2 7 14 9 35 16 30 26 10 18 21 17 -15 15 32 38 44 43 -21 34 31 -24 54 56 27 -28 -29 -30 -31 -32 40 46 41 42 37 -38 -39 50 -41 -42 -43 -44 -45 -46 -47 -48 -49 -50 -51 53 -53 -54 -55 -56 -57 -58 -59 -60 60 -62 -63
leaf_value=-0.016835149959536114 0.015241477357696704 0.043025695188687402 0.018578391797135153 0.017644326974494525 0.0040483687919649208 -0.050710385579108279 0.028427570400642834 -0.0010531037331791594 0.013454911993684156 0.018643518021814662 0.0025218905683941943 -0.038265924751071267 0.031620906349583415 0.00055681309952977784 0.016804382128988854 0.019811797306115753 0.020082974706387317 0.010434822985801355 -0.0097163165532965431 0.0077601475439320515 0.0066910970016382165 -0.021767621316593204 -0.041317381629498183 0.0064570470093704259 -0.030653051628393616 0.025026023194585592 -0.012016319749980338 0.013065870898530127 -0.010619119562483329 0.038689302568726075 0.0092512612729390136 -0.028068142672183743 0.0043097514198398613 0.010704179735412768 0.022083593759118399 -0.039218557867996995 -0.012317718398128103 -0.053978374857327038 0.035393843596226514 0.04736682620339773 -0.039078313914048951 -0.0013295148644493098 0.0092489723700826722 -0.025812960467353631 0.024607297864890257 0.00057890143028150004 0.016219847926740499 -0.0074356040181020357 0.019829295452876504 -0.00031488938041069768 0.058081520597139995 0.021433331688628796 0.024819722166030261 0.034101543825930884 -0.0062668068345613824 0.031156732860510239 -0.021854551900551276 -0.029988470370904498 0.03085280468936746 -0.012915920815609364 -0.028974514352807474 0.031449916280132342
leaf_weight=559 377 182 402 312 33 389 351 500 318 273 567 979 433 426 83 258 289 129 506 319 605 380 109 206 429 315 99 573 217 440 164 285 452 212 261 717 262 116 188 275 426 433 231 89 391 75 187 282 184 194 33 265 320 155 167 250 337 501 127 350 129 94
leaf_count=559 377 182 402 312 33 389 351 500 318 273 567 979 433 426 83 258 289 129 506 319 605 380 109 206 429 315 99 573 217 440 164 285 452 212 261 717 262 116 188 275 426 433 231 89 391 75 187 282 184 194 33 265 320 155 167 250 337 501 127 350 129 94
internal_value=-1.41635e-11 0.0124395 0.0173939 0.0220314 0.00177689 -0.0332776 0.0266431 0.0071645 0.0105009 -0.00395545 -0.00113813 -0.0299213 0.0323892 0.0114876 0.00978476 0.00655779 0.0213681 0.0287453 -0.00545757 0.0178585 0.0143513 -0.0332186 -0.0240095 0.00751275 -0.0225857 0.0204584 0.00450344 0.0173085 -0.00196493 0.0325106 -0.00241532 -0.0301148 0.0112515 0.00620173 0.0108919 -0.0442779 -0.00492624 -0.0412739 0.0272476 0.0405173 -0.034665 0.00262575 0.0160576 -0.012124 0.0210914 0.0147503 0.00779518 -0.000785546 0.0281044 0.00481471 0.0304779 0.0272271 0.0196389 0.0383108 0.000760308 0.0361571 -0.0267822 -0.0264426 0.0215252 -0.0158685 -0.0172407 0.0208407
internal_weight=19210 13983 9547 6569 4436 5227 4772 2978 1759 2677 2165 4005 2284 2052 1797 1391 2488 1577 1444 1558 1626 2571 1434 721 1325 1239 1062 888 494 1057 926 1592 897 963 1097 1222 762 833 930 707 711 645 492 595 520 348 639 849 617 277 641 453 697 188 373 432 766 881 529 512 479 406
internal_count=19210 13983 9547 6569 4436 5227 4772 2978 1759 2677 2165 4005 2284 2052 1797 1391 2488 1577 1444 1558 1626 2571 1434 721 1325 1239 1062 888 494 1057 926 1592 897 963 1097 1222 762 833 930 707 711 645 492 595 520 348 639 849 617 277 641 453 697 188 373 432 766 881 529 512 479 406
is_linear=0
shrinkage=0.05


Tree=12
num_leaves=63
num_cat=0
split_feature=2 0 3 9 0 8 7 0 3 3 0 3 0 3 0 7 0 3 3 0 7 1 1 3 3 10 7 7 7 7 8 7 1 0 9 9 7 10 7 9 3 7 9 10 9 7 9 7 3 10 1 3 7 1 7 1 9 1 4 3 1 1
split_gain=2870.72 259.73 156.487 77.4112 70.3606 60.7092 52.2684 39.3253 31.6768 29.6639 25.2392 23.4998 22.7613 17.5496 17.2037 16.7362 16.3527 14.6114 14.4685 14.3442 12.9217 12.1418 11.9567 11.1088 10.9738 10.6635 10.4969 10.0314 9.51878 9.05962 8.73681 8.48212 7.8293 7.76982 7.45344 7.45019 7.34039 7.33224 7.11856 7.07307 7.39235 6.78411 6.59361 6.58179 6.52201 6.32756 5.84173 5.78212 5.76917 5.76913 5.63403 5.51521 5.44114 5.30472 5.22509 5.09571 5.35625 5.08688 4.91331 4.68181 4.59917 4.42976
threshold=1.0000000180025095e-35 245182.00000000003 36.500000000000007 46.500000000000007 263684.00000000006 31.500000000000004 2.5000000000000004 429369.50000000006 38.500000000000007 37.500000000000007 49948.000000000007 46.500000000000007 97069.000000000015 28.500000000000004 61671.000000000007 31.500000000000004 54977.500000000007 32.500000000000007 27.500000000000004 474526.00000000006 15.500000000000002 7.5000000000000009 7.5000000000000009 28.500000000000004 34.500000000000007 6.5000000000000009 11.500000000000002 14.500000000000002 18.500000000000004 12.500000000000002 28.500000000000004 30.500000000000004 7.5000000000000009 26014.500000000004 46.500000000000007 53.500000000000007 15.500000000000002 12.500000000000002 15.500000000000002 38.500000000000007 33.500000000000007 30.500000000000004 48.500000000000007 12.500000000000002 48.500000000000007 20.500000000000004 48.500000000000007 18.500000000000004 41.500000000000007 12.500000000000002 5.5000000000000009 24.500000000000004 30.500000000000004 7.5000000000000009 21.500000000000004 7.5000000000000009 36.500000000000007 1.0000000180025095e-35 71.500000000000014 49.500000000000007 6.5000000000000009 15.500000000000002
decision_type=2 2 2 2 2 2 2 2 2 2 2 2 2 2 2 2 2 2 2 2 2 2 2 2 2 2 2 2 2 2 2 2 2 2 2 2 2 2 2 2 2 2 2 2 2 2 2 2 2 2 2 2 2 2 2 2 2 2 2 2 2 2
left_child=4 2 3 10 9 17 25 8 18 14 39 16 26 30 46 21 44 22 35 36 43 37 50 45 28 -7 -5 -18 51 -16 -12 -28 -20 -11 -31 -8 -6 -9 -15 40 -2 -40 -29 -14 -4 -22 -1 -34 -38 -21 -3 -23 60 57 -44 -32 -57 -47 -53 -10 -25 -62
right_child=1 5 11 12 19 6 7 15 59 33 13 -13 20 38 29 -17 27 -19 32 49 23 24 -24 52 -26 -27 31 42 -30 34 55 -33 47 -35 -36 -37 48 -39 41 -41 -42 -43 54 -45 -46 53 -48 -49 -50 -51 -52 58 -54 -55 -56 56 -58 -59 -60 -61 61 -63
leaf_value=-0.013543656443920443 0.032940388679151132 0.016226614599087925 0.021233465839397111 0.0075801222374527674 -0.043659431353056187 -0.0085414180867798613 0.020442199263131691 -0.0052161235849683485 -0.0038966604956566162 -0.026572986955242607 0.034215564251629138 -0.0036996638502040193 0.0029372395657725177 0.0041393399444892062 -0.035540707428469043 -0.021320498153005567 -0.007835941215462024 0.0043136325400969086 -0.0002284039385413482 -0.042820349560256626 0.032784948418460164 0.042421572857900811 0.02250645243247143 0.006711930034038637 -0.0063961564525185774 -0.022937705532725283 0.024816749636339688 0.012914732084953948 0.0028885465463590627 -0.020898871390681962 0.019061614885553718 0.01541685638169093 0.020294463855917662 -0.038463878437437343 -0.028362328161755726 0.0099931060010848682 -0.032776808198742118 -0.019795140094772384 0.022720246465157232 0.038691612634746034 0.018215150358666062 0.011795218359966671 0.014983647065935657 -0.038648811876773839 0.011206169510836042 0.046859686225652702 -0.02225258690000094 0.0071934916068063601 -0.048110013319687416 -0.054855477501943466 0.0028838587814837076 0.00086639067158102991 0.0048276956833017588 0.020712437268730462 0.0027462928762743291 0.020595782075190184 0.031740823495016474 0.010539291864660667 0.032457785366859754 -0.021884922051103789 0.016584857510550683 0.00072133077192120258
leaf_weight=343 435 165 249 131 240 318 352 375 378 178 378 477 196 79 283 126 132 304 339 610 72 23 450 216 300 216 951 311 483 512 250 321 98 602 965 331 870 112 555 422 106 191 100 9.9999999999999982 465 9.9999999999999982 439 599 66 119 152 32 280 429 683 165 311 268 20 40 529 48
leaf_count=343 435 165 249 131 240 318 352 375 378 178 378 477 196 79 283 126 132 304 339 610 72 23 450 216 300 216 951 311 483 512 250 321 98 602 965 331 870 112 555 422 106 191 100 10 465 10 439 599 66 119 152 32 280 429 683 165 311 268 20 40 529 48
internal_value=1.90188e-12 0.0118176 0.0170714 0.021191 -0.0316137 0.00297891 0.000235168 0.002396 0.00672689 -0.0272208 0.0272289 0.00624306 0.0161458 0.0239286 -0.0246036 -0.00389571 0.00868774 0.0135901 0.00972874 -0.0392743 0.0127979 -0.00226335 0.0172668 0.0141192 0.00131573 -0.0143646 0.0210567 0.00518452 0.00546191 -0.0273454 0.0280513 0.0224446 0.00600418 -0.0357503 -0.0257751 0.0153783 -0.0358583 -0.008569 0.0184117 0.0338398 0.0300552 0.0199231 0.00675554 0.000918499 0.0147031 0.018664 -0.0184327 0.00903552 -0.033858 -0.0447849 0.00982883 0.0220344 0.0108197 0.017226 0.00430917 0.0248417 0.0278775 0.0118458 0.0130169 -0.00561803 0.0129354 0.0152652
internal_weight=19210 13983 8770 6353 5227 5213 4142 3608 2137 3322 2892 2417 3461 1929 2542 1471 1940 1071 1719 1905 2058 1345 767 1852 858 534 1403 1226 558 1760 1104 1272 1036 780 1477 683 1176 487 825 963 541 746 1094 206 714 779 782 697 936 729 317 75 1073 707 783 726 476 278 52 418 793 577
internal_count=19210 13983 8770 6353 5227 5213 4142 3608 2137 3322 2892 2417 3461 1929 2542 1471 1940 1071 1719 1905 2058 1345 767 1852 858 534 1403 1226 558 1760 1104 1272 1036 780 1477 683 1176 487 825 963 541 746 1094 206 714 779 782 697 936 729 317 75 1073 707 783 726 476 278 52 418 793 577
is_linear=0
shrinkage=0.05


Tree=13
num_leaves=63
num_cat=0
split_feature=2 5 0 3 0 0 3 3 0 5 0 5 3 0 9 3 3 0 0 1 3 0 5 5 3 0 9 9 5 8 9 7 3 5 3 5 9 3 8 5 1 6 5 10 10 7 0 7 0 0 9 7 9 9 7 10 10 1 7 8 5 7
split_gain=2590.83 267.216 125.397 119.913 76.2291 63.5898 53.5658 53.4235 44.1045 32.6927 26.6748 25.828 25.1338 25.0446 23.5311 19.4104 18.1243 18.0832 16.7537 15.5669 14.5402 13.031 12.4644 11.7561 11.5197 11.3782 11.0944 10.5072 10.1027 9.38633 9.35504 9.3388 9.24937 9.15434 9.13225 8.86012 7.43787 7.3601 7.3359 7.17698 7.15771 7.07357 6.94069 6.86794 6.86622 6.67258 6.58144 6.1455 5.94038 5.87729 5.76095 5.73176 5.69719 5.55793 5.51236 5.43128 5.41889 5.41219 5.37882 5.30618 6.56312 5.24819
threshold=1.0000000180025095e-35 187.50000000000003 138930.00000000003 32.500000000000007 289438.00000000006 130422.00000000001 34.500000000000007 28.500000000000004 256769.00000000003 166.50000000000003 449415.00000000006 163.50000000000003 41.500000000000007 96155.500000000015 50.500000000000007 38.500000000000007 31.500000000000004 421819.00000000006 381503.00000000006 7.5000000000000009 27.500000000000004 51325.500000000007 143.50000000000003 120.50000000000001 36.500000000000007 436921.00000000006 48.500000000000007 47.500000000000007 233.50000000000003 31.500000000000004 50.500000000000007 6.5000000000000009 46.500000000000007 170.50000000000003 45.500000000000007 174.50000000000003 53.500000000000007 41.500000000000007 31.500000000000004 144.50000000000003 5.5000000000000009 17.500000000000004 202.50000000000003 12.500000000000002 12.500000000000002 2.5000000000000004 460933.00000000006 14.500000000000002 230787.00000000003 29458.500000000004 50.500000000000007 6.5000000000000009 46.500000000000007 50.500000000000007 19.500000000000004 6.5000000000000009 12.500000000000002 7.5000000000000009 15.500000000000002 28.500000000000004 213.50000000000003 7.5000000000000009
decision_type=2 2 2 2 2 2 2 2 2 2 2 2 2 2 2 2 2 2 2 2 2 2 2 2 2 2 2 2 2 2 2 2 2 2 2 2 2 2 2 2 2 2 2 2 2 2 2 2 2 2 2 2 2 2 2 2 2 2 2 2 2 2
left_child=5 2 6 4 13 15 14 9 12 25 16 55 21 26 33 22 23 24 30 27 42 41 -1 -7 -13 52 -3 -6 47 -20 -11 -21 46 -2 38 -16 -24 -18 -8 -27 -29 53 -15 49 58 -22 -10 51 -44 -40 -25 -23 -4 -5 -33 -9 -41 -50 -12 -14 -61 -35
right_child=1 3 7 8 19 10 34 11 32 18 44 17 59 20 35 -17 37 -19 29 31 45 28 36 50 -26 39 -28 40 -30 -31 -32 54 -34 61 -36 -37 -38 -39 43 56 -42 -43 48 -45 -46 -47 -48 -49 57 -51 -52 -53 -54 -55 -56 -57 -58 -59 -60 60 -62 -63
leaf_value=-0.02476021169751157 0.016816657498558204 0.040742095668696389 0.0070201877859596279 0.029259124709510864 0.017113833359970129 -0.041013029403984547 0.012279798471573372 -0.012171178634857583 0.0076684521229736903 0.01938058105302827 -0.046286918560817708 0.0036129758495101389 0.016489778768696024 0.026124366739882006 0.006947781501135908 -0.031799592202824328 -0.03464821635224876 -0.01173989531464778 0.014337763159681917 -0.0016890949296668686 0.0044294764451159726 0.0055035459938197881 -0.010349372717899456 -0.021886386126388574 -0.0059105077839181949 -0.032904626331172693 0.029673214129105091 0.0070136416086366759 0.026890878328756182 -0.0034932211487055213 0.0087243762728816798 0.029916832081097012 -0.012105228895594301 0.0090014811286604716 -0.0063783067472589512 0.016415817265203154 -0.020307393113999556 -0.045486087122218528 0.010327295133216978 -0.00352452466798021 -0.010299447015056322 0.041184549674518033 0.040185188085465638 -0.035088773630559449 -0.051861825462962897 0.022137135911832317 -0.001139945645669658 0.014574002779872419 0.01436193608589327 -0.00048584298705682159 -0.028946016470853458 -0.032933703640645205 -0.0040219336261448288 0.018369813103212469 0.017206290956128984 -0.023033466873020172 -0.025279801677128202 0.03508226423698943 -0.037092283018306464 0.00040611827318827898 0.012256314469915298 0.028231663801054532
leaf_weight=774 364 507 202 199 113 154 274 431 512 428 226 818 114 449 466 483 710 443 102 58 57 82 347 455 519 39 409 123 157 267 397 102 99 38 198 526 408 201 189 116 116 59 234 11.999999999999998 140 798 362 760 52 375 792 10.999999999999998 277 285 521 157 38 80 537 333 180 535
leaf_count=774 364 507 202 199 113 154 274 431 512 428 226 818 114 449 466 483 710 443 102 58 57 82 347 455 519 39 409 123 157 267 397 102 99 38 198 526 408 201 189 116 116 59 234 12 140 798 362 760 52 375 792 11 277 285 521 157 38 80 537 333 180 535
internal_value=-3.65275e-13 0.0112267 0.00452843 0.0183592 0.0245695 -0.0300331 0.0123917 -0.00100035 0.011231 0.00532662 -0.0343958 -0.00598604 0.0151817 0.0291559 0.0173352 -0.0230618 -0.0315495 -0.00298478 0.0102916 0.0130879 0.0255117 0.018593 -0.0203015 -0.0279797 -8.38738e-05 -0.00349517 0.0357998 0.00455058 0.0152348 0.00143567 0.0142527 0.0175008 0.00237941 0.0230174 0.00329233 0.0119681 -0.0157307 -0.0370394 0.00554502 -0.0137449 -0.00138936 0.0248395 0.0302903 0.00234132 -0.0416833 0.0209566 0.00402012 0.0130894 0.0354009 0.00313771 -0.0263701 0.000957205 0.00063466 0.022847 0.0192873 -0.0150715 -0.00889271 0.0269197 -0.0398157 0.00673239 0.00456408 0.0269564
internal_weight=19210 13983 7211 6772 3619 5227 2977 4234 3153 1866 3215 2368 2180 2586 1929 2012 2312 1780 1194 1033 1670 1553 1529 1401 1337 672 916 352 1010 369 825 681 973 937 1048 992 755 911 850 193 239 543 815 576 903 855 874 853 366 564 1247 93 479 484 623 588 154 132 763 627 513 573
internal_count=19210 13983 7211 6772 3619 5227 2977 4234 3153 1866 3215 2368 2180 2586 1929 2012 2312 1780 1194 1033 1670 1553 1529 1401 1337 672 916 352 1010 369 825 681 973 937 1048 992 755 911 850 193 239 543 815 576 903 855 874 853 366 564 1247 93 479 484 623 588 154 132 763 627 513 573
is_linear=0
shrinkage=0.05


Tree=14
num_leaves=63
num_cat=0
split_feature=2 5 3 9 9 5 5 10 10 3 3 5 3 1 4 4 9 9 1 5 10 10 3 8 5 7 5 4 5 5 5 8 10 7 5 3 7 5 5 7 7 10 3 5 9 1 3 4 8 3 10 5 4 7 7 8 9 7 3 10 10 9
split_gain=2338.22 241.446 123.547 63.9879 61.4696 35.8128 34.8567 32.7654 29.5669 25.7766 24.9259 24.3674 24.1958 23.923 23.107 21.4818 20.6444 20.3869 17.7498 16.062 15.6018 14.8358 12.1365 12.287 12.0339 11.3074 10.2532 10.0288 9.89766 9.49776 8.84624 8.53826 8.48976 8.30789 8.30367 8.11453 8.03877 7.78246 7.65513 7.653 7.57123 7.5259 7.52062 7.49227 7.45687 7.02196 7.00367 6.95495 6.93205 7.71823 6.87787 6.75716 7.65898 7.09018 6.63556 6.59017 6.58029 6.40615 6.04251 5.6654 5.64947 5.70673
threshold=1.0000000180025095e-35 181.50000000000003 33.500000000000007 46.500000000000007 47.500000000000007 163.50000000000003 126.50000000000001 6.5000000000000009 6.5000000000000009 41.500000000000007 38.500000000000007 154.50000000000003 44.500000000000007 7.5000000000000009 69.500000000000014 70.500000000000014 38.500000000000007 50.500000000000007 5.5000000000000009 195.50000000000003 6.5000000000000009 1.0000000180025095e-35 26.500000000000004 31.500000000000004 171.50000000000003 2.5000000000000004 194.50000000000003 70.500000000000014 205.50000000000003 110.50000000000001 211.50000000000003 28.500000000000004 4.5000000000000009 15.500000000000002 173.50000000000003 32.500000000000007 12.500000000000002 214.50000000000003 154.50000000000003 15.500000000000002 6.5000000000000009 6.5000000000000009 38.500000000000007 227.50000000000003 48.500000000000007 7.5000000000000009 48.500000000000007 72.500000000000014 28.500000000000004 28.500000000000004 6.5000000000000009 197.50000000000003 73.500000000000014 7.5000000000000009 14.500000000000002 35.500000000000007 25.500000000000004 24.500000000000004 45.500000000000007 7.5000000000000009 6.5000000000000009 53.500000000000007
decision_type=2 2 2 2 2 2 2 2 2 2 2 2 2 2 2 2 2 2 2 2 2 2 2 2 2 2 2 2 2 2 2 2 2 2 2 2 2 2 2 2 2 2 2 2 2 2 2 2 2 2 2 2 2 2 2 2 2 2 2 2 2 2
left_child=6 3 4 11 16 20 -1 9 12 21 15 29 17 18 22 34 25 56 31 47 35 30 45 -24 -16 -3 27 -27 41 -2 -4 -6 46 -19 -7 -5 -9 -38 -35 -21 -12 48 -26 60 -10 -13 -11 -15 -18 -50 -17 52 53 -23 -22 -25 -8 -45 -39 -33 61 -41
right_child=1 2 7 5 13 10 8 36 44 32 40 14 -14 19 24 50 28 33 -20 39 54 51 23 55 42 26 -28 -29 -30 -31 -32 59 -34 38 -36 -37 37 58 -40 43 -42 -43 -44 57 -46 -47 -48 -49 49 -51 -52 -53 -54 -55 -56 -57 -58 -59 -60 -61 -62 -63
leaf_value=-0.037290865132879138 0.023060414458400218 0.0061511716440967893 0.0047246306303258268 -0.00087724540166049232 0.026307709209256364 0.0042967707955920984 -0.024705968282750235 -0.017722263313829902 -0.028680208799434739 0.0045222669583745304 -0.022381812900615236 0.014770060980285053 -0.038907731254164822 0.016365162925386461 -0.0041531341622583571 -5.4901795019780174e-05 0.03870732797317962 -0.032434966375030794 0.00093453599388825979 0.0091621209691990831 -0.034692707340317694 -0.0021819332735433889 0.021181562978748129 -0.00031928779790177945 0.01224157826440847 0.025993324429341574 0.028138089549412659 0.012010166191209395 0.040942274888353003 -0.0071492451781005762 0.016058173363280453 0.013412485236421365 0.014317848762412641 -0.027023961010387888 0.012345619549150682 -0.010789113491200576 -0.0050398972617644155 0.012085804997210896 -0.019722129452122289 0.038521770064747246 -0.0052334537359220203 0.018116145602834876 -0.0069662747393614798 0.025777139482527328 -0.039214888195678095 0.028495731891030676 -0.0065711608094948431 0.0045524181373440813 0.033362894578287804 0.01779544699473249 -0.012335840556861277 0.021014786171780205 -0.0063249130246953835 0.017372750833415728 -0.015327304827687599 0.012217515722919157 -0.015890497309383897 0.043535470911676345 -0.014023940311744809 -0.0067154604622996165 0.013818225821531039 0.02288076917751471
leaf_weight=933 29 92 495 444 129 650 282 75 254 585 75 150 277 576 250 439 227 449 365 85 55 52 249 173 374 253 727 260 264 253 264 437 165 1169 632 386 297 150 518 66 454 119 59 122 496 246 188 159 208 129 154 655 45 427 226 266 849 87 26 38 151 501
leaf_count=933 29 92 495 444 129 650 282 75 254 585 75 150 277 576 250 439 227 449 365 85 55 52 249 173 374 253 727 260 264 253 264 437 165 1169 632 386 297 150 518 66 454 119 59 122 496 246 188 159 208 129 154 655 45 427 226 266 849 87 26 38 151 501
internal_value=-1.21297e-11 0.0106654 0.0160066 0.0025834 0.0210214 -0.00151046 -0.0285314 0.0086909 -0.0266282 0.0108259 0.0019205 0.00960632 -0.0247195 0.0159405 0.0117846 0.00462481 0.0270766 -0.0235165 0.0096397 0.0194354 -0.00893444 0.0141191 0.0163231 0.0123093 0.00458134 0.023064 0.0243188 0.0189063 0.0327204 -0.00404258 0.00866673 0.0149003 0.00402195 -0.0263906 0.00826469 -0.00548686 -0.00251418 -0.000102751 -0.0247819 0.0235212 -0.0076647 0.0295424 0.00962434 0.0248378 -0.0356471 0.0232966 0.00182425 0.0138098 0.0319533 0.0274038 -0.00324422 0.0176292 0.0133971 0.0152499 -0.0191177 0.00727704 -0.0180885 0.0331694 0.00822868 0.0118022 0.0224126 0.0247014
internal_weight=19210 13983 8419 5564 4995 3515 5227 3424 4294 2876 2404 2049 3544 2716 1767 1875 2279 3267 969 1747 1111 1938 1084 688 683 1332 1240 513 947 282 759 604 938 2136 1282 830 548 473 1687 1012 529 683 433 927 750 396 773 735 564 337 593 1179 524 479 281 439 1131 209 176 475 718 567
internal_count=19210 13983 8419 5564 4995 3515 5227 3424 4294 2876 2404 2049 3544 2716 1767 1875 2279 3267 969 1747 1111 1938 1084 688 683 1332 1240 513 947 282 759 604 938 2136 1282 830 548 473 1687 1012 529 683 433 927 750 396 773 735 564 337 593 1179 524 479 281 439 1131 209 176 475 718 567
is_linear=0
shrinkage=0.05


Tree=15
num_leaves=63
num_cat=0
split_feature=2 5 0 3 0 3 0 0 3 3 0 0 5 5 9 9 5 5 3 10 8 8 1 0 7 8 0 3 5 5 9 3 7 5 9 1 8 0 0 3 7 5 7 7 0 5 5 3 0 9 3 0 9 0 3 0 5 7 1 7 3 8
split_gain=2110.25 219.957 110.879 98.639 66.7449 57.2561 56.2847 38.8542 27.8473 23.2556 22.0556 21.359 20.7617 15.8659 15.6041 15.2578 15.0939 15.0355 13.9582 13.9471 13.4731 13.1462 12.033 11.9635 11.2431 10.9235 10.6631 10.3177 9.87726 9.6535 8.92462 8.72871 8.69599 8.22989 8.20998 8.02477 7.88906 7.49122 7.48195 7.3718 7.08245 7.05719 7.03374 6.71057 6.61566 6.43469 6.29783 6.29609 6.0254 5.53768 5.43645 5.42871 5.2657 5.15508 5.15185 4.99251 4.96665 4.81288 4.81027 4.75572 4.57358 4.50614
threshold=1.0000000180025095e-35 187.50000000000003 245182.00000000003 32.500000000000007 289438.00000000006 30.500000000000004 263684.00000000006 112291.00000000001 27.500000000000004 37.500000000000007 96155.500000000015 32176.000000000004 168.50000000000003 234.50000000000003 49.500000000000007 53.500000000000007 152.50000000000003 143.50000000000003 44.500000000000007 6.5000000000000009 31.500000000000004 31.500000000000004 7.5000000000000009 449415.00000000006 15.500000000000002 31.500000000000004 289438.00000000006 39.500000000000007 171.50000000000003 157.50000000000003 48.500000000000007 46.500000000000007 15.500000000000002 141.50000000000003 53.500000000000007 5.5000000000000009 35.500000000000007 140636.00000000003 27081.500000000004 28.500000000000004 15.500000000000002 169.50000000000003 6.5000000000000009 6.5000000000000009 26014.500000000004 152.50000000000003 123.50000000000001 39.500000000000007 23796.000000000004 50.500000000000007 40.500000000000007 436921.00000000006 48.500000000000007 111356.50000000001 48.500000000000007 476793.50000000006 218.50000000000003 15.500000000000002 7.5000000000000009 28.500000000000004 28.500000000000004 31.500000000000004
decision_type=2 2 2 2 2 2 2 2 2 2 2 2 2 2 2 2 2 2 2 2 2 2 2 2 2 2 2 2 2 2 2 2 2 2 2 2 2 2 2 2 2 2 2 2 2 2 2 2 2 2 2 2 2 2 2 2 2 2 2 2 2 2
left_child=6 2 5 4 10 12 9 18 14 17 30 27 37 23 29 53 -13 38 34 41 -6 58 35 31 -8 -18 -21 -7 -16 -4 59 40 -19 55 -5 -22 -27 -2 -1 56 -9 -10 -43 -24 -11 -28 -40 -38 -17 -34 -35 -31 -42 -14 -44 -26 -23 -30 -12 -3 -48 -25
right_child=1 3 8 7 20 11 24 13 19 44 21 16 15 -15 28 48 25 32 -20 26 22 39 43 61 33 36 45 -29 57 51 -32 -33 49 50 -36 -37 47 -39 46 -41 52 42 54 -45 -46 -47 60 -49 -50 -51 -52 -53 -54 -55 -56 -57 -58 -59 -60 -61 -62 -63
leaf_value=-0.016128174484302312 0.012010830737392795 0.039847312936774237 -0.005488489600247704 0.024645160839736283 0.022375025984000065 0.015616680248402357 -0.04080368865162886 -0.0035488198061885187 -0.0093743028311344991 -0.022259691425238141 0.023173148492218475 -0.01598211216087651 0.02684052240598599 0.01642155592169282 -0.0094285260646996133 0.023860431467753133 0.0093937776825864829 -0.026887118722407344 0.005043539924379694 0.0021418039404699977 0.0073871313443236485 0.021489501654858755 -0.0043719113603526471 0.00971229019147965 -0.032424225987133432 -0.0044026528631360079 -0.032327781200914056 0.0022106218819189193 -0.014427389740718133 0.016442684483795846 0.027267273906934304 -0.005384349813309792 -0.010520698553543819 -0.026303326222185366 0.015599996154642507 -0.0098462841441949549 0.0074829651917449769 0.0013627561506457846 -0.033593597636652477 0.015469735300528906 0.014609204350219646 -0.014085308823268861 0.0018866299818375801 0.014698577185419793 -0.03323193767729115 -0.014759492479342606 -0.020452289657865576 -0.0035120219032417246 0.010336307694941675 -0.018033864233172544 -0.040825752349984312 0.0045228626717386455 0.0066143941088586192 0.018785671046324684 -0.025312442777471411 -0.040919047284801058 0.032864145768837914 0.0058792386096019845 0.033010151523317509 0.028353687546526393 -0.027623441680898204 -0.0068029501874784853
leaf_weight=223 423 390 96 437 223 440 456 129 437 178 193 127 415 293 304 98 374 181 201 87 158 514 51 48 498 605 59 213 33 263 409 149 412 614 589 118 384 271 227 496 288 90 531 483 602 447 418 197 516 606 72 150 723 381 18 265 118 252 349 117 475 296
leaf_count=223 423 390 96 437 223 440 456 129 437 178 193 127 415 293 304 98 374 181 201 87 158 514 51 48 498 605 59 213 33 263 409 149 412 614 589 118 384 271 227 496 288 90 531 483 602 447 418 197 516 606 72 150 723 381 18 265 118 252 349 117 475 296
internal_value=1.06059e-12 0.0101321 0.00405495 0.0166032 0.0222357 0.00894726 -0.0271048 0.0101382 -0.00380246 -0.0231758 0.0265273 0.0035657 0.0149325 0.00570801 0.00238174 0.018417 0.000593675 -0.0208584 0.0170922 -0.00787092 0.0114921 0.0231075 0.00849599 0.00378574 -0.0339564 0.00194311 -0.0140278 0.0112438 -0.00315927 0.00879364 0.0327622 0.00599658 -0.0167887 -0.0318016 0.0194526 1.92218e-05 -0.00040642 0.00785287 -0.0244918 0.0200324 0.00748409 -0.00447776 -0.00112911 0.0128772 -0.030728 -0.016808 -0.0261571 0.00375489 0.0124949 -0.0149932 -0.0278275 0.0121135 0.00889185 0.0229851 0.000994857 -0.0353746 0.0236132 0.00352794 0.0295073 0.0371949 -0.0242667 -0.0044985
internal_weight=19210 13983 7211 6772 3619 4444 5227 3153 2767 3322 2586 2340 2104 1926 1098 1410 1687 2542 1227 1669 1033 1670 810 1633 1905 1560 593 653 589 509 916 1289 1199 1449 1026 276 1186 694 1343 1128 1140 1076 639 534 780 506 1120 581 614 1018 686 413 1011 796 549 763 632 285 542 507 893 344
internal_count=19210 13983 7211 6772 3619 4444 5227 3153 2767 3322 2586 2340 2104 1926 1098 1410 1687 2542 1227 1669 1033 1670 810 1633 1905 1560 593 653 589 509 916 1289 1199 1449 1026 276 1186 694 1343 1128 1140 1076 639 534 780 506 1120 581 614 1018 686 413 1011 796 549 763 632 285 542 507 893 344
is_linear=0
shrinkage=0.05


Tree=16
num_leaves=63
num_cat=0
split_feature=2 5 3 9 8 8 5 10 10 8 9 8 9 5 3 10 4 10 8 5 5 5 3 7 8 5 4 1 4 3 10 7 4 5 5 10 3 7 7 5 7 3 3 7 4 7 3 7 7 5 10 10 5 3 4 5 9 5 3 7 5 9
split_gain=1904.5 199.769 113.509 66.785 47.2249 30.9894 29.8861 27.361 27.2859 23.6051 22.3573 22.0366 21.11 19.2371 18.7142 16.9336 15.2521 15.2514 13.4895 13.4497 12.0443 11.594 10.9916 10.8596 10.3941 10.354 10.2786 9.79711 9.37662 9.34875 8.97301 8.92213 8.82825 8.28061 7.84429 7.83877 7.74524 7.32193 7.25884 7.25644 7.13886 6.90524 6.79086 6.73119 6.69509 6.54216 6.4359 6.48056 6.36842 6.10474 6.04097 5.75537 5.69956 5.66762 5.66274 6.96881 6.30943 5.53777 5.44231 5.33307 5.82917 5.302
threshold=1.0000000180025095e-35 176.50000000000003 35.500000000000007 47.500000000000007 31.500000000000004 35.500000000000007 132.50000000000003 12.500000000000002 6.5000000000000009 28.500000000000004 38.500000000000007 46.500000000000007 50.500000000000007 209.50000000000003 46.500000000000007 12.500000000000002 73.500000000000014 6.5000000000000009 28.500000000000004 194.50000000000003 194.50000000000003 163.50000000000003 36.500000000000007 15.500000000000002 48.500000000000007 207.50000000000003 69.500000000000014 7.5000000000000009 70.500000000000014 43.500000000000007 6.5000000000000009 12.500000000000002 70.500000000000014 120.50000000000001 155.50000000000003 1.0000000180025095e-35 44.500000000000007 30.500000000000004 15.500000000000002 171.50000000000003 15.500000000000002 27.500000000000004 27.500000000000004 14.500000000000002 69.500000000000014 15.500000000000002 28.500000000000004 1.0000000180025095e-35 31.500000000000004 158.50000000000003 6.5000000000000009 6.5000000000000009 197.50000000000003 34.500000000000007 69.500000000000014 153.50000000000003 50.500000000000007 154.50000000000003 29.500000000000004 31.500000000000004 157.50000000000003 25.500000000000004
decision_type=2 2 2 2 2 2 2 2 2 2 2 2 2 2 2 2 2 2 2 2 2 2 2 2 2 2 2 2 2 2 2 2 2 2 2 2 2 2 2 2 2 2 2 2 2 2 2 2 2 2 2 2 2 2 2 2 2 2 2 2 2 2
left_child=6 4 3 10 22 15 30 9 14 52 19 34 36 16 18 21 23 29 -4 28 32 -6 39 -11 45 37 53 -15 -3 43 33 -17 -20 -1 -7 -22 51 46 -9 54 -21 -35 -25 -14 -36 -13 50 -48 -44 -47 -12 61 -5 -23 55 -2 -57 -45 -29 60 -26 -8
right_child=1 2 8 7 5 11 12 38 -10 13 25 24 17 27 -16 31 -18 -19 20 40 35 26 -24 42 59 -27 -28 58 -30 -31 -32 -33 -34 41 44 -37 -38 -39 -40 -41 -42 -43 48 57 -46 49 47 -49 -50 -51 -52 -53 -54 -55 -56 56 -58 -59 -60 -61 -62 -63
leaf_value=-0.035652270426559024 0.00049818180366501669 0.019937047705103017 0.017476341588189826 0.018261967052953795 -0.010127104856333174 -7.7642963030899071e-05 -0.021747358778288008 -0.023405877473380635 -0.0053298420782661796 -0.00039100026536876989 0.035275950216086267 -0.018127202107831024 -0.029227507167832102 0.0099185412347860703 -0.002041009689085875 -0.044896906468784442 -0.0015914208966521478 -0.034767378054548805 0.0073790902508889689 0.0079808177740426003 0.0058002632148066507 0.0074978933151283803 -0.0005141761310494922 0.017329509306023921 -0.0084216872043294932 0.036841818977908197 -0.0070616159402952881 0.028587548860920978 0.009216434749688824 -0.034680033435591451 -0.039776088839250684 -0.015944980539896719 -0.0044395677343895823 -0.020084185992356524 0.016246507456342242 0.014713400620379114 -0.034429999210816978 0.017553298909994727 0.0011610688651517893 0.018177043175876678 0.025088265303788278 -0.029897630859878128 0.011165492265971702 -0.023883429727629264 0.0046453432046416167 -0.013975741523816915 -0.0030376782089107388 0.024706459136476983 -0.0059309927154541147 -0.00027708294162991602 0.019794839447459731 -0.024436537140963197 0.027077873577432271 -0.0035404283522992679 0.001073560777704342 0.020312461782077032 0.0076506961670626582 -0.017442452352207233 0.018341778844374598 -0.016947580730034547 0.013502065845920395 -0.01325773508237843
leaf_weight=411 113 430 433 424 656 169 247 34 479 181 328 103 360 226 412 32 274 413 361 66 426 316 232 498 38 280 437 211 388 193 274 158 281 253 360 586 68 206 260 293 802 615 895 938 190 112 23 248 58 297 78 217 323 184 177 217 180 518 336 22 150 720
leaf_count=411 113 430 433 424 656 169 247 34 479 181 328 103 360 226 412 32 274 413 361 66 426 316 232 498 38 280 437 211 388 193 274 158 281 253 360 586 68 206 260 293 802 615 895 938 190 112 23 248 58 297 78 217 323 184 177 217 180 518 336 22 150 720
internal_value=1.48366e-12 0.00962548 0.0136992 0.0173701 0.000858072 -0.00230503 -0.0257496 0.0129581 0.00560197 0.0142143 0.0231309 0.00314781 -0.0232915 0.0120227 0.00769734 -0.00671196 0.00932445 -0.0260165 0.00961981 0.0194522 0.00756306 -0.00502913 0.00927214 0.0111571 -0.00302249 0.0284639 -0.00146001 0.0186758 0.014852 -0.0242175 -0.0315648 -0.0208211 0.00220613 -0.0298056 0.00934386 0.0109614 -0.0180201 0.0258073 -0.00168001 0.0115889 0.0237875 -0.0270373 0.0125977 -0.0231056 0.0122388 -0.00686461 0.0283188 0.0223518 0.010125 -0.0040283 0.0323017 -0.0170776 0.0220739 0.00343579 0.0087791 0.0114534 0.0145716 -0.0215919 0.022294 0.00634495 0.00907067 -0.0154262
internal_weight=19210 13983 9547 6569 4436 3224 5227 3720 2978 3426 2849 1441 3674 2679 2499 1783 1906 2422 2087 1686 1654 1593 1212 1632 722 1163 937 773 818 2009 1553 190 642 1279 719 1012 1252 883 294 980 868 868 1451 1816 550 512 677 271 953 409 406 1184 747 500 687 510 397 1456 547 210 188 967
internal_count=19210 13983 9547 6569 4436 3224 5227 3720 2978 3426 2849 1441 3674 2679 2499 1783 1906 2422 2087 1686 1654 1593 1212 1632 722 1163 937 773 818 2009 1553 190 642 1279 719 1012 1252 883 294 980 868 868 1451 1816 550 512 677 271 953 409 406 1184 747 500 687 510 397 1456 547 210 188 967
is_linear=0
shrinkage=0.05


Tree=17
num_leaves=63
num_cat=0
split_feature=2 0 3 0 9 7 3 1 0 7 7 0 7 0 3 3 0 9 3 8 0 3 0 3 9 10 3 8 8 0 8 3 8 3 10 7 7 0 9 7 9 1 9 0 8 7 3 10 8 9 3 1 9 0 0 8 1 1 0 8 10 3
split_gain=1718.81 180.613 98.8649 50.7525 48.3023 44.8705 37.4309 30.4006 19.8745 19.6955 17.7836 16.32 15.5509 15.1654 14.9781 14.8856 14.6812 13.4621 12.1921 11.8415 11.9516 10.676 9.26447 9.12586 8.5355 8.08961 8.01839 7.52787 7.2326 7.02602 6.65459 6.49941 6.02364 5.79329 5.7617 5.554 5.51335 5.35824 5.34423 7.01109 5.25334 5.17062 6.15547 4.94249 5.2211 4.90164 4.69018 4.51551 4.40829 4.39352 4.36331 4.32046 4.31445 4.29072 4.14224 5.55574 4.29192 4.12207 4.61668 3.99932 3.96586 3.95878
threshold=1.0000000180025095e-35 239233.50000000003 36.500000000000007 130422.00000000001 46.500000000000007 2.5000000000000004 34.500000000000007 7.5000000000000009 449415.00000000006 18.500000000000004 15.500000000000002 49948.000000000007 6.5000000000000009 402037.50000000006 34.500000000000007 29.500000000000004 42660.500000000007 48.500000000000007 28.500000000000004 31.500000000000004 471058.00000000006 28.500000000000004 472963.50000000006 46.500000000000007 48.500000000000007 12.500000000000002 45.500000000000007 29.500000000000004 31.500000000000004 393564.50000000006 28.500000000000004 41.500000000000007 31.500000000000004 28.500000000000004 12.500000000000002 21.500000000000004 30.500000000000004 53307.000000000007 37.500000000000007 30.500000000000004 53.500000000000007 5.5000000000000009 47.500000000000007 226164.50000000003 45.500000000000007 20.500000000000004 46.500000000000007 6.5000000000000009 32.500000000000007 50.500000000000007 27.500000000000004 5.5000000000000009 48.500000000000007 44173.000000000007 152403.50000000003 36.500000000000007 6.5000000000000009 3.5000000000000004 498711.00000000006 28.500000000000004 2.5000000000000004 23.500000000000004
decision_type=2 2 2 2 2 2 2 2 2 2 2 2 2 2 2 2 2 2 2 2 2 2 2 2 2 2 2 2 2 2 2 2 2 2 2 2 2 2 2 2 2 2 2 2 2 2 2 2 2 2 2 2 2 2 2 2 2 2 2 2 2 2
left_child=3 2 4 14 11 22 7 13 15 52 25 33 -4 41 24 49 -12 35 27 -11 40 45 32 29 -1 59 37 -13 -15 -8 -23 -17 -3 -2 50 53 54 -19 39 -35 -21 42 -7 -20 -45 -18 -16 -22 -29 -5 -10 57 61 -14 55 56 -32 58 -30 60 -6 -9
right_child=1 5 12 8 10 6 23 9 34 19 16 18 17 28 46 31 21 26 43 20 47 30 -24 -25 -26 -27 -28 48 51 -31 36 -33 -34 38 -36 -37 -38 -39 -40 -41 -42 -43 -44 44 -46 -47 -48 -49 -50 -51 -52 -53 -54 -55 -56 -57 -58 -59 -60 -61 -62 -63
