tree
version=v4
num_class=1
num_tree_per_iteration=1
label_index=0
max_feature_idx=121
objective=regression
feature_names=Column_0 Column_1 Column_2 Column_3 Column_4 Column_5 Column_6 Column_7 Column_8 Column_9 Column_10 Column_11 Column_12 Column_13 Column_14 Column_15 Column_16 Column_17 Column_18 Column_19 Column_20 Column_21 Column_22 Column_23 Column_24 Column_25 Column_26 Column_27 Column_28 Column_29 Column_30 Column_31 Column_32 Column_33 Column_34 Column_35 Column_36 Column_37 Column_38 Column_39 Column_40 Column_41 Column_42 Column_43 Column_44 Column_45 Column_46 Column_47 Column_48 Column_49 Column_50 Column_51 Column_52 Column_53 Column_54 Column_55 Column_56 Column_57 Column_58 Column_59 Column_60 Column_61 Column_62 Column_63 Column_64 Column_65 Column_66 Column_67 Column_68 Column_69 Column_70 Column_71 Column_72 Column_73 Column_74 Column_75 Column_76 Column_77 Column_78 Column_79 Column_80 Column_81 Column_82 Column_83 Column_84 Column_85 Column_86 Column_87 Column_88 Column_89 Column_90 Column_91 Column_92 Column_93 Column_94 Column_95 Column_96 Column_97 Column_98 Column_99 Column_100 Column_101 Column_102 Column_103 Column_104 Column_105 Column_106 Column_107 Column_108 Column_109 Column_110 Column_111 Column_112 Column_113 Column_114 Column_115 Column_116 Column_117 Column_118 Column_119 Column_120 Column_121
feature_infos=[82:632864] [0:16] [0:4513] [0:9516] [0:2] [14:124] [0:7087] [1:20175] [1:2400001] [1:531255] [-60:8388607] [1:228900] [0:8388607] [1:8388607] [1:8388607] [-5:1000000] [0:43] [0:75] [0:39] [0:77] [0:123] [0:27] [0:1] [0:1] [0:1] [0:1] [0:1] [0:1] [0:1] [0:1] [0:1] [0:1] [0:1] [0:1] [0:1] [0:1] [0:1] [0:1] [0:1] [0:1] [0:1] [0:1] [0:1] [0:1] [0:1] [0:1] [0:1] [0:1] [0:1] [0:1] [0:1] [0:1] [0:1] [0:1] [0:1] [0:1] [0:1] [0:1] [0:1] [0:1] [0:1] [0:1] [0:1] [0:1] [0:1] [0:1] [0:1] [0:1] [0:1] [0:1] [0:1] [0:1] [0:1] [0:1] [0:1] [0:1] [0:1] [0:1] [0:1] [0:1] [0:1] [0:1] [0:1] [0:1] [0:1] [0:1] [0:1] [0:1] [0:1] [0:1] [0:1] [0:1] [0:1] [0:1] [0:1] [0:1] [0:1] [0:1] [0:1] [0:1] [0:1] [0:1] [0:1] [0:1] [0:1] [0:1] [0:1] [0:1] [0:1] [0:1] [0:1] [0:1] [0:1] [0:1] [0:1] [0:1] [0:1] [0:1] [0:1] [0:1] [0:1] [0:1]
tree_sizes=1572 1533 1554 1515 1537 1503 1519 1501 1523 1497

Tree=0
num_leaves=15
num_cat=0
split_feature=14 14 5 12 8 8 115 21 17 15 15 7 15 4
split_gain=142.979 1017.15 3585.83 13.5332 12.3526 8.61857 12.1626 2.83303 1.28999 0.898431 0.886931 0.434293 0.39795 0.361076
threshold=1140.5000000000002 1137.5000000000002 25.500000000000004 512.50000000000011 289.50000000000006 290.50000000000006 0.88213700056076061 1.0000000180025095e-35 15.500000000000002 26.500000000000004 27.500000000000004 170.50000000000003 27.500000000000004 1.5000000000000002
decision_type=2 2 2 2 2 2 2 2 2 2 2 2 2 2
left_child=1 -1 -3 4 -2 7 13 8 9 -6 11 -11 -9 -7
right_child=3 2 -4 -5 5 6 -8 12 -10 10 -12 -13 -14 -15
leaf_value=0.0021312999925824955 0.0024267773150844314 0.91227044140065372 0.0021574087595751749 0.049387921476457861 0.00091620834906679344 0.00092505373850998213 0.040918728569574486 0.0002829968034984269 0.00071766603765714958 -0.00084586019234706615 0.0017828333213991158 -0.00046258206429354522 0.0019762140243626872 0.0019092131229285344
leaf_weight=2032 16529 57 180 55 3265 5514 79 27797 6361 158158 1366 36360 1461 11509
leaf_count=2032 16529 57 180 55 3265 5514 79 27797 6361 158158 1366 36360 1461 11509
internal_value=2.32217e-10 0.0249972 0.221045 -0.000211278 -0.000221442 -0.000395232 0.0017721 -0.000553114 -0.000684187 -0.000728963 -0.000756385 -0.000774216 0.000367548 0.00159043
internal_weight=270723 2269 237 268454 268399 251870 17102 234768 205510 199149 195884 194518 29258 17023
internal_count=270723 2269 237 268454 268399 251870 17102 234768 205510 199149 195884 194518 29258 17023
is_linear=0
shrinkage=1


Tree=1
num_leaves=15
num_cat=0
split_feature=14 5 14 10 6 6 14 5 115 7 10 10 10 10
split_gain=115.813 932.572 3348.42 11.5936 9.91943 5.40407 3.36633 8.20974 3.01602 13.7075 1.73362 1.67247 0.972796 0.81895
threshold=1140.5000000000002 22.500000000000004 1120.5000000000002 1198.5000000000002 69.500000000000014 68.500000000000014 1137.5000000000002 27.500000000000004 0.88213700056076061 214.50000000000003 192.50000000000003 192.50000000000003 193.50000000000003 192.50000000000003
decision_type=2 2 2 2 2 2 2 2 2 2 2 2 2 2
left_child=1 2 -1 4 5 13 -3 -8 10 -10 -6 -7 -13 -2
right_child=3 6 -4 -5 8 11 7 -9 9 -11 -12 12 -14 -15
leaf_value=0.0017165066653883065 0.0019541578381441871 0.0019375444485570542 0.88597371772297517 0.044133483689136305 0.0025597979989678173 0.0023248883979607618 -0.040642733350537266 0.0019024119320514227 0.00025139794530167075 0.055277607909387405 0.00083405103202344492 -0.00077269801283077837 0.0015704296030875737 0.00037563409777256057
leaf_weight=182 3563 1820 56 59 6914 1788 66 145 220 57 36823 174863 1790 42377
leaf_count=182 3563 1820 56 59 6914 1788 66 145 220 57 36823 174863 1790 42377
internal_value=-3.23188e-11 0.0224974 0.209777 -0.000190151 -0.000199894 -0.000469146 0.000551334 -0.0114055 0.00117274 0.0115745 0.00110686 -0.000718155 -0.000748955 0.000498061
internal_weight=270723 2269 238 268454 268395 224381 2031 211 44014 277 43737 178441 176653 45940
internal_count=270723 2269 238 268454 268395 224381 2031 211 44014 277 43737 178441 176653 45940
is_linear=0
shrinkage=0.1


Tree=2
num_leaves=15
num_cat=0
split_feature=14 14 5 12 8 8 115 5 14 21 17 15 15 10
split_gain=93.8083 764.717 2635.6 10.7714 8.70845 6.14007 9.61341 3.05137 10.3721 1.8898 0.895895 0.635181 0.647403 0.452419
threshold=1140.5000000000002 1137.5000000000002 25.500000000000004 512.50000000000011 289.50000000000006 290.50000000000006 0.88213700056076061 22.500000000000004 1110.5000000000002 1.0000000180025095e-35 15.500000000000002 26.500000000000004 27.500000000000004 192.50000000000003
decision_type=2 2 2 2 2 2 2 2 2 2 2 2 2 2
left_child=1 7 -3 4 -2 9 -7 8 -1 10 11 -6 13 -13
right_child=3 2 -4 -5 5 6 -8 -9 -10 -11 -12 12 -14 -15
leaf_value=0.0015162227529618797 0.0020433367459111269 0.78284100179086658 0.0025786931718337455 0.044078655689954761 0.000779552731533119 0.0013417028177624139 0.036306458171987556 0.0017437900283309049 -0.050233005848599091 0.00029255488541354228 0.00060182121971471192 0.0017994976978563558 0.0015426062658315757 -0.00065156889918768909
leaf_weight=161 16529 57 180 55 3265 17023 79 1820 51 29258 6361 756 1366 193762
leaf_count=161 16529 57 180 55 3265 17023 79 1820 51 29258 6361 756 1366 193762
internal_value=2.71376e-11 0.0202477 0.190237 -0.000171136 -0.000180203 -0.000326123 0.00150322 0.000421224 -0.0109329 -0.000459384 -0.000566436 -0.000603751 -0.000626808 -0.000642043
internal_weight=270723 2269 237 268454 268399 251870 17102 2032 212 234768 205510 199149 195884 194518
internal_count=270723 2269 237 268454 268399 251870 17102 2032 212 234768 205510 199149 195884 194518
is_linear=0
shrinkage=0.1


Tree=3
num_leaves=15
num_cat=0
split_feature=14 5 3 14 14 5 10 6 6 115 0 8 8 8
split_gain=75.9847 706.427 3115 53.8925 10.4916 25.4712 9.21669 6.99736 3.6613 2.1419 16.1997 1.54582 1.21203 0.802016
threshold=1140.5000000000002 22.500000000000004 9320.5000000000018 1115.5000000000002 1137.5000000000002 27.500000000000004 1198.5000000000002 69.500000000000014 68.500000000000014 0.88213700056076061 80398.500000000015 289.50000000000006 289.50000000000006 290.50000000000006
decision_type=2 2 2 2 2 2 2 2 2 2 2 2 2 2
left_child=1 2 3 -1 -3 -6 7 8 -2 12 -11 -10 -9 -13
right_child=6 4 -4 -5 5 -7 -8 9 11 10 -12 13 -14 -15
leaf_value=0.0017246825832019871 0.00040726416888030575 0.0015694110209935369 0.78418233425297323 -0.11781480030580001 -0.073485013526497472 0.0014543014263798451 0.039365678464488713 0.002010782476357738 0.0018482229124057829 0.061283662959933288 -0.0015938317857543982 -0.00065428151104335514 0.00067712687375533556 0.0011951219539802838
leaf_weight=120 45940 1820 63 55 66 145 59 8445 2555 50 227 173509 35292 2377
leaf_count=120 45940 1820 63 55 66 145 59 8445 2555 50 227 173509 35292 2377
internal_value=1.28226e-11 0.0182229 0.181221 -0.0358449 -0.000877799 -0.0219864 -0.000154022 -0.000162709 -0.000388852 0.000990153 0.0097559 -0.000593814 0.000934637 -0.000629288
internal_weight=270723 2269 238 175 2031 211 268454 268395 224381 44014 277 178441 43737 175886
internal_count=270723 2269 238 175 2031 211 268454 268395 224381 44014 277 178441 43737 175886
is_linear=0
shrinkage=0.1


Tree=4
num_leaves=15
num_cat=0
split_feature=14 14 5 5 3 12 8 8 115 14 17 15 15 16
split_gain=61.5476 635.947 2106.96 16.6793 24.8529 8.57581 5.91584 4.36571 7.5444 2.75552 1.32916 0.737947 0.724015 0.367685
threshold=1140.5000000000002 1137.5000000000002 25.500000000000004 22.500000000000004 9320.5000000000018 512.50000000000011 289.50000000000006 290.50000000000006 0.88213700056076061 1109.5000000000002 15.500000000000002 26.500000000000004 27.500000000000004 4.5000000000000009
decision_type=2 2 2 2 2 2 2 2 2 2 2 2 2 2
left_child=1 3 -3 4 9 6 -2 10 -9 -1 11 -8 13 -13
right_child=5 2 -4 -5 -6 -7 7 8 -10 -11 -12 12 -14 -15
leaf_value=0.0012292341525196363 0.0016859530158083178 0.7012677587960896 0.003632547104239671 0.0014124699380124017 -0.086073507504029714 0.039344522744755861 0.00072080599783673981 0.001132474787077981 0.03210697344303886 -0.027059499373403836 0.00044078073623702013 -0.00051950528517879949 0.0014113328799803596 0.00024151167339076592
leaf_weight=106 16529 57 180 1820 55 55 5267 17023 79 51 18227 202710 2010 6554
leaf_count=106 16529 57 180 1820 55 55 5267 17023 79 51 18227 202710 2010 6554
internal_value=-4.74294e-12 0.0164006 0.171418 -0.00167967 -0.0282254 -0.00013862 -0.000146711 -0.000266979 0.00127556 -0.0079601 -0.000379348 -0.000448381 -0.000477528 -0.000495671
internal_weight=270723 2269 237 2032 212 268454 268399 251870 17102 157 234768 216541 211274 209264
internal_count=270723 2269 237 2032 212 268454 268399 251870 17102 157 234768 216541 211274 209264
is_linear=0
shrinkage=0.1


Tree=5
num_leaves=15
num_cat=0
split_feature=14 5 7 14 14 5 3 9 6 6 115 20 15 10
split_gain=49.8536 545.177 3188.93 51.77 18.9667 45.549 8.11072 7.39662 4.94428 2.48368 1.51177 12.867 1.03471 0.897479
threshold=1140.5000000000002 22.500000000000004 182.50000000000003 1110.5000000000002 1137.5000000000002 27.500000000000004 8594.5000000000018 1501.0000000000002 69.500000000000014 68.500000000000014 0.88213700056076061 53.500000000000007 27.500000000000004 192.50000000000003
decision_type=2 2 2 2 2 2 2 2 2 2 2 2 2 2
left_child=1 2 3 6 -3 -6 -1 8 9 -2 13 -12 -11 -10
right_child=7 4 -4 -5 5 -7 -8 -9 10 12 11 -13 -14 -15
leaf_value=0.0013474918477392446 0.00033236532851384573 0.0012712228498005741 0.7884275738147456 -0.13738952204585064 -0.099267480917500733 0.00094561656615355636 -0.05064841845142655 0.032147558187839619 0.0018348539766181668 -0.00051928808596845937 0.050080203598943253 -0.0028913895361480698 0.0016478749549909419 0.0005929365821868408
leaf_weight=75 45934 1820 60 53 66 145 50 71 6911 176208 58 219 2231 36822
leaf_count=75 45934 1820 60 53 66 145 50 71 6911 176208 58 219 2231 36822
internal_value=2.73415e-12 0.0147606 0.157952 -0.0545674 -0.00201916 -0.0304007 -0.0194509 -0.000124758 -0.000133295 -0.000323388 0.000835838 0.00820014 -0.000492192 0.000789193
internal_weight=270723 2269 238 178 2031 211 125 268454 268383 224373 44010 277 178439 43733
internal_count=270723 2269 238 178 2031 211 125 268454 268383 224373 44010 277 178439 43733
is_linear=0
shrinkage=0.1


Tree=6
num_leaves=15
num_cat=0
split_feature=14 14 3 5 5 3 11 15 15 115 14 10 10 20
split_gain=40.3814 531.297 1753.49 94.2096 33.5493 18.9818 6.91184 3.88577 2.61269 8.55037 1.99191 1.44198 1.18827 0.532648
threshold=1140.5000000000002 1137.5000000000002 9320.5000000000018 27.500000000000004 22.500000000000004 9320.5000000000018 3130.5000000000005 27.500000000000004 26.500000000000004 0.88213700056076061 1101.5000000000002 192.50000000000003 193.50000000000003 60.500000000000007
decision_type=2 2 2 2 2 2 2 2 2 2 2 2 2 2
left_child=1 4 3 -3 5 10 7 8 9 -2 -1 -10 13 -13
right_child=6 2 -4 -5 -6 -7 -8 -9 11 -11 -12 12 -14 -15
leaf_value=-0.014079724853195093 0.00087457134725563808 -0.16617812444016619 0.49950950512410713 0.00087114619666970878 0.00114410061855109 -0.091445465413006868 0.030240993065526713 0.0014676034490298017 0.0014042139635084059 0.033856866014472957 -0.037122076220299692 0.0002952423252771909 0.0010609296579849401 -0.00040173170506376627
leaf_weight=95 15528 53 91 93 1820 55 75 14566 4897 79 62 11552 5987 215770
leaf_count=95 15528 53 91 93 1820 55 75 14566 4897 79 62 11552 5987 215770
internal_value=-2.0301e-11 0.0132845 0.154974 -0.05977 -0.00324133 -0.0408898 -0.000112282 -0.000120764 -0.000211919 0.00104152 -0.0231793 -0.000294043 -0.000329688 -0.000366313
internal_weight=270723 2269 237 146 2032 212 268454 268379 253813 15607 157 238206 233309 227322
internal_count=270723 2269 237 146 2032 212 268454 268379 253813 15607 157 238206 233309 227322
is_linear=0
shrinkage=0.1


Tree=7
num_leaves=15
num_cat=0
split_feature=8 8 5 12 5 13 19 10 6 10 115 0 5 9
split_gain=31.5533 935.626 3977.79 10.2262 2.40227 2.75031 3.44012 1.99727 1.92975 1.28107 1.1705 13.2537 0.929778 1.1814
threshold=230.50000000000003 228.50000000000003 25.500000000000004 487.50000000000006 24.500000000000004 62.500000000000007 20.500000000000004 221.50000000000003 69.500000000000014 107.50000000000001 0.88213700056076061 98597.000000000015 22.500000000000004 508.50000000000006
decision_type=2 2 2 2 2 2 2 2 2 2 2 2 2 2
left_child=1 4 -3 8 5 6 -1 -7 -2 -8 12 -12 13 -10
right_child=3 2 -4 -5 -6 7 9 -9 10 -11 11 -13 -14 -15
leaf_value=-0.034564325004556362 -0.00034588739592792111 0.96576528151240637 0.001131705889196901 0.044120195734341484 0.0012553605275610318 -0.00020753629796571907 -0.02091671303188538 -0.020343176913036803 -0.016709643462207168 -0.0034053852719162069 0.053354160102549945 -0.0039864103017582522 0.00049553641572082266 -0.0011831195643101325
leaf_weight=52 220156 53 221 52 8825 1445 51 51 50 231 50 208 36813 2465
leaf_count=52 220156 53 221 52 8825 1445 51 51 50 231 50 208 36813 2465
internal_value=-6.75853e-13 0.00526362 0.187721 -0.00022143 0.000571602 -0.00272576 -0.0109304 -0.000893979 -0.000230307 -0.00657233 0.00041249 0.0071261 0.000368448 -0.0014918
internal_weight=270723 10929 274 259794 10655 1830 334 1496 259742 282 39586 258 39328 2515
internal_count=270723 10929 274 259794 10655 1830 334 1496 259742 282 39586 258 39328 2515
is_linear=0
shrinkage=0.1


Tree=8
num_leaves=15
num_cat=0
split_feature=8 8 5 12 5 17 0 8 115 12 6 5 6 6
split_gain=25.5582 757.857 3222.01 8.28321 2.05287 3.02685 3.09529 1.58913 4.92615 1.32572 0.801509 0.693224 1.03596 0.643167
threshold=230.50000000000003 228.50000000000003 25.500000000000004 487.50000000000006 22.500000000000004 33.500000000000007 223865.00000000003 290.50000000000006 0.88213700056076061 393.50000000000006 69.500000000000014 22.500000000000004 73.500000000000014 68.500000000000014
decision_type=2 2 2 2 2 2 2 2 2 2 2 2 2 2
left_child=1 4 -3 7 5 9 -7 10 11 -1 13 12 -9 -2
right_child=3 2 -4 -5 -6 6 -8 8 -10 -11 -12 -13 -14 -15
leaf_value=-0.00057165175207638788 4.2065665663345223e-05 0.86918876497250686 0.0010185352961623441 0.039708175050775313 0.00092677449139310958 -0.031604378916499386 0.00060341023956425491 -0.0010377119865777752 0.025317083838407275 -0.017131120613506624 0.00019334579752625485 0.00074932515143236698 -0.013004074116750279 -0.00042365741860260107
leaf_weight=688 35718 53 221 52 9791 74 50 859 81 52 31900 16473 79 174632
leaf_count=688 35718 53 221 52 9791 74 50 859 81 52 31900 16473 79 174632
internal_value=-9.57696e-12 0.00473726 0.168949 -0.000199287 0.000514442 -0.00415818 -0.0186174 -0.000207276 0.000713218 -0.00173529 -0.000273742 0.000598755 -0.00204554 -0.000344576
internal_weight=270723 10929 274 259794 10655 864 124 259742 17492 740 242250 17411 938 210350
internal_count=270723 10929 274 259794 10655 864 124 259742 17492 740 242250 17411 938 210350
is_linear=0
shrinkage=0.1


Tree=9
num_leaves=15
num_cat=0
split_feature=14 5 8 14 14 5 10 0 6 8 8 5 6 12
split_gain=31.6026 474.395 2620.84 55.3819 40.2385 36.2436 5.93765 5.50657 2.20064 1.13886 19.5834 27.9325 1.0811 0.988718
threshold=1140.5000000000002 22.500000000000004 230.50000000000003 1110.5000000000002 1137.5000000000002 27.500000000000004 1198.5000000000002 238172.50000000003 69.500000000000014 228.50000000000003 230.50000000000003 29.500000000000004 68.500000000000014 487.50000000000006
decision_type=2 2 2 2 2 2 2 2 2 2 2 2 2 2
left_child=1 2 -1 7 -3 -6 8 -4 9 -2 11 -11 -12 -10
right_child=6 4 3 -5 5 -7 -8 -9 13 10 12 -13 -14 -15
leaf_value=0.6594135933635491 0.0013103117976415424 0.00089213682933584823 -0.055226031271740798 -0.15584164121571709 -0.1066703897985545 -0.017277890642390364 0.031620687303149091 -0.011566897067599571 0.00055652133065944886 -0.09075654734877954 0.00020907373174178863 0.00087881905358069801 -0.00035154602134750677 -0.013240686637492708
leaf_weight=70 4681 1820 52 51 66 145 59 65 43962 58 42703 78 176861 52
leaf_count=70 4681 1820 52 51 66 145 59 65 43962 58 42703 78 176861 52
internal_value=1.10496e-11 0.0117521 0.145325 -0.0688781 -0.00390047 -0.0452395 -9.93301e-05 -0.030971 -0.000106303 -0.000233123 -0.000266008 -0.038201 -0.000242511 0.000540221
internal_weight=270723 2269 238 168 2031 211 268454 117 268395 224381 219700 136 219564 44014
internal_count=270723 2269 238 168 2031 211 268454 117 268395 224381 219700 136 219564 44014
is_linear=0
shrinkage=0.1


end of trees

feature_importances:
Column_14=23
Column_5=22
Column_8=17
Column_10=13
Column_6=12
Column_15=10
Column_115=9
Column_12=7
Column_3=5
Column_0=4
Column_17=4
Column_7=3
Column_9=2
Column_20=2
Column_21=2
Column_4=1
Column_11=1
Column_13=1
Column_16=1
Column_19=1

parameters:
[boosting: gbdt]
[objective: regression]
[metric: rmse]
[tree_learner: serial]
[device_type: cpu]
[data_sample_strategy: bagging]
[data: ]
[valid: ]
[num_iterations: 10000]
[learning_rate: 0.1]
[num_leaves: 15]
[num_threads: 0]
[seed: 1235]
[deterministic: 0]
[force_col_wise: 0]
[force_row_wise: 0]
[histogram_pool_size: -1]
[max_depth: -1]
[min_data_in_leaf: 50]
[min_sum_hessian_in_leaf: 0.001]
[bagging_fraction: 0.5]
[pos_bagging_fraction: 1]
[neg_bagging_fraction: 1]
[bagging_freq: 0]
[bagging_seed: 10961]
[bagging_by_query: 0]
[feature_fraction: 0.8]
[feature_fraction_bynode: 1]
[feature_fraction_seed: 53]
[extra_trees: 0]
[extra_seed: 11644]
[early_stopping_round: 0]
[early_stopping_min_delta: 0]
[first_metric_only: 0]
[max_delta_step: 0]
[lambda_l1: 0]
[lambda_l2: 0]
[linear_lambda: 0]
[min_gain_to_split: 0]
[drop_rate: 0.1]
[max_drop: 50]
[skip_drop: 0.5]
[xgboost_dart_mode: 0]
[uniform_drop: 0]
[drop_seed: 30626]
[top_rate: 0.2]
[other_rate: 0.1]
[min_data_per_group: 100]
[max_cat_threshold: 32]
[cat_l2: 10]
[cat_smooth: 10]
[max_cat_to_onehot: 4]
[top_k: 20]
[monotone_constraints: ]
[monotone_constraints_method: basic]
[monotone_penalty: 0]
[feature_contri: ]
[forcedsplits_filename: ]
[refit_decay_rate: 0.9]
[cegb_tradeoff: 1]
[cegb_penalty_split: 0]
[cegb_penalty_feature_lazy: ]
[cegb_penalty_feature_coupled: ]
[path_smooth: 0]
[interaction_constraints: ]
[verbosity: -1]
[saved_feature_importance_type: 0]
[use_quantized_grad: 0]
[num_grad_quant_bins: 4]
[quant_train_renew_leaf: 0]
[stochastic_rounding: 1]
[linear_tree: 0]
[max_bin: 255]
[max_bin_by_feature: ]
[min_data_in_bin: 3]
[bin_construct_sample_cnt: 200000]
[data_random_seed: 4071]
[is_enable_sparse: 1]
[enable_bundle: 1]
[use_missing: 1]
[zero_as_missing: 0]
[feature_pre_filter: 1]
[pre_partition: 0]
[two_round: 0]
[header: 0]
[label_column: ]
[weight_column: ]
[group_column: ]
[ignore_column: ]
[categorical_feature: ]
[forcedbins_filename: ]
[precise_float_parser: 0]
[parser_config_file: ]
[objective_seed: 602]
[num_class: 1]
[is_unbalance: 0]
[scale_pos_weight: 1]
[sigmoid: 1]
[boost_from_average: 1]
[reg_sqrt: 0]
[alpha: 0.9]
[fair_c: 1]
[poisson_max_delta_step: 0.7]
[tweedie_variance_power: 1.5]
[lambdarank_truncation_level: 30]
[lambdarank_norm: 1]
[label_gain: ]
[lambdarank_position_bias_regularization: 0]
[eval_at: ]
[multi_error_top_k: 1]
[auc_mu_weights: ]
[num_machines: 1]
[local_listen_port: 12400]
[time_out: 120]
[machine_list_filename: ]
[machines: ]
[gpu_platform_id: -1]
[gpu_device_id: -1]
[gpu_use_dp: 0]
[num_gpu: 1]

end of parameters

pandas_categorical:null
