tree
version=v4
num_class=1
num_tree_per_iteration=1
label_index=0
max_feature_idx=10
objective=regression
feature_names=Column_0 Column_1 Column_2 Column_3 Column_4 Column_5 Column_6 Column_7 Column_8 Column_9 Column_10
feature_infos=[84:630117] [0:16] [0:1] [18:56] [52:83] [28:474] [0:37] [0:31] [0:64] [0:112] [0:23]
tree_sizes=5597 5597 5600 5612 5597 5605 5611 5617 5617 5612 5617 5619 5634 5638 5607 5650 5618 5628 5642 5634 5643 5643 5636 5623 5639 5634 5645 5647 5652 5661 5650 5653 5667 5665 5676 5674 5683 5657 5669 5678 5681 5684 5672 5677 5686 5682 5677 5692 5699 5682 5682 5693 5657 5679 5687 5679 5679 5685 5678 5703 5723 5691 5680 5690 5689 5693 5656 5681 5691 5667 5686 5652 5668 5661 5682 5677 5641 5681 5692 5658 5624 5699 5661 5631 5656 5682 5636 5679 5671 5639 5658 5635 5671 5674 5684 5647 5696 5646 5698 5692 5646 5639 5633 5715 5728 5676 5668 5676 5622 5667 5656 5658 5634 5656 5671 5731 5681 5670 5623 5659 5632 5646 5640 5599 5658 5653 5656 5647 5637 5702 5658 5653 5667 5647 5665 5699 5684 5634 5683 5638 5640 5650 5679

Tree=0
num_leaves=63
num_cat=0
split_feature=2 5 0 3 0 0 3 9 9 5 0 3 5 5 9 5 3 9 3 5 5 10 7 0 9 0 0 5 3 4 5 5 0 0 0 9 5 0 0 0 3 3 3 10 0 5 1 5 3 0 7 3 4 3 10 4 0 3 3 7 7 3
split_gain=9850.9 865.825 506.256 324.152 227.22 215.086 133.966 115.475 82.6285 63.1221 62.5649 54.8648 53.9323 51.5067 46.0835 41.8307 36.051 35.9633 35.298 30.0779 30.0324 29.3327 28.1301 26.8553 26.6724 24.7945 23.9453 23.5349 22.7847 20.9404 20.2652 20.1847 18.9267 18.3947 18.2859 17.6067 17.134 16.8073 16.6846 16.1192 15.5077 15.2574 13.7196 13.6807 13.4274 12.8566 12.7968 12.6129 11.9818 11.8646 11.5838 11.3341 11.244 10.8911 10.8582 10.5475 10.3203 9.95156 9.80729 9.70618 9.58789 9.58477
threshold=1.0000000180025095e-35 176.50000000000003 254214.50000000003 35.500000000000007 266551.00000000006 326366.00000000006 34.500000000000007 49.500000000000007 49.500000000000007 132.50000000000003 470980.00000000006 45.500000000000007 191.50000000000003 194.50000000000003 52.500000000000007 157.50000000000003 27.500000000000004 50.500000000000007 38.500000000000007 163.50000000000003 155.50000000000003 7.5000000000000009 1.0000000180025095e-35 110246.00000000001 49.500000000000007 131104.00000000003 51199.000000000007 200.50000000000003 37.500000000000007 68.500000000000014 141.50000000000003 206.50000000000003 76472.500000000015 118653.50000000001 43760.000000000007 50.500000000000007 187.50000000000003 126855.50000000001 438986.50000000006 99819.500000000015 28.500000000000004 35.500000000000007 30.500000000000004 8.5000000000000018 121410.50000000001 232.50000000000003 7.5000000000000009 198.50000000000003 30.500000000000004 97852.000000000015 14.500000000000002 28.500000000000004 68.500000000000014 34.500000000000007 13.500000000000002 72.500000000000014 26772.500000000004 35.500000000000007 27.500000000000004 13.500000000000002 6.5000000000000009 32.500000000000007
decision_type=2 2 2 2 2 2 2 2 2 2 2 2 2 2 2 2 2 2 2 2 2 2 2 2 2 2 2 2 2 2 2 2 2 2 2 2 2 2 2 2 2 2 2 2 2 2 2 2 2 2 2 2 2 2 2 2 2 2 2 2 2 2
left_child=5 4 3 7 8 9 10 12 19 44 22 17 26 33 25 61 38 32 20 49 -10 45 -4 -14 47 41 -3 56 39 57 -7 35 -5 55 -15 -12 -26 48 -17 -16 -36 -11 -28 -18 -1 -8 -38 -24 -22 -2 -42 -25 -40 -31 -32 -9 -19 -21 -35 -41 -29 -6
right_child=1 2 6 11 15 30 21 13 18 14 31 -13 23 34 28 16 43 27 -20 29 37 -23 24 51 36 -27 42 60 -30 53 54 -33 -34 58 40 -37 46 -39 52 59 50 -43 -44 -45 -46 -47 -48 -49 -50 -51 -52 -53 -54 -55 -56 -57 -58 -59 -60 -61 -62 -63
leaf_value=-0.056439864241450984 0.020786338367313802 0.057496929497205272 0.0055114787302551161 0.047313100171611756 -0.020114387824253999 -0.081845848851558031 0.0033719464248525787 0.039444741554383482 -0.005833075369505677 -0.02866990007685305 0.016252084371181346 0.0059560111344023614 0.068349983339338879 0.055064299252493586 -0.042096314912391082 0.014474675977728758 -0.011927322133415193 0.026439225990312856 -0.0076874515509100395 0.04234638225092846 0.02568576506138107 -0.011828539136443456 0.031357051761449969 0.059774347937551493 0.012088218364403937 -0.0492013190854656 0.044043655274729011 0.010020066578400762 -0.063523718167017795 0.02539508660180265 -0.066846538777295295 0.021461559646707686 0.028553090549189135 0.031487822490189846 0.049682480269423714 -0.0046594242882787651 0.017727254397080901 0.0057713915866384087 0.010689149306947485 -0.065352330899183575 0.013765617544713017 -0.047280860080967914 0.026211648494234789 -0.034783434224167346 -0.067425083548553408 0.026606766814060556 0.033447180597732495 0.046841136863022749 0.011359964925537399 0.0031392874813638192 0.03869272812632444 0.044484789078758302 -0.013316948967911111 0.0066113275304742437 -0.085578408895055413 0.020578503558117228 0.01114005520745673 0.020674689969840603 0.016657187822036922 -0.051614888693100179 0.032057544321161091 -0.035870991380371864
leaf_weight=500 171 283 140 238 274 685 608 442 275 439 152 418 676 338 421 205 568 143 422 253 287 373 327 273 240 425 459 56 422 317 551 201 309 187 362 298 198 480 73 154 51 147 141 74 627 66 374 220 297 215 541 218 147 102 90 89 481 67 276 779 416 149
leaf_count=500 171 283 140 238 274 685 608 442 275 439 152 418 676 338 421 205 568 143 422 253 287 373 327 273 240 425 459 56 422 317 551 201 309 187 362 298 198 480 73 154 51 147 141 74 627 66 374 220 297 215 541 218 147 102 90 89 481 67 276 779 416 149
internal_value=9.80649e-10 0.0219286 0.0303353 0.038455 0.00349768 -0.0584624 0.0140884 0.0462148 0.0116842 -0.0525662 0.0212309 0.0221297 0.0548313 0.0384879 -0.0485284 -0.0123589 -0.00708404 0.0262445 0.00492209 0.0222692 0.00889611 -0.000578658 0.0268518 0.0618857 0.0290502 -0.0400069 0.0455079 0.0210185 -0.0533794 0.0281779 -0.0758664 0.00828814 0.0367156 0.0299313 0.0450709 0.00240402 0.023301 0.012703 0.00421182 -0.0502177 0.0415303 -0.0333385 0.0398531 -0.0145618 -0.0625514 0.00564717 0.0280057 0.0375847 0.0184002 0.010957 0.0365453 0.0529859 -0.00535129 0.0208224 -0.0694766 0.0362826 0.0146461 0.0378089 0.0226471 -0.0538824 0.0294429 -0.0256646
internal_weight=19210 13970 9594 6397 4376 5240 3197 4336 2886 3914 2150 2061 2050 2286 2787 1490 1067 1643 1761 1125 1339 1047 1499 1167 1359 1011 883 1096 1776 739 1326 651 547 994 1292 450 812 1064 425 1354 954 586 600 642 1127 674 572 547 584 386 592 491 220 419 641 531 624 320 463 933 472 423
internal_count=19210 13970 9594 6397 4376 5240 3197 4336 2886 3914 2150 2061 2050 2286 2787 1490 1067 1643 1761 1125 1339 1047 1499 1167 1359 1011 883 1096 1776 739 1326 651 547 994 1292 450 812 1064 425 1354 954 586 600 642 1127 674 572 547 584 386 592 491 220 419 641 531 624 320 463 933 472 423
is_linear=0
shrinkage=1


Tree=1
num_leaves=63
num_cat=0
split_feature=2 5 0 3 0 0 3 9 3 3 0 5 5 0 5 3 5 9 0 3 5 0 10 0 5 0 5 9 5 9 8 5 0 3 3 0 5 0 0 10 4 9 0 1 1 5 8 4 5 4 5 3 0 9 1 9 5 4 4 4 9 10
split_gain=8890.44 781.407 456.896 295.719 205.148 194.478 120.905 90.4 77.8284 68.1633 56.4648 56.0093 49.5391 49.09 48.5458 48.3662 39.1707 38.4658 34.7666 31.9353 29.7207 27.0977 26.4727 25.8841 25.6429 22.7584 21.536 18.4921 18.3337 17.9138 17.6932 17.4213 17.0958 16.1903 16.1349 15.8836 14.8736 14.8453 14.7251 13.7558 13.5144 13.2323 13.2178 12.59 12.1102 11.6031 11.3745 11.2286 11.0138 12.1937 10.8564 10.4584 10.3737 9.79736 9.78428 9.58022 9.46661 9.34228 9.26999 9.1746 8.95248 8.66495
threshold=1.0000000180025095e-35 176.50000000000003 254214.50000000003 33.500000000000007 238642.00000000003 289708.00000000006 34.500000000000007 49.500000000000007 32.500000000000007 43.500000000000007 470980.00000000006 127.50000000000001 201.50000000000003 29240.500000000004 163.50000000000003 35.500000000000007 194.50000000000003 49.500000000000007 108342.50000000001 27.500000000000004 197.50000000000003 53352.500000000007 7.5000000000000009 456691.00000000006 187.50000000000003 464671.50000000006 155.50000000000003 52.500000000000007 200.50000000000003 52.500000000000007 30.500000000000004 163.50000000000003 73741.000000000015 32.500000000000007 45.500000000000007 30545.000000000004 203.50000000000003 118653.50000000001 39138.000000000007 13.500000000000002 69.500000000000014 40.500000000000007 424289.00000000006 8.5000000000000018 7.5000000000000009 232.50000000000003 26.500000000000004 68.500000000000014 234.50000000000003 75.500000000000014 142.50000000000003 27.500000000000004 126855.50000000001 52.500000000000007 7.5000000000000009 104.50000000000001 163.50000000000003 72.500000000000014 69.500000000000014 68.500000000000014 49.500000000000007 13.500000000000002
decision_type=2 2 2 2 2 2 2 2 2 2 2 2 2 2 2 2 2 2 2 2 2 2 2 2 2 2 2 2 2 2 2 2 2 2 2 2 2 2 2 2 2 2 2 2 2 2 2 2 2 2 2 2 2 2 2 2 2 2 2 2 2 2
left_child=5 4 3 7 8 11 10 12 17 13 24 -1 21 36 25 18 37 31 29 58 60 -3 45 -7 40 33 -19 -26 30 -13 -12 -2 -14 59 35 -10 -5 57 -17 50 -4 -23 -21 -18 -29 -8 -11 -33 49 -22 -25 -34 -28 -20 -32 -30 -37 -9 -16 -6 -15 -27
right_child=1 2 6 9 14 23 22 16 34 46 28 15 32 20 19 38 43 26 53 42 48 41 -24 39 27 61 52 44 55 -31 54 47 51 -35 -36 56 -38 -39 -40 -41 -42 -43 -44 -45 -46 -47 -48 -49 -50 -51 -52 -53 -54 -55 -56 -57 -58 -59 -60 -61 -62 -63
leaf_value=-0.062201587747810275 0.017677931693410542 0.058634102823410077 0.028312508064033143 0.035164403275300106 -0.00040478482637006574 -0.062923028274426168 0.003203347975546709 0.039635857962419523 0.016518347118619003 0.025046446775655918 0.023305225759718773 -0.026581981357365499 0.075716255805813357 0.024724513796298246 0.015578493202139256 -0.04592879501799773 0.037959607412958903 -0.0034258943845791195 -0.04148296737508185 -0.0036884420218679312 0.029259833209904204 0.037198189546457164 -0.011237113032897001 -0.078803390639011206 0.037926233788842995 -0.025507650998402825 0.0218645317893152 0.014934023071334443 0.023754334920710052 -0.040975115545062911 -0.014476167708740368 0.043342898764181882 0.067002631265191945 -0.025544170501996723 -0.011223625134279366 -0.0069426642527851542 0.052924108149081064 0.02295592522951162 -0.060350794644851657 -0.089307883768886723 0.0098662393421880788 0.049895018374697828 -0.018615766048954787 0.049034724134444818 0.029558563570993991 0.025276427707087185 0.0061212694083309484 0.027361546757465924 0.041835686634435799 0.0025561509856387326 -0.066679671397458493 0.050452668529290423 0.0086602404392285906 -0.05081035384956753 0.0033652051386505281 0.0021763972751796248 0.0056014197019942005 0.02023310196896394 0.00071597452636114236 -0.016728241024010465 0.012769744409015403 -0.046521438913634763
leaf_weight=670 233 387 145 325 221 710 608 359 225 94 72 394 234 226 216 249 444 167 435 383 605 479 373 378 422 200 386 220 194 479 133 200 187 168 184 234 185 403 612 154 315 359 242 608 397 66 511 244 165 46 361 195 242 798 182 70 421 75 204 141 510 65
leaf_count=670 233 387 145 325 221 710 608 359 225 94 72 394 234 226 216 249 444 167 435 383 605 479 373 378 422 200 386 220 194 479 133 200 187 168 184 234 185 403 612 154 315 359 242 608 397 66 511 244 165 46 361 195 242 798 182 70 421 75 204 141 510 65
internal_value=1.08172e-10 0.0208322 0.0288186 0.0365323 0.0033228 -0.0555393 0.013384 0.0456226 0.0125442 0.0238188 0.0201693 -0.0491444 0.0535073 0.0281486 -0.00938677 -0.0461959 0.0379382 0.0199912 -0.042114 -0.00230304 0.0237261 0.0476911 -0.000549726 -0.0700485 0.0255092 -0.0186981 0.0125325 0.0298605 0.00787374 -0.0344792 0.000943445 0.02875 0.0650736 -0.0127162 0.00224163 0.00505709 0.0416066 0.0298662 -0.05618 -0.0757138 0.0156808 0.0426375 -0.0094683 0.0443604 0.024344 0.00536481 0.00906171 0.0345604 0.0302974 0.0273729 -0.072881 0.0585544 0.0167763 -0.0475197 -0.00416782 0.0180329 0.00112002 0.0362828 0.00835956 -0.00676282 0.0164406 -0.030662
internal_weight=19210 13970 9594 6397 4376 5240 3197 3730 2536 2667 2150 3637 1841 2062 1840 2967 1889 1472 2106 1045 1552 1225 1047 1603 1499 795 795 1039 651 873 387 677 616 530 1064 880 510 837 861 893 460 838 625 1052 617 674 605 444 816 651 739 382 628 1233 315 264 655 434 420 362 736 265
internal_count=19210 13970 9594 6397 4376 5240 3197 3730 2536 2667 2150 3637 1841 2062 1840 2967 1889 1472 2106 1045 1552 1225 1047 1603 1499 795 795 1039 651 873 387 677 616 530 1064 880 510 837 861 893 460 838 625 1052 617 674 605 444 816 651 739 382 628 1233 315 264 655 434 420 362 736 265
is_linear=0
shrinkage=0.05


Tree=2
num_leaves=63
num_cat=0
split_feature=2 5 0 3 0 0 3 9 9 3 5 0 5 0 5 3 5 0 3 3 5 5 10 5 0 5 4 5 0 5 9 8 0 9 0 3 0 5 0 4 0 1 0 10 3 5 3 8 0 0 8 3 1 8 5 4 3 9 4 5 4 5
split_gain=8023.62 705.22 412.448 265.168 186.404 175.788 111.325 81.3467 69.0525 61.8409 53.3134 52.0722 44.4333 43.6949 35.0113 34.3795 34.2197 32.3619 30.0073 29.7006 26.8379 24.8183 24.441 24.3103 24.1083 22.6888 18.3876 17.3679 17.1371 16.8132 16.5049 16.2981 15.2086 15.13 14.6083 14.5877 14.5148 13.4234 12.8126 12.6755 12.1714 12.1278 11.9046 11.8234 11.5852 11.5494 11.2522 10.3054 10.2727 10.2164 10.2151 10.1351 9.86029 9.79619 9.72605 11.6661 9.39695 8.98495 8.84917 8.78891 8.43141 8.41171
threshold=1.0000000180025095e-35 176.50000000000003 252871.50000000003 33.500000000000007 266551.00000000006 326366.00000000006 34.500000000000007 49.500000000000007 49.500000000000007 43.500000000000007 135.50000000000003 470980.00000000006 201.50000000000003 29240.500000000004 157.50000000000003 35.500000000000007 194.50000000000003 131104.00000000003 36.500000000000007 27.500000000000004 197.50000000000003 163.50000000000003 7.5000000000000009 187.50000000000003 53352.500000000007 155.50000000000003 69.500000000000014 141.50000000000003 53352.500000000007 213.50000000000003 52.500000000000007 30.500000000000004 73741.000000000015 50.500000000000007 438986.50000000006 34.500000000000007 126855.50000000001 203.50000000000003 118653.50000000001 69.500000000000014 43760.000000000007 7.5000000000000009 145689.50000000003 8.5000000000000018 28.500000000000004 232.50000000000003 34.500000000000007 26.500000000000004 97852.000000000015 39138.000000000007 30.500000000000004 28.500000000000004 8.5000000000000018 30.500000000000004 234.50000000000003 75.500000000000014 32.500000000000007 49.500000000000007 73.500000000000014 190.50000000000003 72.500000000000014 123.50000000000001
decision_type=2 2 2 2 2 2 2 2 2 2 2 2 2 2 2 2 2 2 2 2 2 2 2 2 2 2 2 2 2 2 2 2 2 2 2 2 2 2 2 2 2 2 2 2 2 2 2 2 2 2 2 2 2 2 2 2 2 2 2 2 2 2
left_child=5 4 3 7 8 10 11 12 21 13 28 23 24 37 57 17 38 33 25 34 -15 48 45 39 -3 -10 42 -7 -1 31 -25 -13 -14 -12 -16 61 -27 -5 60 -4 -18 -32 46 -21 58 -8 -23 -11 -2 -17 -36 -42 -33 -34 55 -22 -29 -6 59 -26 -9 -30
right_child=1 2 6 9 14 27 22 16 18 47 15 29 32 20 19 49 40 -19 -20 43 54 26 -24 30 44 36 -28 56 35 -31 41 52 53 -35 50 -37 -38 -39 -40 -41 51 -43 -44 -45 -46 -47 -48 -49 -50 -51 -52 -53 -54 -55 -56 -57 -58 -59 -60 -61 -62 -63
leaf_value=-0.044827265615920008 0.019118503389344961 0.055702396355165065 0.027078194024475061 0.033406183013047736 -0.013127163728751556 -0.074031760673018268 0.0030517171229487907 0.037654064644713735 -0.0046756938536650508 0.023794124198661365 -0.024732734358807407 0.022018916493341811 0.071930443149251053 0.015703878015058074 0.013476374455068897 -0.042382793487049646 0.051270243931320264 -0.045961208386114408 -0.0054377261635546962 -0.010717666711868115 0.027980886322681323 0.042100601307659719 -0.010676684673130018 0.036078541564940544 0.042594510131500632 0.017799630462873705 0.014814109336865652 -0.058474255015846591 -0.061789410493137055 0.022293575853699302 0.014082203607799279 -0.0092672896759147388 0.066699360948846195 -0.038041651506148723 0.012931293217015678 -0.066586904254502172 0.0055284026084385963 0.05027790212726875 0.022039337170143763 0.0093084230383994448 0.045087075672126754 0.02857316769481863 0.019740249450620737 -0.031965739187482446 0.032487246696837245 0.024909100167230885 0.0209985442990985 0.0057664908850869247 0.002697947199651322 -0.055980685285822653 -0.011521678378253623 0.033607475068318945 0.0062555719678351121 0.049814790789531528 0.039743901912800292 0.0015868068921069305 -0.071505457760378865 -0.028558398102570881 0.025285236804316255 0.057207186646810196 0.019221446743079771 -0.050810424616228547
leaf_weight=328 171 387 146 325 142 685 617 359 251 94 375 93 234 732 205 190 270 866 539 568 601 246 376 432 343 527 257 439 252 148 225 196 132 496 58 334 444 185 397 321 359 403 151 74 288 67 85 506 215 506 162 414 214 246 165 45 202 281 52 147 75 567
leaf_count=328 171 387 146 325 142 685 617 359 251 94 375 93 234 732 205 190 270 866 539 568 601 246 376 432 343 527 257 439 252 148 225 196 132 496 58 334 444 185 397 321 359 403 151 74 288 67 85 506 215 506 162 414 214 246 165 45 202 281 52 147 75 567
internal_value=-6.65571e-11 0.0197906 0.0273776 0.0347771 0.00315666 -0.0527623 0.0128529 0.0434214 0.0105715 0.0227116 -0.0474319 0.0193206 0.0509228 0.0268384 -0.0112053 -0.0428791 0.0361002 -0.0391168 0.00438983 -0.00637951 0.0226448 0.020248 -0.000436429 0.0243686 0.0453964 0.00872456 0.0256152 -0.0684963 -0.0549114 0.00748005 0.028556 0.0031214 0.0619125 -0.0323116 0.00387332 -0.0577801 0.0121885 0.0395263 0.0285307 0.0148639 0.0421311 0.0233813 0.0313743 -0.0131668 0.040591 0.00519272 0.0366816 0.00859082 0.00997234 -0.0522686 -0.00507499 0.0389389 -0.00116511 0.055711 0.0289096 0.0261423 -0.0625808 -0.0233782 0.0448971 0.0469783 0.0344687 -0.0541886
internal_weight=19210 13970 9594 6356 4376 5240 3238 3703 2886 2653 3914 2178 1829 2053 1490 2433 1874 1737 1761 1067 1543 1125 1060 1527 1217 1222 739 1326 1481 651 1060 503 612 871 425 1153 971 510 831 467 1043 628 482 642 830 684 331 600 386 696 220 773 410 378 811 646 641 423 542 490 434 819
internal_count=19210 13970 9594 6356 4376 5240 3238 3703 2886 2653 3914 2178 1829 2053 1490 2433 1874 1737 1761 1067 1543 1125 1060 1527 1217 1222 739 1326 1481 651 1060 503 612 871 425 1153 971 510 831 467 1043 628 482 642 830 684 331 600 386 696 220 773 410 378 811 646 641 423 542 490 434 819
is_linear=0
shrinkage=0.05


Tree=3
num_leaves=63
num_cat=0
split_feature=2 5 0 3 0 0 3 9 3 3 5 5 3 9 5 5 0 0 9 9 9 3 0 0 0 5 0 5 8 0 3 5 3 3 5 0 5 0 0 10 5 4 0 3 0 5 4 5 0 3 1 4 9 3 0 4 0 5 3 4 7 7
split_gain=7241.32 636.461 372.364 242.963 169.63 160.52 100.323 85.2685 67.1317 50.5089 44.9979 41.999 41.1728 40.8317 40.1831 35.3339 32.4758 30.9916 30.6287 30.1648 27.7767 27.0455 22.5209 21.1776 20.8529 19.3951 18.0509 17.6841 15.9221 15.0329 14.7372 14.5369 14.3481 13.8987 13.8529 13.3659 12.9385 12.9335 12.6931 12.4388 12.1962 11.7976 11.6349 11.5719 11.4317 11.3812 11.0203 10.9204 10.8539 11.3316 10.5628 9.68097 9.40652 9.35185 9.30847 8.90674 8.89144 8.86893 8.61939 8.43329 8.38433 8.34869
threshold=1.0000000180025095e-35 176.50000000000003 254214.50000000003 35.500000000000007 230020.50000000003 264555.50000000006 30.500000000000004 49.500000000000007 32.500000000000007 37.500000000000007 163.50000000000003 191.50000000000003 45.500000000000007 51.500000000000007 203.50000000000003 126.50000000000001 466583.00000000006 456691.00000000006 50.500000000000007 49.500000000000007 52.500000000000007 27.500000000000004 469425.00000000006 110246.00000000001 464671.50000000006 210.50000000000003 51199.000000000007 200.50000000000003 27.500000000000004 71431.000000000015 32.500000000000007 155.50000000000003 45.500000000000007 39.500000000000007 196.50000000000003 424289.00000000006 163.50000000000003 30545.000000000004 39138.000000000007 13.500000000000002 206.50000000000003 69.500000000000014 105491.50000000001 26.500000000000004 43760.000000000007 140.50000000000003 72.500000000000014 186.50000000000003 57367.500000000007 26.500000000000004 7.5000000000000009 68.500000000000014 52.500000000000007 28.500000000000004 99819.500000000015 70.500000000000014 529499.50000000012 142.50000000000003 28.500000000000004 68.500000000000014 6.5000000000000009 5.5000000000000009
decision_type=2 2 2 2 2 2 2 2 2 2 2 2 2 2 2 2 2 2 2 2 2 2 2 2 2 2 2 2 2 2 2 2 2 2 2 2 2 2 2 2 2 2 2 2 2 2 2 2 2 2 2 2 2 2 2 2 2 2 2 2 2 2
left_child=5 4 3 7 8 9 13 11 19 15 24 26 18 34 28 -1 25 45 29 36 42 52 50 -13 30 33 -3 -20 -9 -5 59 -21 37 -8 41 -23 -2 -10 -11 57 -24 -4 -17 -28 -16 -7 48 -18 -30 -50 -15 -38 -12 -46 -22 -33 -36 -19 -25 -6 -29 -49
right_child=1 2 6 12 10 17 16 14 32 38 21 23 -14 22 44 20 47 39 27 31 54 35 40 58 -26 -27 43 60 46 -31 -32 55 -34 -35 56 -37 51 -39 -40 -41 -42 -43 -44 -45 53 -47 -48 61 49 -51 -52 -53 -54 -55 -56 -57 -58 -59 -60 -61 -62 -63
leaf_value=-0.053461403585520484 0.017274021955943387 0.049276554130360015 0.037591659043454975 0.041653121359304046 -0.00035396920841223765 -0.06068390156636691 0.0094033940133034198 0.036279180905837115 0.01519438066126572 -0.044903691902476124 0.015607370580242412 0.059060393786850011 0.0048277474996638288 0.012025901286071167 0.051625816740912128 -0.024315342741785428 -0.017916005917844906 -0.07117053339918139 0.012056631852465216 -0.0014993282664098487 -0.036519671852389975 -0.002267080497050497 -0.0034677476483509213 0.051336666190833241 -0.028111952577304658 0.019968144126298312 0.042145463390242444 0.0067200564654610528 0.037195937630658336 0.024899628732171945 -0.022872755583624713 0.019393891310742872 -0.010805573584977538 -0.0054649168701918372 0.041481478151488511 -0.016969100401298075 0.041108626528746556 0.0012084489689772144 -0.05868589970073454 -0.081438400702817104 0.017936901633925351 0.01836995806940207 -0.036157283127576503 0.02806881963687163 0.046623551719522947 -0.05002312049982565 0.014641593476800725 -0.017370476064815496 0.036439231455537451 0.020285779175238702 0.025490422681825275 0.025670656278057931 0.0010845353481792181 0.033716762179229885 -0.045280813965759725 0.0053173688394793622 0.0090576786892083688 -0.060212607838347601 0.038003314086321509 -0.015202473358744207 0.027327994120633567 0.00076648181073200319
leaf_weight=414 215 283 115 234 255 537 483 418 225 239 222 676 418 250 219 407 139 378 624 151 480 428 212 273 265 286 251 56 209 313 187 448 175 233 262 242 180 623 555 154 97 261 423 349 218 469 215 75 141 472 349 233 224 394 823 150 23 361 218 153 416 412
leaf_count=414 215 283 115 234 255 537 483 418 225 239 222 676 418 250 219 407 139 378 624 151 480 428 212 273 265 286 251 56 209 313 187 448 175 233 262 242 180 623 555 154 97 261 423 349 218 469 215 75 141 472 349 233 224 394 823 150 23 361 218 153 416 412
internal_value=8.00895e-11 0.0188011 0.0260088 0.0329724 0.00299882 -0.0501242 0.0120749 0.0396905 0.0119313 -0.0435265 -0.00785029 0.0470948 0.0188387 0.0210971 0.0330507 -0.040094 0.00337966 -0.0617319 0.0224032 0.019139 -0.0374995 -0.00122676 0.0142151 0.05332 -0.0164455 0.00896148 0.0388673 0.0175804 0.0280408 0.0320666 -0.0112495 0.0123627 0.00222935 0.00456496 0.0305508 -0.00757736 0.0272209 0.00491934 -0.0545374 -0.0685115 0.00325151 0.0242489 -0.0303505 0.0339575 0.0418224 -0.0557138 0.0247201 -0.00555482 0.0273562 0.0240013 0.0198708 0.0323991 0.00831339 0.0383143 -0.0420534 0.015863 0.0388648 -0.0658176 0.0454168 -0.00592216 0.024883 -0.00202668
internal_weight=19210 13970 9594 6397 4376 5240 3197 4336 2400 3341 1976 2050 2061 1569 2286 2547 1628 1899 1643 1377 2133 1116 908 1167 860 1002 883 1096 1455 547 595 749 1023 716 661 670 628 848 794 893 309 376 830 600 831 1006 1037 626 822 613 599 413 446 612 1303 598 285 739 491 408 472 487
internal_count=19210 13970 9594 6397 4376 5240 3197 4336 2400 3341 1976 2050 2061 1569 2286 2547 1628 1899 1643 1377 2133 1116 908 1167 860 1002 883 1096 1455 547 595 749 1023 716 661 670 628 848 794 893 309 376 830 600 831 1006 1037 626 822 613 599 413 446 612 1303 598 285 739 491 408 472 487
is_linear=0
shrinkage=0.05


Tree=4
num_leaves=63
num_cat=0
split_feature=5 0 5 5 3 5 0 3 8 7 9 8 3 0 5 4 3 0 5 9 0 0 5 9 3 5 8 8 4 0 7 5 9 3 3 9 5 7 0 4 5 5 0 7 0 9 3 0 0 0 5 3 0 9 5 7 3 4 7 3 5 5
split_gain=4980.3 504.99 392.243 302.747 195.2 151.86 91.2269 86.6149 82.1193 78.3356 73.4251 68.1602 65.0827 53.6613 48.4085 47.0207 46.5167 44.7776 43.6673 39.265 32.1237 31.0749 30.8496 30.5941 28.3059 25.7483 25.044 24.6524 21.2977 21.0079 20.4203 20.3299 18.5535 18.4026 18.3773 16.8839 15.9536 15.222 15.0299 15.02 14.6287 14.5381 13.1654 12.419 12.202 11.8236 11.807 11.3074 11.268 11.1439 10.9111 10.8102 10.6015 10.4171 9.94256 9.60909 9.57553 9.45502 9.3761 9.28042 9.27288 10.171
threshold=163.50000000000003 254214.50000000003 145.50000000000003 180.50000000000003 33.500000000000007 186.50000000000003 326366.00000000006 33.500000000000007 27.500000000000004 5.5000000000000009 49.500000000000007 30.500000000000004 34.500000000000007 469425.00000000006 90.500000000000014 67.500000000000014 41.500000000000007 445419.00000000006 154.50000000000003 52.500000000000007 111253.50000000001 40913.500000000007 127.50000000000001 52.500000000000007 27.500000000000004 194.50000000000003 27.500000000000004 30.500000000000004 66.500000000000014 464671.50000000006 11.500000000000002 168.50000000000003 50.500000000000007 28.500000000000004 26.500000000000004 49.500000000000007 200.50000000000003 6.5000000000000009 456691.00000000006 72.500000000000014 200.50000000000003 197.50000000000003 105491.50000000001 14.500000000000002 26772.500000000004 50.500000000000007 30.500000000000004 438986.50000000006 114069.00000000001 131104.00000000003 155.50000000000003 37.500000000000007 24679.500000000004 55.500000000000007 206.50000000000003 18.500000000000004 39.500000000000007 65.500000000000014 21.500000000000004 28.500000000000004 132.50000000000003 100.50000000000001
decision_type=2 2 2 2 2 2 2 2 2 2 2 2 2 2 2 2 2 2 2 2 2 2 2 2 2 2 2 2 2 2 2 2 2 2 2 2 2 2 2 2 2 2 2 2 2 2 2 2 2 2 2 2 2 2 2 2 2 2 2 2 2 2
left_child=2 3 6 7 10 11 14 19 50 28 20 46 23 18 -1 -12 21 24 35 31 36 53 -16 55 -13 42 -21 -9 -7 -25 -23 49 48 -19 -20 -10 39 -29 -14 59 -32 -22 -17 -27 -33 -18 -3 -30 -24 -2 -4 60 -36 -6 -31 -11 -34 -35 -56 -5 61 -8
right_child=1 5 8 4 16 9 51 27 13 12 15 17 38 -15 22 25 45 33 34 26 41 30 32 29 -26 43 -28 37 47 54 40 44 56 57 52 -37 -38 -39 -40 -41 -42 -43 -44 -45 -46 -47 -48 -49 -50 -51 -52 -53 -54 -55 58 -57 -58 -59 -60 -61 -62 -63
leaf_value=0.0040984719499664486 0.020819471944469869 0.016795404697768392 -0.0099618095866529852 0.057305810056886702 0.043336347748303895 -0.05350156809602466 -0.03120345935402882 0.013778055777978075 -0.022040828897307317 0.045585770127914288 -0.0028343043934744134 0.008568372379910821 0.0092480741937042161 -0.044522680439477616 -0.052793817490298961 0.033879282783537426 0.020190658600115523 -0.011208098333000996 -0.0053807262344457586 0.025713059449324685 0.031491085440653648 0.0022921366727462525 -0.026960348500964661 0.021937646967892511 -0.010349616318668143 0.020351114235060336 0.0061481292611652296 -0.021373115514462259 0.0034488519880829789 -0.0020783483942845063 0.01709669757733219 0.043376358281005258 -0.042210119524679617 -0.047020062634588355 -0.0054203162577358029 -0.036834944790548267 0.060725717475614387 -0.0016648962319771113 -0.0054859677299758276 0.028619015103645829 0.029115862229997985 0.045910935262220703 0.018952365295211191 0.040202603895721528 0.026511727594336884 0.0066075631377642387 -0.00032497830356338197 -0.017261034990808416 -0.040172416053143686 -0.004133260431765041 0.0063532369515609637 -0.074584479814898366 -0.022467539679750223 0.029056531449218527 0.042670917421436083 0.027960614199572076 -0.053627376769783734 -0.024838248446078137 0.0096924171339543095 0.043275708851108353 -0.053979887313247391 -0.067029267770903456
leaf_weight=53 121 291 208 258 227 28 21 241 300 93 93 300 425 341 739 263 223 279 282 214 362 135 308 543 580 86 694 114 123 178 516 137 944 56 105 540 368 697 292 90 497 338 337 939 494 569 154 142 339 71 202 137 694 292 26 459 228 338 126 217 393 350
leaf_count=53 121 291 208 258 227 28 21 241 300 93 93 300 425 341 739 263 223 279 282 214 362 135 308 543 580 86 694 114 123 178 516 137 944 56 105 540 368 697 292 90 497 338 337 939 494 569 154 142 339 71 202 137 694 292 26 459 228 338 126 217 393 350
internal_value=7.09623e-11 0.0175414 -0.0369492 0.0246124 0.0311078 0.00383477 -0.047933 0.0110521 -0.0225124 0.0122176 0.0389586 -0.00638156 0.0155345 -0.0262442 -0.0431992 0.0317428 0.0204091 -0.011325 -0.0229995 0.0179286 0.04655 0.0251492 -0.0441791 0.0217167 -0.0039003 0.0337216 0.0107592 -0.000262791 -0.0120304 0.015891 0.0205592 0.0258385 -0.0406793 -0.0210334 -0.0163543 -0.0315513 0.0526243 -0.00443523 0.0032476 0.0473477 0.0229936 0.0384538 0.0254953 0.038537 0.0301733 0.0104321 0.0108706 -0.00764852 -0.0338829 0.0115922 -0.00192366 -0.0616511 -0.0202273 0.0353022 0.00594164 0.0309301 -0.0444312 -0.027991 0.0153335 0.0508963 -0.059332 -0.0650014
internal_weight=19210 13026 6184 8593 5810 4433 3512 2783 2672 2435 3351 1998 2142 2262 2611 1718 2459 1553 1921 1731 1633 1667 2558 1425 880 1625 908 1052 293 873 1148 823 1819 673 1081 840 933 811 717 565 1013 700 600 1025 631 792 445 265 647 192 410 901 799 519 330 552 1172 394 152 475 764 371
internal_count=19210 13026 6184 8593 5810 4433 3512 2783 2672 2435 3351 1998 2142 2262 2611 1718 2459 1553 1921 1731 1633 1667 2558 1425 880 1625 908 1052 293 873 1148 823 1819 673 1081 840 933 811 717 565 1013 700 600 1025 631 792 445 265 647 192 410 901 799 519 330 552 1172 394 152 475 764 371
is_linear=0
shrinkage=0.05


Tree=5
num_leaves=63
num_cat=0
split_feature=2 5 0 3 0 0 3 9 3 3 9 5 5 5 3 10 9 9 0 0 3 0 0 9 3 7 5 7 4 0 0 5 5 0 0 5 0 0 10 3 5 4 4 0 5 3 0 5 3 0 5 3 4 4 3 4 0 3 4 7 3 9
split_gain=6047.69 503.161 302.604 195.077 141.123 134.396 94.2032 65.7564 56.356 43.4652 37.0953 34.5132 33.548 32.626 32.1967 31.3487 30.0244 27.0958 25.8613 23.5713 21.9198 20.4483 18.6883 17.3237 17.1933 16.9216 14.6682 13.9191 13.1825 14.5401 13.1164 12.6847 12.1938 12.125 11.8454 11.6188 11.3835 11.2957 11.2227 11.0901 11.0461 10.9181 10.8377 10.8011 10.6976 10.5244 10.2047 9.99531 9.62982 9.48183 9.31531 9.20682 9.1867 9.12622 8.79347 8.53498 8.30584 7.999 7.72826 7.72355 7.59297 7.5614
threshold=1.0000000180025095e-35 176.50000000000003 245800.00000000003 35.500000000000007 230020.50000000003 262549.00000000006 30.500000000000004 49.500000000000007 34.500000000000007 37.500000000000007 51.500000000000007 200.50000000000003 163.50000000000003 202.50000000000003 44.500000000000007 7.5000000000000009 50.500000000000007 52.500000000000007 456691.00000000006 29240.500000000004 27.500000000000004 469425.00000000006 53352.500000000007 49.500000000000007 40.500000000000007 14.500000000000002 135.50000000000003 5.5000000000000009 73.500000000000014 43760.000000000007 116394.00000000001 197.50000000000003 196.50000000000003 404329.00000000006 97852.000000000015 163.50000000000003 66333.000000000015 131104.00000000003 13.500000000000002 28.500000000000004 155.50000000000003 70.500000000000014 69.500000000000014 424289.00000000006 192.50000000000003 28.500000000000004 476587.00000000006 206.50000000000003 30.500000000000004 43760.000000000007 208.50000000000003 32.500000000000007 70.500000000000014 68.500000000000014 28.500000000000004 73.500000000000014 529499.50000000012 37.500000000000007 72.500000000000014 14.500000000000002 28.500000000000004 42.500000000000007
decision_type=2 2 2 2 2 2 2 2 2 2 2 2 2 2 2 2 2 2 2 2 2 2 2 2 2 2 2 2 2 2 2 2 2 2 2 2 2 2 2 2 2 2 2 2 2 2 2 2 2 2 2 2 2 2 2 2 2 2 2 2 2 2
left_child=5 4 3 7 8 9 10 11 16 17 32 22 23 28 19 24 35 30 51 -5 52 50 60 -6 27 -21 -19 -8 29 -9 -1 -27 42 -25 -13 -2 -10 -11 -20 55 -18 -42 -4 57 -29 -31 -17 -23 -36 -15 -12 -7 -14 -37 -51 61 -34 -22 -33 -28 -3 -24
right_child=1 2 6 14 12 18 15 13 36 37 21 34 20 49 -16 46 40 26 38 25 43 47 39 33 -26 31 59 44 -30 45 -32 58 56 -35 48 53 -38 -39 -40 -41 41 -43 -44 -45 -46 -47 -48 -49 -50 54 -52 -53 -54 -55 -56 -57 -58 -59 -60 -61 -62 -63
leaf_value=-0.024846427747130678 0.015599877183294928 0.054187286561054572 0.03517447182336661 0.031903169965691557 -0.004440225719242988 -0.047820924074511315 -0.004518381213946712 0.036353728665460459 0.0069581397354633815 -0.04579024195185398 0.01527654386288866 0.058773648947922155 0.012246429805721467 0.047100390845947471 0.0061611956353716116 0.00050571310961844797 -0.00067855737094456954 -0.046916988825669158 -0.060012885203007842 0.00091087115940692706 0.0022286069963217501 -0.0029642531166143085 0.035726709527728884 -0.012873299760210528 -0.0011732394815968247 0.013645072141165799 -0.046927374079823496 0.0066587070024950309 0.010965784337969811 0.03030338840175887 -0.036518979036099852 0.030206730507895897 0.038558345928383586 -0.027676926301252781 0.051738413952731946 0.037118416027379086 -0.0048208736131977563 -0.058522581507570497 -0.074850405080171378 0.026710508097391075 0.017024248473537503 0.0025271416115884085 0.017564635948822668 -0.015204990909517596 0.019619069808790562 0.019418142513151798 -0.012362271879403287 0.016413065749364571 0.0343530034530923 0.043177499075118503 0.029039973315283116 -0.058170843604764016 -0.0034062030554901979 0.022978660834522806 0.030539343283038256 0.018997547899683317 0.0073267485460509433 -0.013067740925747537 0.018077863278287132 -0.034913078510697804 0.040923889785106311 0.048982583334636405
leaf_weight=545 243 186 127 371 298 716 105 327 385 532 491 335 312 222 486 330 174 581 739 137 310 212 296 316 326 469 160 247 137 387 431 301 286 246 226 201 439 259 154 333 521 173 280 242 448 521 289 97 123 213 164 307 134 264 389 51 23 118 233 816 257 169
leaf_count=545 243 186 127 371 298 716 105 327 385 532 491 335 312 222 486 330 174 581 739 137 310 212 296 316 326 469 160 247 137 387 431 301 286 246 226 201 439 259 154 333 521 173 280 242 448 521 289 97 123 213 164 307 134 264 389 51 23 118 233 816 257 169
internal_value=-7.26931e-12 0.0171818 0.0235904 0.0302069 0.00313146 -0.0458072 0.0116729 0.0363585 0.0112788 -0.0397277 0.0201241 0.0429759 -0.00676415 0.030404 0.0173556 0.00353658 0.016819 -0.0365327 -0.0563542 0.0209562 -0.00104505 0.0137209 0.0381679 -0.0141857 0.00850545 0.0173936 -0.040627 0.0124495 0.0256809 0.0273133 -0.030001 0.019645 0.0287451 -0.0193532 0.0520577 0.0244604 0.00068267 -0.0499592 -0.0625717 0.0338241 0.0105861 0.0134104 0.0230596 -0.00676229 0.015013 0.0240576 -0.00550212 0.00311859 0.0456112 0.0382681 0.0187227 -0.0509269 0.00754362 0.0290907 0.035011 0.0384148 0.0362337 -0.00198861 0.0249145 -0.0368826 0.0464927 0.0405444
internal_weight=19210 13970 9594 6169 4376 5240 3425 4172 2400 3324 1680 1976 1976 2196 1997 1745 1576 2533 1916 1511 1116 964 1292 860 1126 1140 1557 800 1372 1235 976 1003 716 562 684 708 824 791 893 849 868 694 407 670 695 908 619 309 349 824 655 1023 446 465 602 516 309 428 534 976 443 465
internal_count=19210 13970 9594 6169 4376 5240 3425 4172 2400 3324 1680 1976 1976 2196 1997 1745 1576 2533 1916 1511 1116 964 1292 860 1126 1140 1557 800 1372 1235 976 1003 716 562 684 708 824 791 893 849 868 694 407 670 695 908 619 309 349 824 655 1023 446 465 602 516 309 428 534 976 443 465
is_linear=0
shrinkage=0.05


Tree=6
num_leaves=63
num_cat=0
split_feature=2 5 0 3 0 0 3 0 3 3 5 3 3 9 5 0 0 0 0 9 5 0 7 10 9 7 7 4 9 8 3 1 5 5 4 3 5 3 5 5 10 0 0 0 5 10 7 0 1 0 5 9 3 4 5 5 4 5 3 5 4 9
split_gain=5458.04 459.487 237.708 180.866 170.578 121.554 73.9225 60.4654 50.1092 46.1994 39.5511 37.9735 33.8246 28.404 27.8701 27.5005 26.2799 25.6308 24.4719 23.3532 20.9482 18.2275 16.9165 15.9023 14.9321 14.7032 14.4739 14.247 13.7004 13.5058 13.0607 12.9974 12.6845 12.3179 14.8344 12.2356 12.2278 11.6602 11.4831 11.3518 10.7526 10.4525 10.443 10.3118 10.2906 10.1285 9.93942 9.93355 9.81611 9.96431 9.43115 11.2477 9.27575 9.20199 9.0474 8.98342 8.47275 8.47252 8.38639 8.30074 10.6405 8.229
threshold=1.0000000180025095e-35 182.50000000000003 300343.50000000006 33.500000000000007 238642.00000000003 252871.50000000003 30.500000000000004 111253.50000000001 26.500000000000004 41.500000000000007 163.50000000000003 37.500000000000007 27.500000000000004 50.500000000000007 168.50000000000003 40913.500000000007 33120.000000000007 456691.00000000006 469425.00000000006 52.500000000000007 195.50000000000003 47721.500000000007 11.500000000000002 13.500000000000002 49.500000000000007 13.500000000000002 13.500000000000002 71.500000000000014 55.500000000000007 30.500000000000004 26.500000000000004 7.5000000000000009 211.50000000000003 205.50000000000003 72.500000000000014 37.500000000000007 137.50000000000003 39.500000000000007 132.50000000000003 211.50000000000003 7.5000000000000009 424289.00000000006 23715.000000000004 102381.00000000001 140.50000000000003 13.500000000000002 5.5000000000000009 39138.000000000007 7.5000000000000009 464671.50000000006 152.50000000000003 49.500000000000007 46.500000000000007 70.500000000000014 197.50000000000003 211.50000000000003 71.500000000000014 187.50000000000003 26.500000000000004 209.50000000000003 74.500000000000014 50.500000000000007
decision_type=2 2 2 2 2 2 2 2 2 2 2 2 2 2 2 2 2 2 2 2 2 2 2 2 2 2 2 2 2 2 2 2 2 2 2 2 2 2 2 2 2 2 2 2 2 2 2 2 2 2 2 2 2 2 2 2 2 2 2 2 2 2
left_child=5 4 3 7 6 11 14 13 23 15 24 19 27 33 43 54 37 44 39 38 30 -16 -22 46 -6 -17 -18 48 -23 -20 -9 -24 61 34 -3 41 -21 -8 -1 52 -26 -14 -11 -2 -7 -19 -4 -13 49 -12 -28 -52 -10 -30 -5 56 -44 -31 -33 60 -15 -27
right_child=1 2 8 9 10 17 16 20 18 42 12 47 35 59 21 25 26 45 29 36 22 28 31 -25 40 32 50 -29 53 57 -32 58 -34 -35 -36 -37 -38 -39 -40 -41 -42 -43 55 -45 -46 -47 -48 -49 -50 -51 51 -53 -54 -55 -56 -57 -58 -59 -60 -61 -62 -63
leaf_value=-0.037357208475872289 0.019799371193699442 0.048926531347385047 0.0019311020163034921 0.026107961288848971 -0.0044557850473157445 -0.052670941304736402 0.020743983627667668 0.031562879267541012 0.0076100056997549046 0.021225922842477929 0.010931018955685053 -0.038677502125228864 0.0021543358457733761 0.034190777858262314 0.038091785808286399 0.0043887453911226398 -0.01199570856399298 -0.057012242267503122 0.014550755307854081 -0.04388933865756698 0.013096432246952429 0.028357153807307179 0.028144653491528185 0.0054936805796199327 -0.013054911763359834 0.024941974957883931 -0.010838230667786317 -0.0061492921366524981 0.020441318303230802 -0.019259282203831274 0.019222930667887817 0.048964720775387188 0.029264982784129256 0.057679561203514987 0.03009349279931154 -0.015340017567255669 -0.034643864976712499 0.0047812378606203699 -0.024949760497054517 0.018985515702813649 -0.027670537201518616 -0.010688917290540339 0.0086655340716199989 0.0070364216910113082 -0.043130991011292051 -0.071107884319861994 0.028710523526404654 -0.050948919432600562 0.01868340840668116 -0.013861751344732262 0.013908949364623936 0.0020641867658738066 -0.024237050705899797 0.0022347118109706261 0.039575174875590306 0.01516050292701465 -0.0045646986298780003 -0.002737972307606756 0.036757677625010865 0.043830484906832383 0.0048877722414379775 0.014036736059883976
leaf_weight=255 280 503 38 238 271 592 334 362 483 145 154 239 421 506 237 146 165 739 101 593 84 380 318 116 314 261 99 127 201 91 526 201 343 275 132 266 901 174 694 258 210 254 272 364 541 154 393 532 284 55 277 725 24 106 262 209 218 527 469 225 33 513
leaf_count=255 280 503 38 238 271 592 334 362 483 145 154 239 421 506 237 146 165 739 101 593 84 380 318 116 314 261 99 127 201 91 526 201 343 275 132 266 901 174 694 258 210 254 272 364 541 154 393 532 284 55 277 725 24 106 262 209 218 527 469 225 33 513
internal_value=-6.67123e-12 0.0163227 0.0238487 0.0286839 0.00539693 -0.0435168 0.0126606 0.0358933 0.00899075 0.0186344 -0.00490659 -0.0374706 -0.000283373 0.0428721 0.0205702 0.0232398 0.00566937 -0.0531085 0.00422259 -0.0344174 0.0299328 0.0261353 0.0346375 0.0219267 -0.0139844 0.0193106 0.00181441 0.00878405 0.0220106 -0.00240039 0.0242534 0.0364689 0.021261 0.0488399 0.0450116 -0.00625766 -0.0383136 0.0152764 -0.0282837 0.0104473 -0.0189123 -0.00267853 0.00901448 0.0125855 -0.0481157 -0.0594431 0.0263495 -0.0471449 0.012631 0.00440661 0.00388404 0.00533864 0.00610245 0.014155 0.0331648 0.00648135 0.00277943 -0.00517072 0.0404198 0.035764 0.0323967 0.0177141
internal_weight=19210 13970 8272 6241 5698 5240 3342 3634 2031 2607 2356 3214 1561 1674 1568 1763 1774 2026 1484 2443 1960 924 1072 547 795 1263 1266 620 687 719 888 988 1117 910 635 941 1494 508 949 765 524 675 844 644 1133 893 431 771 493 209 1101 1002 507 307 500 699 490 618 670 764 539 774
internal_count=19210 13970 8272 6241 5698 5240 3342 3634 2031 2607 2356 3214 1561 1674 1568 1763 1774 2026 1484 2443 1960 924 1072 547 795 1263 1266 620 687 719 888 988 1117 910 635 941 1494 508 949 765 524 675 844 644 1133 893 431 771 493 209 1101 1002 507 307 500 699 490 618 670 764 539 774
is_linear=0
shrinkage=0.05


Tree=7
num_leaves=63
num_cat=0
split_feature=2 5 0 0 3 0 3 9 9 8 3 7 3 3 0 9 3 0 0 0 5 9 5 10 0 5 4 10 4 5 7 3 5 3 3 9 3 5 0 3 3 5 0 3 7 7 5 10 0 5 0 3 4 5 3 4 3 0 0 9 3 3
split_gain=4925.88 414.769 207.167 161.842 140.675 109.702 72.1588 69.389 50.5734 38.514 34.2711 30.963 28.0051 27.1542 26.6964 25.493 23.3885 23.1554 22.6479 22.3443 21.7654 20.3848 19.7508 19.0586 17.0049 14.9602 14.6044 13.926 13.4613 13.45 11.7636 11.5724 11.3013 10.812 10.7605 10.5609 10.1746 10.0751 10.0621 10.0311 9.92445 9.7781 9.70347 11.5225 9.60321 9.28049 9.1048 8.96784 8.96503 8.94626 8.93249 9.36125 8.81687 8.80272 8.13569 8.13436 8.09309 8.06221 7.96842 7.8878 7.74483 7.47659
threshold=1.0000000180025095e-35 183.50000000000003 245800.00000000003 254214.50000000003 37.500000000000007 252871.50000000003 33.500000000000007 49.500000000000007 49.500000000000007 30.500000000000004 37.500000000000007 5.5000000000000009 36.500000000000007 28.500000000000004 424289.00000000006 52.500000000000007 26.500000000000004 461648.50000000006 111253.50000000001 59232.000000000007 163.50000000000003 50.500000000000007 202.50000000000003 7.5000000000000009 139322.00000000003 126.50000000000001 70.500000000000014 13.500000000000002 73.500000000000014 168.50000000000003 18.500000000000004 31.500000000000004 197.50000000000003 46.500000000000007 47.500000000000007 52.500000000000007 38.500000000000007 164.50000000000003 117465.50000000001 28.500000000000004 39.500000000000007 195.50000000000003 64059.000000000007 29.500000000000004 14.500000000000002 18.500000000000004 211.50000000000003 13.500000000000002 39138.000000000007 139.50000000000003 99819.500000000015 30.500000000000004 69.500000000000014 205.50000000000003 45.500000000000007 72.500000000000014 23.500000000000004 47721.500000000007 472753.00000000006 51.500000000000007 31.500000000000004 43.500000000000007
decision_type=2 2 2 2 2 2 2 2 2 2 2 2 2 2 2 2 2 2 2 2 2 2 2 2 2 2 2 2 2 2 2 2 2 2 2 2 2 2 2 2 2 2 2 2 2 2 2 2 2 2 2 2 2 2 2 2 2 2 2 2 2 2
left_child=5 3 4 7 8 10 11 13 18 35 19 58 20 29 16 30 -11 40 31 59 38 61 28 33 52 -21 -22 41 42 -2 -13 53 -20 -8 46 -5 -18 -16 -9 -27 49 -17 -10 -44 -24 -43 -23 -19 -12 -7 -46 -52 -15 55 -14 -3 -39 -31 -4 -1 -34 -6
right_child=1 2 6 9 21 17 23 12 22 14 48 15 54 24 37 27 36 47 32 25 26 34 44 -25 -26 39 -28 -29 -30 57 -32 -33 60 -35 -36 -37 -38 56 -40 -41 -42 45 43 -45 50 -47 -48 -49 -50 -51 51 -53 -54 -55 -56 -57 -58 -59 -60 -61 -62 -63
leaf_value=-0.019696283845484937 0.018073860051870849 0.047684986093463978 0.0064268558019600621 0.014972916956852517 0.028709773269624719 -0.049238394170212391 0.0089248465604630789 0.0083881540409100185 0.032690340449124049 0.0099748626490048838 -0.036743627145991629 0.042907862725498326 0.00098565527495858216 0.022733376517683285 -0.023252322908320845 0.010724294251403543 -0.0046272222507215263 -0.054259558492507381 0.026140975004814389 -0.045967439773718387 0.017499618289977974 0.0094293913321769271 0.017779294795594935 -0.0073914339529216628 0.0024334569471385565 -0.029281653210909604 0.0050498221355521622 0.00088023572235316453 0.0090774985092844981 0.04415226441806977 0.025012368616114517 0.036968097959495134 0.043798813997885662 -0.0094029628190859839 -0.00033802127946618498 -0.00015776596498956984 -0.019313279346556994 0.0038261434910117258 -0.0066166307423461941 -0.037752643704445671 -0.059589396235652459 0.041272262841656422 0.029361640919796629 0.016338810765814015 0.041057173705477484 0.019661207003677687 0.021382996300633395 -0.067618584382274236 -0.048401473153326081 -0.039906271367065344 0.037787411406558634 0.023851119041922005 0.0095360223764529156 0.056510554724938683 -0.011220828777990275 0.032098348106187329 -0.014220469640244059 0.028502996098783723 -0.015618828419246712 -0.030070238642720057 0.028545098927251308 0.013953460072167218
leaf_weight=330 263 398 114 222 274 478 642 213 350 243 239 110 513 379 293 305 474 724 333 301 752 499 86 362 239 673 343 144 134 109 556 354 253 92 182 240 157 73 235 727 117 56 320 362 378 440 234 152 532 555 240 242 190 214 186 106 417 336 64 412 124 125
leaf_count=330 263 398 114 222 274 478 642 213 350 243 239 110 513 379 293 305 474 724 333 301 752 499 86 362 239 673 343 144 134 109 556 354 253 92 182 240 157 73 235 727 117 56 320 362 378 440 234 152 532 555 240 242 190 214 186 106 417 336 64 412 124 125
internal_value=-8.15958e-12 0.0155066 0.0228483 0.00539655 0.0288023 -0.041341 0.0121 0.0116271 0.0335759 -0.00565315 -0.0355971 0.0182893 0.0060402 0.0198895 -0.00921253 0.0204758 -0.00320549 -0.050453 0.0397793 -0.0326965 0.00980141 0.014656 0.0283418 0.00199724 0.0136255 -0.0358547 0.0135998 0.0151956 0.0239866 0.0270382 0.0279681 0.0443666 0.032853 0.00662763 0.0105436 0.00711282 -0.00828128 -0.0159177 0.000517341 -0.0336805 -0.0457877 0.0177691 0.0259225 0.0224492 0.0337099 0.0221012 0.0132454 -0.0565776 -0.0447877 -0.0442245 0.035303 0.0307904 0.0183265 0.0480144 -0.00226242 0.0444068 -0.0115319 0.0323362 -0.00149968 -0.0254565 0.0387817 0.0240869
internal_weight=19210 13970 8093 5877 5208 5240 2885 3758 3894 2119 3214 1789 2242 1516 1657 1611 874 2026 1782 2443 1543 1314 2112 1096 808 1701 1095 945 1166 708 666 1072 710 734 915 462 631 783 448 1400 1150 801 1032 682 946 496 733 876 771 1033 860 482 569 718 699 504 490 445 178 742 377 399
internal_count=19210 13970 8093 5877 5208 5240 2885 3758 3894 2119 3214 1789 2242 1516 1657 1611 874 2026 1782 2443 1543 1314 2112 1096 808 1701 1095 945 1166 708 666 1072 710 734 915 462 631 783 448 1400 1150 801 1032 682 946 496 733 876 771 1033 860 482 569 718 699 504 490 445 178 742 377 399
is_linear=0
shrinkage=0.05


Tree=8
num_leaves=63
num_cat=0
split_feature=2 5 0 3 0 0 9 3 3 3 0 5 3 8 0 0 0 10 5 9 7 0 7 5 3 0 9 10 5 3 7 3 3 3 5 7 5 5 4 4 1 3 0 5 5 3 3 9 10 5 4 5 0 5 5 9 7 5 0 0 9 5
split_gain=4445.61 378.482 228.19 162.582 105.017 99.083 61.0629 48.2622 44.2029 32.1505 31.4466 29.5187 28.767 27.7479 24.3081 22.9126 22.649 21.6847 20.6163 19.0731 19.0625 17.5993 15.1478 14.9434 14.5757 14.129 13.9975 13.5125 13.2859 13.0887 12.8875 11.1616 10.9607 10.8441 10.6365 10.0256 9.88902 9.7097 9.67184 9.46451 9.44276 9.25832 9.22197 9.13549 9.0456 8.78093 8.71944 8.4851 8.45469 8.38556 8.01094 7.99352 7.84543 7.78548 7.58077 7.50994 7.36903 6.88644 6.84154 6.8101 6.76826 6.93735
threshold=1.0000000180025095e-35 176.50000000000003 300343.50000000006 35.500000000000007 230020.50000000003 262549.00000000006 49.500000000000007 27.500000000000004 32.500000000000007 38.500000000000007 53352.500000000007 187.50000000000003 45.500000000000007 30.500000000000004 68705.500000000015 59232.000000000007 415397.50000000006 7.5000000000000009 195.50000000000003 49.500000000000007 14.500000000000002 43760.000000000007 14.500000000000002 123.50000000000001 27.500000000000004 476587.00000000006 50.500000000000007 13.500000000000002 211.50000000000003 28.500000000000004 14.500000000000002 40.500000000000007 45.500000000000007 28.500000000000004 211.50000000000003 5.5000000000000009 195.50000000000003 201.50000000000003 71.500000000000014 70.500000000000014 7.5000000000000009 33.500000000000007 30545.000000000004 209.50000000000003 150.50000000000003 30.500000000000004 45.500000000000007 42.500000000000007 13.500000000000002 232.50000000000003 69.500000000000014 157.50000000000003 474351.00000000006 194.50000000000003 168.50000000000003 51.500000000000007 5.5000000000000009 154.50000000000003 39138.000000000007 134299.00000000003 52.500000000000007 172.50000000000003
decision_type=2 2 2 2 2 2 2 2 2 2 2 2 2 2 2 2 2 2 2 2 2 2 2 2 2 2 2 2 2 2 2 2 2 2 2 2 2 2 2 2 2 2 2 2 2 2 2 2 2 2 2 2 2 2 2 2 2 2 2 2 2 2
left_child=5 4 3 6 8 9 10 27 19 15 37 39 14 60 26 55 24 31 29 50 -7 -13 -23 -17 57 -22 -5 36 -19 47 -16 35 42 -25 38 -9 52 -3 -32 59 -24 -30 -10 -42 -21 -20 58 -12 -18 -37 54 -26 -4 -28 -2 -1 -38 -15 -11 -8 -6 -62
right_child=1 2 7 12 13 20 11 17 32 46 18 21 -14 16 30 23 48 28 45 44 25 22 40 33 51 -27 53 -29 41 -31 34 -33 -34 -35 -36 49 56 -39 -40 -41 43 -43 -44 -45 -46 -47 -48 -49 -50 -51 -52 -53 -54 -55 -56 -57 -58 -59 -60 -61 61 -63
leaf_value=-0.018786023205767981 0.0199420601278405 0.040149068589302526 0.020142677915613586 0.033943486036673097 0.011814205254003117 -0.057152350266977896 0.028142060098376429 -0.0053326129167270593 0.012728521218212944 -0.030573585089425453 0.027188468060319184 0.037139392839520273 0.0025546629797427393 -0.0095688888408975419 -0.0022824454128089612 -0.047038640778617198 -0.013526328733935953 -0.0098015952028008939 0.041817889196886976 -0.0055307940335899419 -0.041865075064210083 0.0091039970994325967 0.020916002419274674 -0.028630602596031663 -0.018725445519960086 -0.052183588571641341 0.011320188244614665 0.0036522389623166057 0.01635416658804752 0.018974806962451383 0.015564337451438147 -0.0034812051086919385 -0.0096916950983660568 -0.036772801664270112 0.022393118627469909 0.010243409944414521 -0.0023704920895397663 0.052386367132183254 0.0039170123044518614 0.010902038009197668 0.025912987621560381 -0.0038819987810431765 0.00091866691954460827 0.036309123044932563 0.011973854645512656 0.029754068464266044 -0.051428238612647031 0.040491591326845294 -0.028018573158243229 0.02926975154102995 0.012653950744018847 -0.0054081052326469328 0.0041723660974617091 0.024740229359614192 0.033049330058604741 -0.028690422515965049 0.029071683084657043 0.0081136845915091901 -0.043729368348916373 0.015218646207300188 -0.005820971728800267 0.014795185913573261
leaf_weight=343 269 448 211 234 206 464 209 93 225 144 367 415 463 70 137 212 500 460 500 83 939 129 423 774 151 513 194 153 100 335 448 200 175 867 278 531 20 254 296 384 538 130 623 348 666 216 236 178 126 65 172 444 121 244 187 433 273 258 315 199 167 54
leaf_count=343 269 448 211 234 206 464 209 93 225 144 367 415 463 70 137 212 500 460 500 83 939 129 423 774 151 513 194 153 100 335 448 200 175 867 278 531 20 254 296 384 538 130 623 348 666 216 236 178 126 65 172 444 121 244 187 433 273 258 315 199 167 54
internal_value=1.56123e-11 0.0147312 0.0202894 0.0246901 0.0025454 -0.0392739 0.0297955 0.00677749 0.00957369 -0.0340539 0.0357576 0.0246155 0.0136893 -0.00599098 0.0165048 -0.0315256 -0.00910183 0.00175531 0.0318785 0.0154224 -0.0483299 0.0280688 0.0254511 -0.0345463 -0.00412268 -0.0455107 0.0240707 0.0169703 -0.00489562 0.0267525 0.0121181 0.00691745 0.00170108 -0.0329324 0.0140485 0.00993592 0.0202306 0.0445768 0.0109305 0.0165361 0.0270621 0.00491633 0.00405218 0.0299963 0.0100341 0.0381785 -0.0436179 0.0315333 -0.0164433 0.0123184 0.0218489 -0.0087878 0.0143222 0.0187962 0.0253172 -0.0243126 0.0269255 0.00433996 -0.0396021 0.0218387 0.00529406 -0.00078354
internal_weight=19210 13970 9594 7237 4376 5240 4943 2357 2400 3324 2298 2645 2294 1976 1831 2629 1549 1579 1596 1377 1916 1853 1438 1853 923 1452 672 778 690 880 1159 889 1023 1641 1022 689 625 702 744 792 1309 230 848 886 749 716 695 545 626 596 628 595 332 438 456 776 293 328 459 408 427 221
internal_count=19210 13970 9594 7237 4376 5240 4943 2357 2400 3324 2298 2645 2294 1976 1831 2629 1549 1579 1596 1377 1916 1853 1438 1853 923 1452 672 778 690 880 1159 889 1023 1641 1022 689 625 702 744 792 1309 230 848 886 749 716 695 545 626 596 628 595 332 438 456 776 293 328 459 408 427 221
is_linear=0
shrinkage=0.05


Tree=9
num_leaves=63
num_cat=0
split_feature=2 5 0 3 0 0 0 5 3 3 0 3 3 8 9 0 3 9 4 8 7 0 3 9 5 4 5 3 0 5 5 5 5 7 7 7 5 5 4 5 0 7 5 7 3 7 0 7 8 5 9 5 4 4 4 5 0 3 3 9 3 3
split_gain=4012.16 341.832 181.92 136.113 122.331 90.0197 48.7733 47.7515 46.8021 39.0829 35.9711 33.6929 31.6995 21.5585 21.4053 21.377 20.8293 20.0661 19.8337 19.7641 18.5731 17.9821 15.6673 15.3735 15.245 14.1963 15.2771 13.5805 13.3125 12.5061 12.4271 12.3069 11.3789 11.319 11.1084 10.8279 10.1978 9.92527 12.1374 9.3138 9.26724 8.97882 8.92345 8.49868 8.36167 8.32357 8.06744 7.85056 7.79214 7.67913 7.61344 7.45844 7.44814 7.29548 7.22269 7.17174 7.12015 6.83406 6.82717 6.78859 6.57514 6.56542
threshold=1.0000000180025095e-35 181.50000000000003 300343.50000000006 33.500000000000007 137620.00000000003 131104.00000000003 111253.50000000001 165.50000000000003 30.500000000000004 26.500000000000004 456691.00000000006 41.500000000000007 29.500000000000004 30.500000000000004 50.500000000000007 40913.500000000007 31.500000000000004 50.500000000000007 69.500000000000014 30.500000000000004 11.500000000000002 469425.00000000006 32.500000000000007 50.500000000000007 227.50000000000003 68.500000000000014 144.50000000000003 26.500000000000004 289708.00000000006 226.50000000000003 161.50000000000003 195.50000000000003 204.50000000000003 11.500000000000002 13.500000000000002 6.5000000000000009 137.50000000000003 205.50000000000003 72.500000000000014 135.50000000000003 23715.000000000004 14.500000000000002 187.50000000000003 14.500000000000002 46.500000000000007 17.500000000000004 461648.50000000006 10.500000000000002 27.500000000000004 144.50000000000003 53.500000000000007 197.50000000000003 69.500000000000014 72.500000000000014 70.500000000000014 203.50000000000003 382854.50000000006 40.500000000000007 30.500000000000004 50.500000000000007 32.500000000000007 27.500000000000004
decision_type=2 2 2 2 2 2 2 2 2 2 2 2 2 2 2 2 2 2 2 2 2 2 2 2 2 2 2 2 2 2 2 2 2 2 2 2 2 2 2 2 2 2 2 2 2 2 2 2 2 2 2 2 2 2 2 2 2 2 2 2 2 2
left_child=5 4 3 6 8 14 17 20 30 31 16 15 18 -11 44 51 34 37 50 32 -6 43 25 52 27 26 -22 -21 54 33 -2 -4 -8 -17 -7 -25 -16 38 -3 -36 -13 -29 -23 -15 -1 -45 -20 -42 -32 -12 -9 -5 -10 55 -14 -35 -27 -18 -51 -49 -38 -34
right_child=1 2 9 11 7 10 19 12 23 13 49 40 28 21 36 29 57 -19 46 24 22 42 -24 35 -26 56 -28 41 -30 -31 48 -33 61 53 39 -37 60 -39 -40 -41 47 -43 -44 45 -46 -47 -48 59 -50 58 -52 -53 -54 -55 -56 -57 -58 -59 -60 -61 -62 -63
leaf_value=-0.021275935924435607 0.011509185389050434 0.04195903037420444 0.010799110260357759 0.02217407130210856 -0.022030501297545607 -0.045700239965708947 0.028107478309870971 0.02301265586977479 0.019553153626561931 0.016203816896707128 -0.05535156461565445 0.019098250957432433 0.0064753686117983104 -0.0094880844070895087 -0.038535659529422742 0.00019105255662921878 -0.04241209961840435 0.030984572315911552 0.0063286172562003881 0.027795906942442789 -0.0166131604570206 -0.019410338558103007 -0.014677040693992428 -0.011889017480842874 0.03676340811601158 -0.0046061734172478655 0.0078833417530126855 0.001930311855970211 -0.0093927189408098029 0.028153636822896323 0.03172336125972907 0.025673088184355392 0.051465460383256223 0.015598813631358814 -0.03904320043210615 0.0052198230262511065 -0.024744756521459726 0.049851647867228503 0.02498507776833845 -0.029966445700046487 -0.010069331761160111 0.018418631711732737 -0.0029083039978359771 0.02464533340412153 -0.045964090919329063 0.0062982139068815919 -0.0089069662051094057 0.015622154397140041 0.020993384675620903 -0.04045725459827388 0.010116925610574964 0.034335539429910654 0.0054031026894725597 0.0095909152485301671 -0.0061824037782505651 0.026825408727003664 -0.01958350993876086 -0.052034337179691983 -0.053438649954944011 0.0039925461557216079 -0.034027805297155662 0.033525719895374541
leaf_weight=725 234 521 260 243 223 222 421 256 277 266 480 148 351 73 508 126 648 775 376 399 77 97 377 106 157 227 367 93 444 191 259 299 102 470 464 725 381 275 132 723 74 736 527 71 36 478 113 172 488 235 207 262 140 297 166 204 122 258 178 464 382 102
leaf_count=725 234 521 260 243 223 222 421 256 277 266 480 148 351 73 508 126 648 775 376 399 77 97 377 106 157 227 367 93 444 191 259 299 102 470 464 725 381 275 132 723 74 736 527 71 36 478 113 172 488 235 207 262 140 297 166 204 122 258 178 464 382 102
internal_value=-1.99523e-11 0.0139947 0.0203304 0.0245192 0.00433946 -0.0373102 0.0306979 -0.00176411 0.0133921 0.00745847 -0.042526 0.0158653 0.00336368 0.00328206 -0.0290759 0.0197646 -0.0392376 0.0369236 0.00983037 0.0254231 -0.00880608 0.00052348 -0.00628552 0.00696858 0.0220925 -0.00229611 0.00363507 0.0202168 -0.00304245 0.0163461 0.021564 0.018755 0.0328038 0.0142902 -0.0354345 0.00303747 -0.0330468 0.0418835 0.0385278 -0.0335146 0.00771674 0.0165689 -0.00547352 0.00653977 -0.0224438 0.00867097 0.00280792 0.00534426 0.0247137 -0.0510507 0.0172472 0.0284836 0.0148025 0.0161198 0.00241117 0.0189968 -0.0098418 -0.0451522 -0.0460521 0.00713766 -0.0293924 0.0424956
internal_weight=19210 13970 8435 6364 5535 5240 3713 3306 2229 2071 3208 2651 1913 1512 2032 1793 2315 1703 952 2010 1393 1246 1170 1248 1385 793 444 1228 961 1288 981 559 625 1097 1409 831 1271 928 653 1187 858 829 624 622 761 549 489 710 747 893 463 505 417 971 517 674 349 906 413 636 763 204
internal_count=19210 13970 8435 6364 5535 5240 3713 3306 2229 2071 3208 2651 1913 1512 2032 1793 2315 1703 952 2010 1393 1246 1170 1248 1385 793 444 1228 961 1288 981 559 625 1097 1409 831 1271 928 653 1187 858 829 624 622 761 549 489 710 747 893 463 505 417 971 517 674 349 906 413 636 763 204
is_linear=0
shrinkage=0.05


Tree=10
num_leaves=63
num_cat=0
split_feature=2 5 0 0 3 0 3 3 8 9 0 5 0 9 7 3 0 7 9 5 0 7 3 5 3 7 3 0 9 9 10 3 10 0 0 3 10 0 0 7 5 5 5 9 5 3 3 5 3 0 7 9 3 1 10 1 3 5 7 5 8 8
split_gain=3620.98 312.29 149.388 136.38 103.418 82.3755 69.7084 45.2051 35.9623 35.3344 31.2739 30.3274 29.9513 28.7866 24.7647 20.7126 17.7053 17.4321 15.6139 15.5396 14.963 14.0209 13.3163 12.9483 12.8254 12.6001 12.4799 12.4601 12.0648 11.6862 11.5994 11.3349 10.9441 10.2148 10.0799 10.7105 9.9763 9.45776 9.22123 8.84014 8.83534 8.81006 8.59968 8.56583 7.99023 7.81378 7.76531 7.54887 7.52766 7.55713 7.2425 7.19518 7.10771 6.8403 6.81535 6.76165 7.23425 6.47291 6.44992 6.32705 6.10846 5.8621
threshold=1.0000000180025095e-35 187.50000000000003 245800.00000000003 255974.50000000003 37.500000000000007 289708.00000000006 30.500000000000004 34.500000000000007 30.500000000000004 49.500000000000007 424289.00000000006 168.50000000000003 33120.000000000007 52.500000000000007 5.5000000000000009 27.500000000000004 45559.000000000007 5.5000000000000009 52.500000000000007 127.50000000000001 76472.500000000015 14.500000000000002 46.500000000000007 134.50000000000003 27.500000000000004 14.500000000000002 39.500000000000007 68705.500000000015 49.500000000000007 55.500000000000007 13.500000000000002 38.500000000000007 7.5000000000000009 450103.50000000006 97120.500000000015 29.500000000000004 7.5000000000000009 99819.500000000015 140807.00000000003 14.500000000000002 157.50000000000003 152.50000000000003 225.50000000000003 52.500000000000007 167.50000000000003 46.500000000000007 33.500000000000007 205.50000000000003 44.500000000000007 125309.00000000001 11.500000000000002 50.500000000000007 45.500000000000007 7.5000000000000009 7.5000000000000009 12.500000000000002 28.500000000000004 172.50000000000003 18.500000000000004 213.50000000000003 27.500000000000004 29.500000000000004
decision_type=2 2 2 2 2 2 2 2 2 2 2 2 2 2 2 2 2 2 2 2 2 2 2 2 2 2 2 2 2 2 2 2 2 2 2 2 2 2 2 2 2 2 2 2 2 2 2 2 2 2 2 2 2 2 2 2 2 2 2 2 2 2
left_child=5 2 6 4 9 13 11 14 43 20 15 38 26 23 -5 44 -13 -14 58 -15 -3 -7 27 -1 47 54 -8 51 41 -18 53 37 55 45 -27 -36 -23 -21 -2 -34 -17 -19 -37 -4 -10 -9 -41 -22 49 -25 -29 -6 60 -20 -11 -12 -57 -45 -16 -60 -30 -49
right_child=1 3 8 7 22 21 12 33 10 25 32 16 17 19 18 40 29 28 30 31 24 36 -24 48 -26 34 -28 50 52 -31 -32 -33 39 -35 35 42 -38 -39 -40 46 -42 -43 -44 57 -46 -47 -48 61 -50 -51 -52 -53 -54 -55 -56 56 -58 -59 59 -61 -62 -63
leaf_value=-0.032989381455317317 0.014165185481724794 0.04213699810499856 0.013385081918304634 -0.0030188960405949238 0.033482637379824286 -0.052943522602926001 0.019451710681183228 0.0086264002943911081 -0.0005268801237971331 0.016700885481642266 -0.010725094996744369 0.03219865872952115 -0.012267966888171646 -0.043182695650547331 0.037441204850101606 -0.017786246728860533 0.023803951173555684 -0.013315948162760053 0.0094503616472974006 -0.024988007532230419 0.033926377928519914 -0.038335745772986977 0.0028021529538466809 -0.01710631178170843 0.026785981858464866 0.031816736521397479 0.0051244916412463383 -0.0047041232320701801 0.010924526738817804 0.01322097273215074 -0.00023571956870562544 -0.03998495641744871 -0.031444707207724847 -0.0055309314445171828 0.029650513450230523 0.016145597405622606 -0.047593752808388234 -0.033462661313495123 0.0021659694485684005 -0.011035123288974491 -0.0034034850186324787 0.01279164339848346 0.031705417185350582 -0.0061968079847752565 0.013789011791856537 -0.011524104205044834 -0.02569183291461365 0.062854827308784361 -0.040068781687454751 -0.026599431828637256 0.01328917560943859 0.018220319148421173 -0.0093530068193680392 0.019969410064422967 -0.013074368086050859 0.022652806611666975 -0.0053644496874767356 0.0082496409303054134 0.018857470783301064 0.032603955974704342 0.00064199476663941981 0.040785772850116093
leaf_weight=391 422 604 303 153 116 404 452 384 161 152 243 351 185 432 87 128 606 35 233 495 277 702 248 512 517 671 229 63 180 458 123 414 95 331 448 444 497 983 258 357 644 421 111 144 247 55 121 46 55 355 498 231 142 459 22 36 64 168 315 114 731 87
leaf_count=391 422 604 303 153 116 404 452 384 161 152 243 351 185 432 87 128 606 35 233 495 277 702 248 512 517 671 229 63 180 458 123 414 95 331 448 444 497 983 258 357 644 421 111 144 247 55 121 46 55 355 498 231 142 459 22 36 64 168 315 114 731 87
internal_value=1.59485e-11 0.0132949 0.00602617 0.0209834 0.0259795 -0.0354447 0.0116424 0.0109314 -0.00323411 0.0303959 -0.0063535 0.0182905 0.00577807 -0.0312828 0.0160319 -0.000972395 0.0224609 0.00221797 0.0182218 -0.0346263 0.0360133 -0.0448877 0.0130705 -0.0253647 0.0320233 0.025742 0.0146339 0.015875 0.00399391 0.0192485 0.0139128 -0.0326726 -0.0132855 0.00110126 0.0270731 0.0238997 -0.0421733 -0.0306244 0.00961254 -0.017514 -0.00578819 0.0107878 0.0192576 0.0073972 0.00813985 0.00610185 -0.0147453 0.0386275 -0.0221313 -0.0209933 0.0112685 0.0233224 0.00105184 0.0164276 0.0129362 -0.00622164 0.00472176 0.00158205 0.0250278 0.0225104 0.00267367 0.0484187
internal_weight=19210 13970 7181 6789 4535 5240 4470 2254 2711 3379 2096 2095 2375 3637 1484 1180 1415 1694 1331 2324 1531 1603 1156 1313 927 1848 681 908 1509 1064 815 1892 916 770 1674 1003 1199 1478 680 573 772 456 555 615 408 439 478 410 922 867 561 347 1053 692 174 343 100 312 516 429 911 133
internal_count=19210 13970 7181 6789 4535 5240 4470 2254 2711 3379 2096 2095 2375 3637 1484 1180 1415 1694 1331 2324 1531 1603 1156 1313 927 1848 681 908 1509 1064 815 1892 916 770 1674 1003 1199 1478 680 573 772 456 555 615 408 439 478 410 922 867 561 347 1053 692 174 343 100 312 516 429 911 133
is_linear=0
shrinkage=0.05


Tree=11
num_leaves=63
num_cat=0
split_feature=2 5 0 3 0 0 0 3 0 5 3 0 4 5 7 3 5 3 5 9 9 10 3 3 7 9 0 9 10 7 8 7 4 7 5 4 3 5 5 4 3 5 5 4 0 7 5 5 7 3 8 3 3 8 5 4 3 4 5 3 5 4
split_gain=3267.93 285.613 169.789 124.14 78.9432 75.0627 39.227 38.3166 34.7895 30.4763 29.0854 28.8096 25.2714 21.3021 21.0384 21.0105 20.3612 20.0666 18.2525 17.365 17.2856 16.0294 15.6892 15.1456 14.1254 13.2419 13.1221 12.7417 11.9548 11.3048 10.9204 10.8613 10.3049 9.76042 9.58037 10.5106 9.40711 9.30983 8.61822 8.37466 8.10549 8.03405 7.88119 9.39405 7.73212 7.72347 7.54988 7.5318 7.52337 7.31599 7.16437 7.08905 7.06783 6.9689 6.91356 7.10409 8.16391 6.89401 6.89275 6.46521 6.27094 6.26027
threshold=1.0000000180025095e-35 176.50000000000003 300343.50000000006 32.500000000000007 131104.00000000003 339314.00000000006 111253.50000000001 34.500000000000007 47721.500000000007 154.50000000000003 34.500000000000007 131104.00000000003 69.500000000000014 211.50000000000003 1.0000000180025095e-35 26.500000000000004 195.50000000000003 43.500000000000007 207.50000000000003 50.500000000000007 50.500000000000007 7.5000000000000009 31.500000000000004 26.500000000000004 14.500000000000002 52.500000000000007 415397.50000000006 50.500000000000007 7.5000000000000009 2.5000000000000004 30.500000000000004 14.500000000000002 71.500000000000014 18.500000000000004 201.50000000000003 72.500000000000014 37.500000000000007 118.50000000000001 137.50000000000003 70.500000000000014 23.500000000000004 139.50000000000003 202.50000000000003 72.500000000000014 505505.50000000006 13.500000000000002 196.50000000000003 167.50000000000003 11.500000000000002 26.500000000000004 30.500000000000004 44.500000000000007 27.500000000000004 24.500000000000004 144.50000000000003 68.500000000000014 29.500000000000004 69.500000000000014 247.50000000000003 48.500000000000007 226.50000000000003 73.500000000000014
decision_type=2 2 2 2 2 2 2 2 2 2 2 2 2 2 2 2 2 2 2 2 2 2 2 2 2 2 2 2 2 2 2 2 2 2 2 2 2 2 2 2 2 2 2 2 2 2 2 2 2 2 2 2 2 2 2 2 2 2 2 2 2 2
left_child=5 4 3 6 10 11 20 14 27 37 25 19 15 17 -4 -11 23 24 21 51 34 40 45 32 -10 57 36 46 -9 -18 -17 -7 -8 -20 35 -3 47 -6 -21 -26 -16 -33 43 -22 52 -13 -5 -14 -32 -35 -31 -1 -23 -29 -39 56 -56 -2 -15 -12 61 -52
right_child=1 2 7 8 9 31 16 28 13 12 59 22 26 58 18 30 29 -19 33 38 42 44 -24 -25 39 -27 -28 53 -30 50 48 41 -34 49 -36 -37 -38 54 -40 -41 -42 -43 -44 -45 -46 -47 -48 -49 -50 -51 60 -53 -54 -55 55 -57 -58 -59 -60 -61 -62 -63
leaf_value=-0.018854972389696269 0.024682223207270971 0.036281402516559778 -0.0065307592165218782 0.022558112848203651 0.010608715928558794 -0.052481946619585731 0.029616325107421834 0.00191416618395114 -0.003564672721737635 0.012960229313732551 0.0036739116675405118 -0.040181417497278188 -0.0084995626630742383 0.016036259732765127 0.028524330170730944 0.0097966373603209523 0.0087200933295701246 -0.0028496342297006485 0.041777787191793328 -0.034784553867377943 0.027165194607661442 0.012598765441665214 -0.040195116785701451 0.013212494044407953 0.017086148287005502 0.010156463495742563 -0.017129322153573136 0.026919578146378232 -0.010641966855484917 0.03595900583644146 -0.014922164458936703 -0.046811032156745362 0.014713706000943551 0.027230377657397189 0.044110698410546156 0.017936730113105624 -0.016038788355945143 -0.025440728189174217 -0.0263791719201475 0.0086390269672214672 0.011895725304928486 -0.03747464820770282 0.033849213823045628 0.01066954888764985 -0.0072904859006093408 -0.029278360524430953 0.036580503742892151 0.0042178809872684469 -0.0011844780181651795 0.012709290927823372 0.027387091653631138 -0.037650292697880006 -0.002113899925369507 0.014465471174493117 0.0031114189704717363 -0.023279862015480452 -0.015734038480844061 0.011501268849060038 0.029215297726459984 -0.012290682800974334 0.036370094375149535 0.014648843909214651
leaf_weight=707 382 550 166 207 35 312 348 463 155 416 532 194 184 513 89 197 70 348 50 508 388 192 774 650 539 560 245 148 321 296 120 421 174 140 335 91 120 140 763 644 415 509 291 111 151 998 179 317 588 228 351 54 142 466 103 101 130 134 123 72 127 133
leaf_count=707 382 550 166 207 35 312 348 463 155 416 532 194 184 513 89 197 70 348 50 508 388 192 774 650 539 560 245 148 321 296 120 421 174 140 335 91 120 140 763 644 415 509 291 111 151 998 179 317 588 228 351 54 142 466 103 101 130 134 123 72 127 133
internal_value=-1.18326e-11 0.0126302 0.0174586 0.0212545 0.00204444 -0.0336725 0.0272868 0.00580325 0.0141455 -0.00325688 0.0105518 -0.030337 -0.00069224 0.0107876 0.0103039 0.00365955 0.0227498 0.00784625 0.0122901 -0.0261621 0.0328078 0.00858778 -0.0346521 0.0183061 0.0106281 0.0154809 -0.00733047 0.0219424 -0.0032268 0.0280803 -0.000615685 -0.0444093 0.0246488 0.0210499 0.0372583 0.0336771 -0.00346458 -0.0142763 -0.0297387 0.0124877 0.0148321 -0.0417011 0.0273095 0.0234958 0.00209882 -0.0310529 0.0290607 -0.000452797 -0.0035129 0.0182336 0.0295745 -0.0201887 0.00634368 0.0174674 -0.0161137 -0.0122042 -0.00740321 0.0212593 0.018585 0.00177085 0.0264815 0.0238867
internal_weight=19210 13970 9594 7237 4376 5240 3915 2357 3322 2696 1680 3998 2187 2322 1573 1321 2149 1686 1407 2032 1766 989 1966 1172 1338 1076 866 1000 784 977 905 1242 522 418 976 641 621 509 1271 1183 504 930 790 499 485 1192 386 501 708 368 907 761 334 614 474 334 233 516 636 604 611 484
internal_count=19210 13970 9594 7237 4376 5240 3915 2357 3322 2696 1680 3998 2187 2322 1573 1321 2149 1686 1407 2032 1766 989 1966 1172 1338 1076 866 1000 784 977 905 1242 522 418 976 641 621 509 1271 1183 504 930 790 499 485 1192 386 501 708 368 907 761 334 614 474 334 233 516 636 604 611 484
is_linear=0
shrinkage=0.05


Tree=12
num_leaves=63
num_cat=0
split_feature=2 5 0 0 3 0 9 3 9 9 3 3 10 7 3 3 0 5 10 5 7 0 5 5 9 9 7 5 3 5 3 0 8 0 3 1 3 3 0 7 0 0 5 0 0 5 3 7 10 0 7 3 5 9 5 0 3 0 5 0 7 7
split_gain=2949.31 260.097 123.73 112.163 86.6438 68.3528 59.8602 36.7837 31.3635 29.4734 27.132 24.7094 21.737 20.2557 19.5302 17.997 15.4744 15.3134 14.2081 14.0829 13.7724 13.2608 12.5355 12.284 11.7464 11.6569 11.6136 11.5456 11.1617 10.9583 10.052 9.85015 9.81995 9.76542 9.62348 9.35216 9.18356 9.07949 9.00134 8.95079 8.55384 8.30203 7.92135 7.91522 7.5176 7.48055 7.38522 7.1656 7.0614 6.95326 6.78245 6.46851 6.63905 6.36909 6.23205 6.1812 5.89204 5.87505 5.79355 5.69999 5.60705 5.601
threshold=1.0000000180025095e-35 187.50000000000003 245800.00000000003 255974.50000000003 37.500000000000007 248578.00000000003 49.500000000000007 34.500000000000007 49.500000000000007 51.500000000000007 33.500000000000007 34.500000000000007 7.5000000000000009 5.5000000000000009 28.500000000000004 29.500000000000004 485952.50000000006 162.50000000000003 13.500000000000002 127.50000000000001 18.500000000000004 76472.500000000015 162.50000000000003 167.50000000000003 50.500000000000007 52.500000000000007 5.5000000000000009 154.50000000000003 27.500000000000004 132.50000000000003 26.500000000000004 47721.500000000007 27.500000000000004 43760.000000000007 44.500000000000007 7.5000000000000009 45.500000000000007 36.500000000000007 39138.000000000007 14.500000000000002 456691.00000000006 561701.50000000012 199.50000000000003 24679.500000000004 438986.50000000006 153.50000000000003 29.500000000000004 13.500000000000002 13.500000000000002 125309.00000000001 13.500000000000002 47.500000000000007 234.50000000000003 22.500000000000004 205.50000000000003 71431.000000000015 37.500000000000007 144100.50000000003 168.50000000000003 100769.00000000001 2.5000000000000004 30.500000000000004
decision_type=2 2 2 2 2 2 2 2 2 2 2 2 2 2 2 2 2 2 2 2 2 2 2 2 2 2 2 2 2 2 2 2 2 2 2 2 2 2 2 2 2 2 2 2 2 2 2 2 2 2 2 2 2 2 2 2 2 2 2 2 2 2
left_child=5 2 6 4 9 11 14 13 15 21 17 19 23 -5 31 35 29 -8 20 -1 42 -3 57 -10 55 53 -12 -14 54 -7 -22 -2 -19 -11 40 44 38 -25 -13 -35 -9 47 -15 -24 -4 -37 -41 -29 -18 -28 -31 52 59 -21 -23 -6 -49 -16 -33 -26 -30 -32
right_child=1 3 8 7 24 16 10 34 12 33 26 36 27 18 22 -17 48 32 -20 25 30 28 43 37 51 -27 49 41 60 50 61 58 -34 39 -36 45 -38 -39 -40 46 -42 -43 -44 -45 -46 -47 -48 56 -50 -51 -52 -53 -54 -55 -56 -57 -58 -59 -60 -61 -62 -63
leaf_value=-0.032984044801654115 0.032662790628342792 0.038315683745683254 0.0095699750257130633 -0.0027291214476671266 0.027530795249196008 -0.042769958692685052 0.00052887755493429727 0.0088543945404840375 -0.0091934654048211519 0.029348723350572953 -0.013710834198617751 -0.023462460674177288 -0.029391793591901662 0.019286613720469178 0.0066182987151297799 -0.0046804279231108985 -0.043002289435328592 0.020400325896784286 0.0042321406944251776 -0.027390285518284391 0.022849199953291904 0.030827142287032556 0.022631357771447362 0.0055347054122083066 0.013961250658634256 -0.025667497403908231 0.0048373418270686429 -0.021364688090694958 0.0061113410419784487 -0.04117649738579382 0.013602092490517081 0.012674188397861106 0.010025918834584356 0.007828120521416999 -0.010475374744463788 -0.0084028669198354094 -0.042524373366697031 -0.0076410271438322342 -0.03461728012732139 0.026843603285850306 -0.0029737531293839645 -0.027720367213460939 0.042246950045228007 0.012087553493288255 -0.0078352129959401873 0.017803500952609515 0.018952440696815304 -0.0039275434408190596 -0.056635900265697786 -0.0037137752916739397 -0.031173452293856825 -0.00073109754231189949 0.023268662215107018 -0.015006448027932762 0.043916183447034393 0.013802043337209306 -0.019088698859483777 -0.013110978186200812 0.023162625935722644 0.0039939911049574591 0.025574549662678876 -0.0075899138228234025
leaf_weight=372 203 617 156 153 142 436 320 354 407 481 137 263 100 65 131 344 524 316 201 127 378 283 258 471 270 1015 665 98 40 215 565 189 820 117 147 30 224 181 579 516 269 67 89 574 103 295 697 382 116 370 800 154 90 569 134 194 77 53 434 306 494 33
leaf_count=372 203 617 156 153 142 436 320 354 407 481 137 263 100 65 131 344 524 316 201 127 378 283 258 471 270 1015 665 98 40 215 565 189 820 117 147 30 224 181 579 516 269 67 89 574 103 295 697 382 116 370 800 154 90 569 134 194 77 53 434 306 494 33
internal_value=-8.75904e-12 0.0119987 0.00536508 0.0190153 0.0235462 -0.0319889 0.0104763 0.00989932 -0.00306252 0.0275885 0.00563217 -0.0273354 -0.00694238 0.0145003 0.0173875 0.00439199 -0.0389968 0.0101902 0.0164808 -0.024167 0.0186596 0.0326071 0.0127453 -0.00237764 0.0117303 -0.02225 -3.04171e-05 -0.0136192 0.0289034 -0.0361402 0.0164669 0.0230975 0.0129118 0.0232434 0.00103199 0.00973602 -0.0335267 0.00187703 -0.0311331 0.0210354 0.00374722 -0.0110916 0.0325559 0.0153571 0.00264822 0.0153845 0.0223093 -0.00909137 -0.0454734 0.00178042 -0.0332923 0.00850401 0.0106395 -0.0172661 0.0350332 0.0196041 -0.00647092 0.000935409 0.0199807 0.00866614 0.0241166 0.0124326
internal_weight=19210 13970 7181 6789 4535 5240 4470 2254 2711 3379 2628 3149 1783 1484 1842 928 2091 1456 1331 2083 1130 1568 1016 1059 1156 1711 1172 724 951 1451 976 826 1136 1811 770 584 1066 652 842 1330 623 624 154 832 259 325 1213 557 640 1035 1015 820 666 696 417 336 459 184 623 576 534 598
internal_count=19210 13970 7181 6789 4535 5240 4470 2254 2711 3379 2628 3149 1783 1484 1842 928 2091 1456 1331 2083 1130 1568 1016 1059 1156 1711 1172 724 951 1451 976 826 1136 1811 770 584 1066 652 842 1330 623 624 154 832 259 325 1213 557 640 1035 1015 820 666 696 417 336 459 184 623 576 534 598
is_linear=0
shrinkage=0.05


Tree=13
num_leaves=63
num_cat=0
split_feature=2 5 0 3 0 0 3 5 1 0 4 3 10 3 0 3 3 3 5 5 1 4 0 8 8 5 4 0 0 7 5 0 3 0 8 5 1 7 5 3 5 5 4 3 10 7 8 4 5 5 4 7 0 0 5 5 5 4 3 5 4 3
split_gain=2661.75 237.34 147.433 104.513 62.9352 53.8183 51.7862 39.5244 26.2699 23.9939 22.7696 22.4533 21.6072 18.4326 18.327 16.8233 15.7801 15.6298 14.7511 14.6582 14.3374 13.6348 11.9611 11.4085 11.1968 11.1324 10.8259 10.5667 10.4663 10.1683 10.1433 9.75323 9.4683 9.36193 8.955 8.92971 8.85048 8.41794 8.14501 8.03262 7.50539 7.85335 8.19571 8.96082 7.44657 7.37065 7.07529 6.94166 7.97584 6.73843 8.17188 6.66471 6.5692 6.2703 6.25876 5.98916 5.8892 6.92044 5.81313 5.78905 8.55032 5.68307
threshold=1.0000000180025095e-35 174.50000000000003 245800.00000000003 37.500000000000007 136063.50000000003 230020.50000000003 30.500000000000004 194.50000000000003 7.5000000000000009 456691.00000000006 72.500000000000014 30.500000000000004 7.5000000000000009 31.500000000000004 53352.500000000007 35.500000000000007 26.500000000000004 31.500000000000004 157.50000000000003 194.50000000000003 5.5000000000000009 69.500000000000014 97120.500000000015 30.500000000000004 30.500000000000004 211.50000000000003 71.500000000000014 468026.00000000006 382854.50000000006 5.5000000000000009 123.50000000000001 102381.00000000001 43.500000000000007 57367.500000000007 35.500000000000007 120.50000000000001 3.5000000000000004 5.5000000000000009 211.50000000000003 37.500000000000007 118.50000000000001 144.50000000000003 68.500000000000014 32.500000000000007 13.500000000000002 13.500000000000002 26.500000000000004 69.500000000000014 157.50000000000003 242.50000000000003 73.500000000000014 5.5000000000000009 14542.000000000002 404329.00000000006 124.50000000000001 206.50000000000003 234.50000000000003 73.500000000000014 45.500000000000007 149.50000000000003 68.500000000000014 40.500000000000007
decision_type=2 2 2 2 2 2 2 2 2 2 2 2 2 2 2 2 2 2 2 2 2 2 2 2 2 2 2 2 2 2 2 2 2 2 2 2 2 2 2 2 2 2 2 2 2 2 2 2 2 2 2 2 2 2 2 2 2 2 2 2 2 2
left_child=4 5 3 7 15 11 8 10 20 17 14 31 25 23 -3 30 -16 35 40 26 36 39 -15 -9 -10 32 46 -22 -26 -13 -1 -2 51 -21 56 -6 -4 -30 -14 -20 -7 -42 43 -43 54 -37 -5 48 -31 50 -24 -8 -32 -23 -11 -39 57 -25 -17 -33 -61 -19
right_child=1 2 6 19 9 18 12 13 24 44 -12 29 38 22 16 58 -18 61 21 33 27 53 49 34 28 -27 -28 -29 37 47 52 59 -34 -35 -36 45 -38 55 -40 -41 41 42 -44 -45 -46 -47 -48 -49 -50 -51 -52 -53 -54 -55 -56 -57 -58 -59 -60 60 -62 -63
leaf_value=-0.033315941534404245 0.017519121941723243 0.027081086263873996 0.0054002938021251281 0.017836353346698045 -0.040577898285765614 0.011728314008435299 -0.0074983090551912178 0.036510021218339947 0.026416783338708828 -0.050284841669312977 0.0055726629538266348 -0.012136324811569921 -0.0097975698140839451 0.02780352968341758 0.024770437491253756 -0.027533433134039234 0.013714476911099008 -0.034870251206566942 0.0038451984941452904 0.020436649912535545 0.0040117595060697583 -0.0049135952995157401 0.01927989011039893 0.023571671009351047 0.020407465399878533 0.013336868543539208 -0.0058998009584666717 -0.015508913255296648 -0.018512967713356306 -0.0028340112806869333 -0.011343700376928121 -0.0097038906979117004 -0.0095647746616666276 0.0095734942660661553 0.031354348660866026 -0.036556625347285668 0.020252089111307443 0.0068673767723176505 0.0021021547763529322 -0.010234930294156983 -0.026056653899923628 0.0012070805360630535 -0.021045485198715311 -0.017842356061439867 -0.051815150922478792 -0.025775208852357186 0.0044183668922977487 -0.0044655197378746471 0.0091642408351246731 0.033566829580296241 0.0046284256641657149 0.0064949161029689666 -0.020800013572924148 -0.01701472962547855 -0.037723110074379097 0.021389580985432435 0.038237281974010252 0.0070645571173832428 -0.03833027209362222 0.016492330679344983 0.0019589520155813408 -0.043915823501884006
leaf_weight=140 415 707 222 126 144 29 98 581 294 118 291 128 447 494 477 541 998 628 574 297 226 262 317 235 422 317 210 100 26 198 223 47 139 597 618 187 183 251 212 123 113 164 137 99 154 1041 446 234 461 54 136 646 1041 181 621 99 46 87 162 192 214 240
leaf_count=140 415 707 222 126 144 29 98 581 294 118 291 128 447 494 477 541 998 628 574 297 226 262 317 235 422 317 210 100 26 198 223 47 139 597 618 187 183 251 212 123 113 164 137 99 154 1041 446 234 461 54 136 646 1041 181 621 99 46 87 162 192 214 240
internal_value=-6.69494e-13 0.0113988 0.0152178 0.0196257 -0.0303894 0.000277393 0.00717667 0.0232219 0.0131647 -0.0348831 0.0187103 0.00606951 0.00130463 0.0275666 0.0204624 -0.0237075 0.0172899 -0.0321204 -0.00622754 0.00880911 0.00582868 -0.00299893 0.0222665 0.0309523 0.0180755 0.0052993 0.00380948 -0.00197618 0.0150024 0.00104329 -0.0205461 0.0119817 0.00241379 0.0131824 0.0276773 -0.0287983 0.0121111 0.00893602 -0.00596943 0.00136047 -0.0130183 -0.0144173 -0.0111292 -0.00596362 -0.0418132 -0.027417 0.00737408 0.00293242 0.0055593 0.0168714 0.0148812 0.00465172 -0.0191317 -0.00985785 -0.0397289 0.0109751 0.0215024 0.0191117 -0.0300215 0.00690874 0.00883188 -0.0373713
internal_weight=19210 13970 10399 6717 5240 3571 3682 5041 1823 3133 2473 1889 1859 2568 2182 2107 1475 2240 1682 1676 731 1140 1001 1567 1092 1200 782 326 798 1021 1404 868 883 894 986 1372 405 376 659 697 542 513 400 263 893 1228 572 893 659 507 453 744 1264 443 739 350 368 322 703 453 406 868
internal_count=19210 13970 10399 6717 5240 3571 3682 5041 1823 3133 2473 1889 1859 2568 2182 2107 1475 2240 1682 1676 731 1140 1001 1567 1092 1200 782 326 798 1021 1404 868 883 894 986 1372 405 376 659 697 542 513 400 263 893 1228 572 893 659 507 453 744 1264 443 739 350 368 322 703 453 406 868
is_linear=0
shrinkage=0.05


Tree=14
num_leaves=63
num_cat=0
split_feature=2 5 0 9 0 0 9 3 3 0 0 0 3 7 7 3 9 3 1 5 7 3 3 9 7 3 8 3 5 5 8 3 10 5 5 8 7 5 0 5 5 5 8 7 8 5 3 5 0 0 5 3 3 3 3 0 5 3 5 9 9 7
split_gain=2402.23 215.826 104.804 93.7798 59.458 56.8001 42.4689 42.4647 40.8182 31.2152 27.97 22.3452 21.7792 16.664 16.3133 14.9668 14.2903 14.1224 13.7733 12.8576 12.7381 12.7234 11.7284 11.5676 11.5281 11.2938 10.4888 9.8765 9.59557 9.199 8.87153 8.80548 8.69115 8.6514 8.45563 8.32647 8.00321 7.86222 7.6722 8.70667 7.45624 7.28531 7.22812 7.09277 7.04405 6.95209 6.71081 6.6868 6.67858 6.66746 6.55937 6.55215 6.19586 5.92728 5.86275 5.75644 5.72917 5.43624 5.45429 5.27086 5.1243 5.09586
threshold=1.0000000180025095e-35 187.50000000000003 137620.00000000003 49.500000000000007 326366.00000000006 131104.00000000003 49.500000000000007 38.500000000000007 30.500000000000004 136063.50000000003 424289.00000000006 349660.00000000006 26.500000000000004 5.5000000000000009 2.5000000000000004 33.500000000000007 50.500000000000007 33.500000000000007 7.5000000000000009 168.50000000000003 5.5000000000000009 29.500000000000004 30.500000000000004 49.500000000000007 6.5000000000000009 32.500000000000007 30.500000000000004 33.500000000000007 164.50000000000003 168.50000000000003 29.500000000000004 44.500000000000007 13.500000000000002 166.50000000000003 169.50000000000003 33.500000000000007 21.500000000000004 207.50000000000003 529499.50000000012 215.50000000000003 242.50000000000003 137.50000000000003 27.500000000000004 30.500000000000004 27.500000000000004 132.50000000000003 23.500000000000004 162.50000000000003 122792.00000000001 445419.00000000006 199.50000000000003 47.500000000000007 42.500000000000007 43.500000000000007 47.500000000000007 71431.000000000015 154.50000000000003 46.500000000000007 143.50000000000003 52.500000000000007 42.500000000000007 14.500000000000002
decision_type=2 2 2 2 2 2 2 2 2 2 2 2 2 2 2 2 2 2 2 2 2 2 2 2 2 2 2 2 2 2 2 2 2 2 2 2 2 2 2 2 2 2 2 2 2 2 2 2 2 2 2 2 2 2 2 2 2 2 2 2 2 2
left_child=5 2 8 9 7 16 12 18 19 17 15 21 29 -10 -11 24 57 -3 42 -2 -6 56 38 -15 -8 37 -14 45 -12 -4 -21 32 36 -26 -28 -32 50 -20 39 -16 43 -18 -5 -24 52 -13 -30 -17 -27 -36 -22 55 -25 -19 -23 -9 59 58 -1 -7 -31 -37
right_child=1 3 6 4 20 11 10 51 13 14 28 27 26 23 22 47 41 53 25 30 31 54 40 44 33 48 34 -29 46 60 35 -33 -34 -35 49 61 -38 -39 -40 -41 -42 -43 -44 -45 -46 -47 -48 -49 -50 -51 -52 -53 -54 -55 -56 -57 -58 -59 -60 -61 -62 -63
leaf_value=-0.020251826965900353 0.011366458842192595 0.034177106368034581 0.0055876675306838789 0.022475050004081544 -0.012173839369298597 -0.022703361182128727 -0.010189155771022106 0.015680532845809073 -0.0081569455524984607 -0.0010164146746539481 -0.020390483122360737 -0.042404352803625367 0.010005405831005433 0.014282200752793751 0.023583899701941205 -0.016061545653762867 -0.030212905566137257 0.025398645626474727 0.021840269147908827 0.028463572114845043 0.0014366575546803015 -0.032684711422379081 0.014922832616272403 0.016695807622906986 -0.0018381689417290344 0.022255838151421334 -0.0098642805928576983 -0.045707317637696643 0.0047450082662728538 0.014221554307097367 0.010102587347830705 -0.013786199055011234 -0.0055884117523541822 0.0077093244137358859 0.0056051009010652233 0.0042095622583997972 0.0057741004735350166 0.031042210011023391 0.0025683512031618094 0.038345988697876213 0.039164588187510771 -0.022484805479433344 0.01140180161460546 -0.012460625031730161 0.0026911759833213485 -0.032631446946972946 -0.01068412373901262 -0.0040748925377530514 0.01172094853588832 -0.010866305337577769 0.028833414168676009 -0.0017918663204118672 -0.0021948768125314797 0.0086938510408684135 -0.047678451963833406 0.0057589946286639125 -0.019106820398203547 -0.035874855352772607 -0.011577541441734694 -0.031305554404113464 0.026404365926892721 0.024880273075767532
leaf_weight=367 413 841 240 196 133 293 154 212 167 91 237 261 242 549 551 147 508 338 565 335 31 950 437 193 360 295 230 335 83 284 203 62 141 696 304 33 596 394 36 122 30 763 594 25 720 601 467 558 307 77 74 184 56 63 70 471 244 36 358 454 124 309
leaf_count=367 413 841 240 196 133 293 154 212 167 91 237 261 242 549 551 147 508 338 565 335 31 950 437 193 360 295 230 335 83 284 203 62 141 696 304 33 596 394 36 122 30 763 594 25 720 601 467 558 307 77 74 184 56 63 70 471 244 36 358 454 124 309
internal_value=-1.92941e-11 0.0108288 0.00478607 0.0172205 0.0126855 -0.02887 -0.000298439 0.0160407 0.0119621 0.0248354 -0.00404449 -0.033013 0.00644495 0.00683427 0.0193944 -0.000783299 -0.0223291 0.0304955 0.0195287 0.0186445 0.00227362 -0.0297936 0.020941 0.0084835 0.00259076 0.0222512 0.00119551 -0.0384219 -0.0119799 0.0133551 0.0220603 0.00439918 0.00573825 0.0044545 -0.00229385 0.0181243 0.00801651 0.0256208 0.025057 0.0262599 0.0150096 -0.0255736 0.0141491 0.013441 0.00519817 -0.0355905 -0.00835573 -0.00657424 0.0168834 0.00227623 0.0207448 0.00658253 0.0124473 0.0227742 -0.0337137 0.00883859 -0.0257587 -0.0169102 -0.0159685 -0.0279315 0.0179242 0.0228857
internal_weight=19210 13970 7181 6789 4255 5240 4203 3218 2978 2534 2702 3208 1501 1685 1292 1915 2032 1242 2351 1293 1037 2011 1201 1518 1210 1561 853 1197 787 648 880 904 842 1056 611 545 701 959 709 673 492 1271 790 462 969 862 550 705 602 381 105 867 249 401 1020 683 991 761 725 747 408 342
internal_count=19210 13970 7181 6789 4255 5240 4203 3218 2978 2534 2702 3208 1501 1685 1292 1915 2032 1242 2351 1293 1037 2011 1201 1518 1210 1561 853 1197 787 648 880 904 842 1056 611 545 701 959 709 673 492 1271 790 462 969 862 550 705 602 381 105 867 249 401 1020 683 991 761 725 747 408 342
is_linear=0
shrinkage=0.05


Tree=15
num_leaves=63
num_cat=0
split_feature=2 5 0 3 0 0 0 3 9 3 5 3 0 10 8 8 4 3 7 7 3 7 5 5 5 4 3 10 9 5 0 5 9 7 7 0 4 5 4 8 0 0 5 3 10 0 8 5 9 4 4 5 4 8 3 4 10 9 5 4 4 7
split_gain=2168.01 196.777 117.277 87.1864 53.8464 51.5421 32.1947 29.1958 25.5023 22.9214 19.7137 19.5873 18.8743 16.5778 16.4047 15.4741 15.1901 14.2068 13.5851 12.9754 12.4292 12.2751 11.9984 11.7146 11.3571 11.245 10.6733 10.5164 10.4027 10.3392 10.0584 9.58101 9.03585 8.56809 8.56633 8.55855 8.53451 7.68908 10.0764 7.46396 7.25222 7.18382 6.99706 6.89089 6.65138 6.56841 6.24467 6.22796 5.81055 5.79876 5.72128 5.53232 9.16139 5.52684 5.50122 5.47521 5.41654 5.18281 5.13733 6.24034 5.10792 5.06401
threshold=1.0000000180025095e-35 176.50000000000003 289708.00000000006 33.500000000000007 266551.00000000006 248578.00000000003 53352.500000000007 27.500000000000004 49.500000000000007 45.500000000000007 194.50000000000003 34.500000000000007 29240.500000000004 13.500000000000002 30.500000000000004 30.500000000000004 70.500000000000014 26.500000000000004 11.500000000000002 14.500000000000002 38.500000000000007 14.500000000000002 187.50000000000003 211.50000000000003 123.50000000000001 69.500000000000014 26.500000000000004 13.500000000000002 52.500000000000007 149.50000000000003 31727.000000000004 139.50000000000003 50.500000000000007 2.5000000000000004 21.500000000000004 404329.00000000006 73.500000000000014 155.50000000000003 70.500000000000014 45.500000000000007 39138.000000000007 501950.50000000006 203.50000000000003 37.500000000000007 7.5000000000000009 145689.50000000003 30.500000000000004 201.50000000000003 28.500000000000004 71.500000000000014 72.500000000000014 233.50000000000003 73.500000000000014 37.500000000000007 34.500000000000007 72.500000000000014 7.5000000000000009 52.500000000000007 157.50000000000003 68.500000000000014 69.500000000000014 13.500000000000002
decision_type=2 2 2 2 2 2 2 2 2 2 2 2 2 2 2 2 2 2 2 2 2 2 2 2 2 2 2 2 2 2 2 2 2 2 2 2 2 2 2 2 2 2 2 2 2 2 2 2 2 2 2 2 2 2 2 2 2 2 2 2 2 2
left_child=5 4 3 6 8 11 32 27 25 12 16 24 42 17 -9 -12 26 35 56 -7 30 -16 49 36 -1 29 -8 41 48 -2 -10 -21 47 -17 -24 -6 39 -32 -39 -20 -13 -4 -5 58 -36 54 -15 55 -26 -23 -18 52 -35 -54 -31 -3 -14 -37 -19 -60 -22 -48
right_child=1 2 7 9 13 19 10 14 20 -11 15 40 18 46 21 33 50 43 23 31 60 22 34 -25 28 -27 -28 -29 -30 45 37 -33 -34 51 44 57 -38 38 -40 -41 -42 -43 -44 -45 -46 -47 61 -49 -50 -51 -52 -53 53 -55 -56 -57 -58 -59 59 -61 -62 -63
leaf_value=-0.031147634098718388 -0.002757167091402106 0.031952613570234357 0.018107639974953151 0.016818121546451157 0.011308783130589676 -0.040556363472958136 0.02783889478130935 0.011967619678737359 0.013290871909571384 0.00070838430171020071 0.030434554829129247 -0.022711805560343572 0.0014694361398202363 -0.0011677820462028723 -0.012806825308931971 0.0040963337937947597 0.012807513847381087 -0.012258156638872909 0.01301356436316546 -0.035628561081912279 -0.0023259638947676748 -0.0033608358252145681 0.014510145056900861 0.018732745044348981 -0.022220134714795059 0.0034895342432291194 0.015493820980132489 0.0010705588946908807 -0.02236379247679211 0.022903528155157119 -0.0059910278308153569 -0.027828205156849081 0.024540194010200456 0.022640402247367478 0.0057909222919103765 0.0053727743916656126 -0.001202339352755921 0.0073162788895961761 -0.0052368357177123093 0.0021249755642202216 -0.031647308710888396 0.0054715726381311053 0.028533554157516378 -0.015181849791579658 -0.0036986867132591163 0.009681119605609502 -0.04327365225180984 0.04015176602536101 -0.012157699235732466 -0.018683067816230258 0.0026948617461229158 0.030419061542488635 0.0036780711161434527 0.019937738590954764 0.010651071867487634 0.014075081445732896 -0.022936196768513092 -0.0098032254241700242 0.005226804001654802 -0.0067862643002992691 -0.014582579555700265 -0.019878534555935856
leaf_weight=226 78 340 527 361 189 498 287 292 243 460 521 328 181 37 192 79 508 181 873 711 304 207 152 465 193 323 449 158 1105 359 234 882 513 654 407 101 164 650 212 192 738 143 197 231 338 242 28 225 559 88 193 140 121 92 123 49 26 127 172 291 118 133
leaf_count=226 78 340 527 361 189 498 287 292 243 460 521 328 181 37 192 79 508 181 873 711 304 207 152 465 193 323 449 158 1105 359 234 882 513 654 407 101 164 650 212 192 738 143 197 231 338 242 28 225 559 88 193 140 121 92 123 49 26 127 172 291 118 133
internal_value=-7.86033e-12 0.0102874 0.0142951 0.0175804 0.00150078 -0.0274265 0.0222188 0.00499298 0.00548602 0.0109525 0.0195459 -0.0233856 0.0128688 -0.00621828 0.00119816 0.0233509 0.0152908 -0.00415366 0.0104955 -0.0335119 0.00172931 -0.001074 0.000815846 0.0119731 -0.0205646 0.0113665 0.0203077 0.0126743 -0.0192766 0.0145389 0.00408749 -0.0313097 0.0294382 0.0199525 0.00369263 0.00344125 0.0094155 0.00204696 0.00422897 0.0110506 -0.0288979 0.0154107 0.0209542 -0.00777317 0.00148557 0.0164023 -0.0196905 0.0335305 -0.0147402 -0.00793154 0.0100233 0.0211964 0.0197072 0.010701 0.0197769 0.0297007 -0.00159601 -0.00308052 -0.00511571 -0.00232353 -0.00575317 -0.0239473
internal_weight=19210 13970 9594 7090 4376 5240 4171 2504 2886 2919 3044 3149 2459 1490 1676 1607 1437 1292 1901 2091 1761 1384 1192 1694 2083 1125 736 828 1857 802 1339 1593 1127 1086 897 417 1229 1096 862 1065 1066 670 558 875 745 724 198 614 752 295 701 1007 867 213 482 389 207 228 644 463 422 161
internal_count=19210 13970 9594 7090 4376 5240 4171 2504 2886 2919 3044 3149 2459 1490 1676 1607 1437 1292 1901 2091 1761 1384 1192 1694 2083 1125 736 828 1857 802 1339 1593 1127 1086 897 417 1229 1096 862 1065 1066 670 558 875 745 724 198 614 752 295 701 1007 867 213 482 389 207 228 644 463 422 161
is_linear=0
shrinkage=0.05


Tree=16
num_leaves=63
num_cat=0
split_feature=2 0 7 3 9 0 0 3 9 3 7 7 1 3 9 0 3 10 3 3 7 7 10 8 1 7 9 0 8 8 8 7 9 8 10 8 8 1 8 1 8 0 3 1 9 8 3 7 10 10 3 8 7 7 8 1 8 0 10 7 8 1
split_gain=1956.63 168.063 75.3579 69.3542 62.0388 47.6696 36.4063 25.6184 22.8668 20.7422 19.035 18.5091 16.6679 16.2448 14.3554 13.5487 13.5461 13.1546 10.3605 9.28277 9.11836 8.88717 8.84381 8.56717 8.85499 7.62683 7.60137 7.52126 7.83723 7.47 7.24488 7.02228 7.7291 6.5983 6.52724 6.50357 8.28138 6.10935 5.88022 5.6767 6.62976 5.4874 5.29008 5.09641 5.03894 4.98793 4.95076 4.87249 4.7434 4.71053 4.67431 4.48096 4.40462 4.39079 4.36947 5.01997 4.33532 4.41645 4.26022 4.21302 4.67567 4.07672
threshold=1.0000000180025095e-35 128430.00000000001 9.5000000000000018 33.500000000000007 49.500000000000007 136063.50000000003 464671.50000000006 41.500000000000007 49.500000000000007 45.500000000000007 13.500000000000002 30.500000000000004 7.5000000000000009 26.500000000000004 52.500000000000007 476587.00000000006 35.500000000000007 7.5000000000000009 29.500000000000004 31.500000000000004 14.500000000000002 30.500000000000004 13.500000000000002 30.500000000000004 7.5000000000000009 21.500000000000004 53.500000000000007 23715.000000000004 30.500000000000004 27.500000000000004 24.500000000000004 15.500000000000002 40.500000000000007 30.500000000000004 13.500000000000002 27.500000000000004 1.5000000000000002 5.5000000000000009 33.500000000000007 5.5000000000000009 27.500000000000004 415397.50000000006 41.500000000000007 3.5000000000000004 52.500000000000007 27.500000000000004 45.500000000000007 10.500000000000002 7.5000000000000009 7.5000000000000009 38.500000000000007 35.500000000000007 14.500000000000002 26.500000000000004 20.500000000000004 11.500000000000002 47.500000000000007 212772.00000000003 7.5000000000000009 17.500000000000004 34.500000000000007 2.5000000000000004
decision_type=2 2 2 2 2 2 2 2 2 2 2 2 2 2 2 2 2 2 2 2 2 2 2 2 2 2 2 2 2 2 2 2 2 2 2 2 2 2 2 2 2 2 2 2 2 2 2 2 2 2 2 2 2 2 2 2 2 2 2 2 2 2
left_child=5 3 17 8 11 16 7 12 27 14 49 13 39 31 -5 19 26 42 33 44 -10 34 30 54 37 -20 -1 -2 -29 -19 -16 -4 -33 -14 -8 36 -22 43 61 40 -6 -13 -3 -25 -12 -36 -18 -11 -17 -7 59 -30 -32 -41 -15 -56 57 -34 -52 -26 -61 -37
right_child=1 2 4 9 6 10 21 -9 20 47 15 41 18 23 22 48 46 29 25 -21 35 -23 -24 24 50 -27 -28 28 51 -31 52 32 56 -35 45 38 -38 -39 -40 53 -42 -43 -44 -45 -46 -47 -48 -49 -50 -51 58 -53 -54 -55 55 -57 -58 -59 -60 60 -62 -63
leaf_value=-0.013394821568401646 0.029961160358333672 -0.0018606579694814521 0.031084151911216048 0.017824980391802282 0.015195225507260249 -0.034929359714015423 -0.0010426558988656613 -0.0045712761673309512 0.0051775544875570199 -0.014794521798746877 -0.019256162751582262 0.003484434606412388 0.021907953956837044 0.011482124311645889 0.016848490012666622 -0.029627929185830362 -0.023609393964415717 0.0014617549830718954 0.017019856911014528 -0.030642390126809988 0.014324296182938713 -0.019710786473215298 -0.019386281512884629 -0.00060846955594049497 0.02574736174964716 0.005614776712421542 -0.020779891647351112 0.02787659994941576 0.012846180568790522 -0.019415491712805225 -0.00058011210648159321 0.013766239887905141 0.033227762385554936 0.0119119316000574 0.010422664527626087 -0.0019938230533532953 0.028455162797685243 -0.0084679654271652312 0.019334648676685186 0.0025157996662979933 0.0032188991134644001 -0.016135912534913848 -0.014444713351407033 0.01512007188183539 -0.025849441391432422 -0.013805007767058104 -0.033573250861171591 0.0016428534056720735 -0.039305212436587182 -0.044458206673551881 0.0072170052292259562 0.022066257438047188 0.0089290993210549164 -0.0075794003660101146 0.015956062870733048 0.031415884768613046 0.045822427873499695 0.019115028835846284 -0.016088511867691641 0.0077101151253307814 0.017453807288131833 0.013307448971556883
leaf_weight=642 577 565 109 699 144 501 758 501 149 52 458 98 225 207 267 223 541 51 172 694 165 89 27 117 63 992 762 452 191 268 142 529 69 620 24 49 279 105 558 266 585 56 98 92 789 185 162 339 293 175 133 425 855 181 146 82 20 282 23 278 221 390
leaf_count=642 577 565 109 699 144 501 758 501 149 52 458 98 225 207 267 223 541 51 172 694 165 89 27 117 63 992 762 452 191 268 142 529 69 620 24 49 279 105 558 266 585 56 98 92 789 185 162 339 293 175 133 425 855 181 146 82 20 282 23 278 221 390
internal_value=-4.77632e-12 0.00977301 0.00527652 0.0164617 0.00700972 -0.0260551 0.00359382 0.00593876 0.0212286 0.00998505 -0.029966 0.0131687 0.00759198 0.0142148 0.0120537 -0.0279218 -0.0202398 -0.00773488 0.0103594 -0.0260074 0.0169528 -0.00459126 0.00892883 0.010856 0.00837532 0.00730006 -0.017403 0.0253615 0.0228764 -0.0160778 0.00953366 0.0190982 0.0176466 0.0145736 -0.00319971 0.0181703 0.0232038 0.00137172 0.0159287 0.00286437 0.00558459 -0.00365024 -0.00372074 0.0063151 -0.0234279 -0.0110229 -0.0259055 -0.000543191 -0.035123 -0.0373961 0.0114382 0.0192074 0.00757473 -0.00157197 0.0167414 0.0215162 0.0231795 0.0218893 0.00378094 0.0135637 0.0120255 0.0115996
internal_weight=19210 13970 8354 5616 7372 5240 4742 3686 3235 2381 3133 2630 3185 2476 1990 2457 2107 982 2009 1941 1590 1056 1291 1467 1032 1164 1404 1645 1068 319 1264 1009 900 845 967 1441 444 314 997 1176 729 154 663 209 1247 209 703 391 516 676 718 616 997 447 435 228 371 351 156 562 499 439
internal_count=19210 13970 8354 5616 7372 5240 4742 3686 3235 2381 3133 2630 3185 2476 1990 2457 2107 982 2009 1941 1590 1056 1291 1467 1032 1164 1404 1645 1068 319 1264 1009 900 845 967 1441 444 314 997 1176 729 154 663 209 1247 209 703 391 516 676 718 616 997 447 435 228 371 351 156 562 499 439
is_linear=0
shrinkage=0.05


Tree=17
num_leaves=63
num_cat=0
split_feature=5 8 5 0 5 3 5 9 8 0 0 7 5 5 7 7 3 7 5 3 4 5 4 0 3 0 3 8 8 3 5 4 4 3 0 0 4 3 0 8 3 9 0 10 5 5 5 8 3 3 5 10 5 0 1 7 10 5 7 8 3 3
split_gain=1409.83 146.465 120.847 112.432 91.2898 36.7175 34.6576 34.2632 32.1084 28.591 25.5931 23.0985 23.4209 21.0342 19.084 18.3649 16.6207 15.4678 15.192 14.4679 13.5626 14.9158 12.2634 12.0689 11.2108 9.82442 9.79289 9.53074 9.3891 9.23775 9.142 8.33411 8.29908 8.17467 7.92176 7.88704 7.77606 7.27283 6.99147 6.93782 6.90425 6.73072 6.50715 6.35479 6.68762 6.21826 5.97928 5.93327 5.93043 5.85124 5.82967 5.72955 5.65217 5.41295 5.2956 5.23748 5.11939 4.97814 4.95625 4.85581 4.74725 4.73238
threshold=163.50000000000003 30.500000000000004 144.50000000000003 388913.50000000006 189.50000000000003 38.500000000000007 192.50000000000003 52.500000000000007 30.500000000000004 339314.00000000006 96149.500000000015 2.5000000000000004 189.50000000000003 90.500000000000014 6.5000000000000009 9.5000000000000018 33.500000000000007 11.500000000000002 154.50000000000003 26.500000000000004 67.500000000000014 233.50000000000003 71.500000000000014 122792.00000000001 28.500000000000004 25825.500000000004 27.500000000000004 34.500000000000007 40.500000000000007 29.500000000000004 178.50000000000003 68.500000000000014 73.500000000000014 25.500000000000004 238642.00000000003 37621.000000000007 66.500000000000014 29.500000000000004 103931.00000000001 45.500000000000007 46.500000000000007 92.500000000000014 31727.000000000004 13.500000000000002 269.00000000000006 127.50000000000001 169.50000000000003 22.500000000000004 22.500000000000004 28.500000000000004 77.500000000000014 13.500000000000002 212.50000000000003 461648.50000000006 7.5000000000000009 13.500000000000002 7.5000000000000009 207.50000000000003 14.500000000000002 52.500000000000007 35.500000000000007 34.500000000000007
decision_type=2 2 2 2 2 2 2 2 2 2 2 2 2 2 2 2 2 2 2 2 2 2 2 2 2 2 2 2 2 2 2 2 2 2 2 2 2 2 2 2 2 2 2 2 2 2 2 2 2 2 2 2 2 2 2 2 2 2 2 2 2 2
left_child=2 6 9 4 7 10 17 19 -4 13 28 36 37 50 -9 56 34 -2 38 -3 -12 24 30 -21 54 -15 -27 48 -6 59 31 -19 57 -14 -8 -18 -5 -13 -17 -29 52 -30 -31 44 -35 -28 -25 -33 -20 -32 -1 58 -7 61 -22 -54 -10 -26 -11 -16 -40 -24
right_child=1 3 8 11 5 40 16 14 15 51 20 12 33 25 29 18 35 22 27 23 21 -23 53 46 32 26 45 39 41 42 49 47 -34 43 -36 -37 -38 -39 60 -41 -42 -43 -44 -45 -46 -47 -48 -49 -50 -51 -52 -53 55 -55 -56 -57 -58 -59 -60 -61 -62 -63
