tree
version=v4
num_class=1
num_tree_per_iteration=1
label_index=0
max_feature_idx=2
objective=regression
feature_names=Column_0 Column_1 Column_2
feature_infos=[18:56] [58:474] [0:1]
tree_sizes=2844 2841 2839 2842 2848 2866 2890 2895 2887 2887 2871 2863 2893 2905 2926 2915 2928 2882 2952 2932 2929 2902 2910 2930 2982 2986 2967 2933 2944 2925 2960 3051 2908 3042 3000 3035 2975 2951 2955 3028 2937 3043 2970 3061 2974 3045 3032

Tree=0
num_leaves=31
num_cat=0
split_feature=2 1 0 1 1 1 0 0 0 1 0 0 1 1 1 0 0 0 1 1 1 1 0 1 0 1 1 1 0 1
split_gain=9788.64 864.007 380.26 142.873 122.52 84.117 80.1907 51.0321 49.3119 45.7979 39.558 33.3459 27.8627 23.9063 23.6793 21.8697 14.6468 14.5228 12.8521 12.5153 11.4286 11.0366 11.7222 10.2554 10.2245 9.70902 9.32374 8.57603 7.93188 7.89134
threshold=1.0000000180025095e-35 176.50000000000003 35.500000000000007 163.50000000000003 194.50000000000003 126.50000000000001 34.500000000000007 44.500000000000007 35.500000000000007 197.50000000000003 28.500000000000004 29.500000000000004 152.50000000000003 101.50000000000001 141.50000000000003 32.500000000000007 45.500000000000007 26.500000000000004 231.50000000000003 209.50000000000003 174.50000000000003 144.50000000000003 30.500000000000004 186.50000000000003 38.500000000000007 213.50000000000003 85.500000000000014 184.50000000000003 32.500000000000007 187.50000000000003
decision_type=2 2 2 2 2 2 2 2 2 2 2 2 2 2 2 2 2 2 2 2 2 2 2 2 2 2 2 2 2 2
left_child=5 3 4 12 10 -1 17 9 14 27 29 19 13 26 -7 -14 -10 -5 -11 -6 -19 -15 -23 -12 -8 28 -2 -4 -13 -3
right_child=1 2 7 6 11 8 24 -9 16 18 23 25 15 21 -16 -17 -18 20 -20 -21 -22 22 -24 -25 -26 -27 -28 -29 -30 -31
leaf_value=-0.14483936253128019 0.0010172750782415127 0.064794013132743633 0.010571869292342559 0.043275176834309315 0.088340309177545553 -0.11569478924918773 0.0092410368934012395 0.0074021528325627136 -0.12360490190873835 0.046133633274525104 0.039699773395182332 0.077451389650141339 0.0050995616735725708 -0.057292172211996006 -0.097982294650501747 -0.024357893367730421 -0.15128487378790256 0.018704458244966575 0.071368685853183206 0.10492876620601321 0.040570104518173049 -0.011907923937751251 -0.046858203702064956 0.056857709338516922 -0.013994886629780448 0.084629632029571217 0.086094680987906055 0.029391785563416553 0.059561892825135243 0.080168663353528735
leaf_weight=930 40 1043 356 742 1109 1273 303 715 870 940 859 561 670 202 1854 404 245 794 257 771 342 203 182 586 505 742 19 757 444 491
leaf_count=930 40 1043 356 742 1109 1273 303 715 870 940 859 561 670 202 1854 404 245 794 257 771 342 203 182 586 505 742 19 757 444 491
internal_value=1.99094e-09 0.0433312 0.0601118 0.00665075 0.073558 -0.117603 0.0210607 0.0307481 -0.111631 0.0379743 0.0585309 0.0859003 -0.0158523 -0.0322632 -0.105193 -0.00598127 -0.129687 0.0323943 0.0515517 0.0951433 0.0252872 -0.038362 -0.0284299 0.0466579 -0.00528142 0.0759536 0.0284151 0.0233721 0.069548 0.0697151
internal_weight=19209 14037 9631 4406 6606 5172 2686 3025 4242 2310 2979 3627 1720 646 3127 1074 1115 1878 1197 1880 1136 587 385 1445 808 1747 59 1113 1005 1534
internal_count=19209 14037 9631 4406 6606 5172 2686 3025 4242 2310 2979 3627 1720 646 3127 1074 1115 1878 1197 1880 1136 587 385 1445 808 1747 59 1113 1005 1534
is_linear=0
shrinkage=1


Tree=1
num_leaves=31
num_cat=0
split_feature=2 1 0 1 1 0 1 0 0 1 0 1 0 0 1 1 0 1 0 1 0 0 1 1 1 1 0 1 1 1
split_gain=7928.8 699.921 307.375 130.871 79.3995 70.3987 69.9536 63.8965 38.3015 33.3648 24.2618 22.9321 22.8574 19.5816 17.9692 17.3773 16.0565 12.0359 11.4349 11.0121 11.6471 10.2296 9.47739 9.33711 8.44856 7.98454 7.80628 7.55223 7.05584 6.3334
threshold=1.0000000180025095e-35 178.50000000000003 33.500000000000007 163.50000000000003 196.50000000000003 38.500000000000007 132.50000000000003 39.500000000000007 35.500000000000007 192.50000000000003 29.500000000000004 154.50000000000003 28.500000000000004 46.500000000000007 101.50000000000001 210.50000000000003 32.500000000000007 122.50000000000001 45.500000000000007 144.50000000000003 32.500000000000007 26.500000000000004 174.50000000000003 141.50000000000003 254.50000000000003 187.50000000000003 41.500000000000007 85.500000000000014 209.50000000000003 183.50000000000003
decision_type=2 2 2 2 2 2 2 2 2 2 2 2 2 2 2 2 2 2 2 2 2 2 2 2 2 2 2 2 2 2
left_child=6 3 4 11 12 10 17 9 23 -4 22 14 25 15 27 -9 -13 -1 -10 -16 -21 -6 -5 -8 -11 -3 -19 -2 -23 -14
right_child=1 2 7 5 21 -7 8 13 18 24 -12 16 29 -15 19 -17 -18 26 -20 20 -22 28 -24 -25 -26 -27 -28 -29 -30 -31
leaf_value=-0.13502679106921817 0.00091554511338472373 0.05966748582392966 0.027104946138872994 0.030037520975382544 0.092009918266580309 -0.011523672779026529 -0.10101011995713438 0.017653471649351379 -0.10964709224109664 0.05179633523594207 0.016481563393520797 0.0059233602072663646 0.035566495441492985 0.0010585453589076995 -0.051562956017949205 0.044261166729344346 -0.02060552613545788 -0.11331958864430081 -0.13610453694060659 -0.012132038539604935 -0.044207537280846254 0.071622648449641224 0.047243787437028562 -0.088184067507690381 0.084183292541393021 0.073477923234468071 -0.14011284418106079 0.077485208919173806 0.083992179505888248 0.052193975794520779
leaf_weight=582 40 916 711 857 786 566 818 876 748 1270 1093 603 308 469 202 341 367 836 209 311 178 841 511 1854 86 771 125 19 1021 894
leaf_count=582 40 916 711 857 786 566 818 876 748 1270 1093 603 308 469 202 341 367 836 209 311 178 841 511 1854 86 771 125 19 1021 894
internal_value=1.06167e-10 0.0389981 0.0549602 0.00775992 0.0699356 0.0202761 -0.105842 0.0328662 -0.0982589 0.0446506 0.0275896 -0.014267 0.058471 0.0184187 -0.0273985 0.0251089 -0.00411386 -0.123678 -0.115425 -0.0319215 -0.0238078 0.0824435 0.0364647 -0.0921106 0.0538504 0.0659792 -0.116805 0.0255736 0.0784053 0.0479334
internal_weight=19209 14037 9290 4747 5537 3027 5172 3753 3629 2067 2461 1720 2889 1686 750 1217 970 1543 957 691 489 2648 1368 2672 1356 1687 961 59 1862 1202
internal_count=19209 14037 9290 4747 5537 3027 5172 3753 3629 2067 2461 1720 2889 1686 750 1217 970 1543 957 691 489 2648 1368 2672 1356 1687 961 59 1862 1202
is_linear=0
shrinkage=0.1


Tree=2
num_leaves=31
num_cat=0
split_feature=2 1 0 1 1 0 1 0 0 1 0 1 0 1 1 1 0 0 1 0 1 0 1 0 1 1 0 1 1 1
split_gain=6422.33 568.848 252.095 94.9594 80.1569 59.5373 56.6624 44.817 31.0242 28.3596 22.1216 18.3077 16.1873 14.7248 11.9947 13.4213 14.3307 10.04 9.74909 9.26226 8.96783 8.32449 7.66028 7.61258 7.56306 7.05647 6.32309 6.1173 5.97718 5.69653
threshold=1.0000000180025095e-35 176.50000000000003 34.500000000000007 157.50000000000003 194.50000000000003 34.500000000000007 132.50000000000003 41.500000000000007 35.500000000000007 187.50000000000003 28.500000000000004 168.50000000000003 29.500000000000004 230.50000000000003 101.50000000000001 144.50000000000003 32.500000000000007 46.500000000000007 122.50000000000001 45.500000000000007 209.50000000000003 26.500000000000004 197.50000000000003 38.500000000000007 141.50000000000003 269.00000000000006 41.500000000000007 85.500000000000014 186.50000000000003 174.50000000000003
decision_type=2 2 2 2 2 2 2 2 2 2 2 2 2 2 2 2 2 2 2 2 2 2 2 2 2 2 2 2 2 2
left_child=6 3 4 14 10 11 18 9 24 -4 -3 -5 20 -11 27 -16 -17 22 -1 -10 -6 -13 -9 -7 -8 -14 -20 -2 -12 -23
right_child=1 2 7 5 12 23 8 17 19 13 28 21 25 -15 15 16 -18 -19 26 -21 -22 29 -24 -25 -26 -27 -28 -29 -30 -31
leaf_value=-0.12152411746840502 0.00082399157807230947 0.056437657231647426 0.016360674710083151 0.012548611205976249 0.071604677709785264 0.0043098830601906984 -0.090909103650205783 0.0093147690481094596 -0.098682380290228855 0.038452598452087539 0.033044651925692524 0.040240202845609564 0.062152842014295599 0.065424096129072309 -0.046406661359464182 -0.0071650759171578565 -0.034889847154638436 0.00063460013023703494 -0.10198762922751903 -0.12249408921841801 0.085646701639082681 0.0162565956419389 0.02919119578102139 -0.0137097889682862 -0.079365659218096657 0.10112762413142871 -0.12610156390666963 0.069736688152739881 0.046972715006270947 0.03347074204200759
leaf_weight=582 40 1534 564 1063 1109 377 818 397 748 1387 767 508 1442 237 202 498 298 481 836 209 771 439 379 620 1854 48 125 19 515 342
leaf_count=582 40 1534 564 1063 1109 377 818 397 748 1387 767 508 1442 237 202 498 298 481 836 209 771 439 379 620 1854 48 125 19 515 342
internal_value=1.75688e-10 0.0350983 0.0487142 0.00533546 0.0607878 0.013583 -0.0952581 0.0270344 -0.088433 0.0356795 0.0483351 0.022264 0.0711934 0.0423887 -0.0207962 -0.0233863 -0.0175445 0.0119862 -0.11131 -0.103883 0.0773634 0.0302759 0.0190225 -0.00689593 -0.0828995 0.0634084 -0.105124 0.0230162 0.0386398 0.0237947
internal_weight=19209 14037 9631 4406 6186 3349 5172 3445 3629 2188 2816 2352 3370 1624 1057 998 796 1257 1543 957 1880 1289 776 997 2672 1490 961 59 1282 781
internal_count=19209 14037 9631 4406 6186 3349 5172 3445 3629 2188 2816 2352 3370 1624 1057 998 796 1257 1543 957 1880 1289 776 997 2672 1490 961 59 1282 781
is_linear=0
shrinkage=0.1


Tree=3
num_leaves=31
num_cat=0
split_feature=2 1 0 1 0 1 1 0 0 0 0 1 1 1 1 1 0 0 0 1 0 0 1 0 1 1 0 1 0 1
split_gain=5202.08 464.454 186.751 109.128 68.6993 46.3648 44.5373 27.1453 23.6135 23.1817 17.2974 15.701 15.2144 14.6548 12.96 12.4263 12.009 8.79489 8.32284 7.09635 6.93985 6.836 6.64032 5.76223 5.51022 5.17703 5.08468 4.95502 4.91052 4.66057
threshold=1.0000000180025095e-35 181.50000000000003 36.500000000000007 163.50000000000003 34.500000000000007 126.50000000000001 202.50000000000003 40.500000000000007 46.500000000000007 28.500000000000004 31.500000000000004 174.50000000000003 152.50000000000003 197.50000000000003 101.50000000000001 141.50000000000003 32.500000000000007 27.500000000000004 29.500000000000004 186.50000000000003 38.500000000000007 32.500000000000007 139.50000000000003 32.500000000000007 234.50000000000003 187.50000000000003 34.500000000000007 85.500000000000014 32.500000000000007 263.50000000000006
decision_type=2 2 2 2 2 2 2 2 2 2 2 2 2 2 2 2 2 2 2 2 2 2 2 2 2 2 2 2 2 2
left_child=5 3 6 12 11 26 9 15 13 25 -8 17 14 -4 27 -7 -14 -5 -13 -11 -6 -17 -16 -21 -15 -3 -1 -2 -24 -12
right_child=1 2 8 4 20 7 10 -9 -10 19 29 18 16 24 22 21 -18 -19 -20 23 -22 -23 28 -25 -26 -27 -28 -29 -30 -31
leaf_value=-0.10100109399763456 0.00074159068055450921 0.049236709351259234 0.016945403668079801 0.028155489761363246 0.0080614509920626052 -0.08526512077148922 0.072130285710668568 -0.10185342577476336 0.0013789186143883688 0.030900300374074888 0.053384953973611982 0.04078430902762701 0.0036703152476710884 0.03113137841498162 -0.05011714842860289 -0.069795611474371647 -0.01815837092143207 0.011811892998364014 0.02416629935736242 0.050130173163099451 -0.0077283384258422863 -0.081983933775145429 -0.015563840044212116 0.036714038587450475 0.048820389067920536 0.060700276461213502 -0.11699334452342657 0.062763021847135156 -0.036771495679525486 0.082156606093049048
leaf_weight=642 40 608 812 634 453 1482 1569 558 435 539 913 874 670 899 114 1547 404 685 460 766 722 655 302 550 219 1119 288 19 171 60
leaf_count=642 40 608 812 634 453 1482 1569 558 435 539 913 874 670 899 114 1547 404 685 460 766 722 655 302 550 219 1119 288 19 171 60
internal_value=-9.89787e-11 0.0315885 0.0462938 0.00908785 0.0184889 -0.0857322 0.055511 -0.081299 0.0224263 0.048327 0.0656343 0.0274043 -0.011835 0.0271702 -0.0239619 -0.0781857 -0.00454085 0.0196677 0.035054 0.0405648 -0.00164087 -0.0734211 -0.0284524 0.0445231 0.0345964 0.0566645 -0.105954 0.0207146 -0.0232309 0.0551592
internal_weight=19209 14037 8489 5548 3828 5172 6124 4242 2365 3582 2542 2653 1720 1930 646 3684 1074 1319 1334 1855 1175 2202 587 1316 1118 1727 930 59 473 973
internal_count=19209 14037 8489 5548 3828 5172 6124 4242 2365 3582 2542 2653 1720 1930 646 3684 1074 1319 1334 1855 1175 2202 587 1316 1118 1727 930 59 473 973
is_linear=0
shrinkage=0.1


Tree=4
num_leaves=31
num_cat=0
split_feature=2 1 0 1 0 1 1 0 0 0 0 1 1 1 1 0 0 0 1 0 0 1 1 0 0 0 0 1 1 0
split_gain=4213.69 376.208 151.815 88.3938 55.6464 38.0567 33.7716 24.3567 21.3059 14.8307 14.3508 12.7178 12.5594 12.4935 9.73368 8.9121 7.34454 7.17884 6.84349 6.7415 6.50129 6.2713 5.71755 5.62128 5.35282 4.82434 4.6718 4.29413 4.26559 4.004
threshold=1.0000000180025095e-35 181.50000000000003 35.500000000000007 163.50000000000003 34.500000000000007 132.50000000000003 196.50000000000003 41.500000000000007 34.500000000000007 32.500000000000007 26.500000000000004 174.50000000000003 238.50000000000003 154.50000000000003 101.50000000000001 32.500000000000007 46.500000000000007 25.500000000000004 120.50000000000001 29.500000000000004 46.500000000000007 139.50000000000003 197.50000000000003 38.500000000000007 42.500000000000007 26.500000000000004 40.500000000000007 78.500000000000014 141.50000000000003 21.500000000000004
decision_type=2 2 2 2 2 2 2 2 2 2 2 2 2 2 2 2 2 2 2 2 2 2 2 2 2 2 2 2 2 2
left_child=5 3 6 13 11 18 10 12 28 25 -3 17 22 14 27 -15 -10 -5 -1 -13 -9 -16 -4 -6 -23 29 -20 -2 -7 -8
right_child=1 2 7 4 23 8 9 20 16 -11 -12 19 -14 15 21 -17 -18 -19 26 -21 -22 24 -24 -25 -26 -27 -28 -29 -30 -31
leaf_value=-0.099834087353449549 -0.017647424677298181 0.052743214673132137 0.020369087115923997 0.028272161088642424 0.0072553059668408679 -0.072738926970264503 0.049789230983990893 0.016873181360012368 -0.079660781340471248 0.045198456882764415 0.037300076892648269 0.036705877825333279 0.05913097943035503 0.0043204839243460918 -0.045105433980770937 -0.015443944872093036 -0.10175198135866646 0.012552403222550055 -0.082892279855417986 0.021749670051908851 0.0012410282792159539 -0.016439155461978185 0.033020664214074083 -0.0069555046029563528 -0.050370526726485468 0.058513024680148677 -0.10197583573063214 0.038698445535019832 -0.063879249745544639 0.070853653137471065
leaf_weight=507 21 913 648 432 453 784 104 685 893 711 1765 874 136 603 114 367 181 887 886 460 435 526 796 722 51 1614 150 38 1771 682
leaf_count=507 21 913 648 432 453 784 104 685 893 711 1765 874 136 603 114 367 181 887 886 460 435 526 796 722 51 1614 150 38 1771 682
internal_value=-1.73974e-10 0.0284296 0.0416644 0.00817907 0.0166401 -0.077159 0.0507973 0.0220827 -0.0715656 0.0578838 0.042565 0.0246639 0.0300794 -0.0106515 -0.020344 -0.0031574 -0.0833838 0.017701 -0.0903142 0.0315486 0.0108018 -0.0236728 0.0273432 -0.00147678 -0.0194383 0.0616418 -0.0856553 0.0186431 -0.0665978 0.0680665
internal_weight=19209 14037 8489 5548 3828 5172 5789 2700 3629 3111 2678 2653 1580 1720 750 970 1074 1319 1543 1334 1120 691 1444 1175 577 2400 1036 59 2555 786
internal_count=19209 14037 8489 5548 3828 5172 5789 2700 3629 3111 2678 2653 1580 1720 750 970 1074 1319 1543 1334 1120 691 1444 1175 577 2400 1036 59 2555 786
is_linear=0
shrinkage=0.1


Tree=5
num_leaves=31
num_cat=0
split_feature=2 1 0 1 0 1 0 1 0 0 1 1 1 0 1 0 1 0 0 0 1 0 1 0 1 1 0 1 1 0
split_gain=3413.09 306.168 124.127 77.0562 45.8978 31.1879 29.2862 22.3626 17.8855 12.2429 11.7927 10.1892 8.55074 8.46898 8.09271 8.04751 6.82723 5.70184 5.50355 5.25612 4.92495 4.56971 4.53496 4.34276 4.30152 3.86437 3.71848 3.67635 3.59944 3.4767
threshold=1.0000000180025095e-35 183.50000000000003 33.500000000000007 163.50000000000003 34.500000000000007 127.50000000000001 41.500000000000007 202.50000000000003 37.500000000000007 26.500000000000004 207.50000000000003 152.50000000000003 101.50000000000001 26.500000000000004 140.50000000000003 37.500000000000007 174.50000000000003 46.500000000000007 38.500000000000007 29.500000000000004 254.50000000000003 34.500000000000007 168.50000000000003 46.500000000000007 139.50000000000003 234.50000000000003 29.500000000000004 187.50000000000003 85.500000000000014 37.500000000000007
decision_type=2 2 2 2 2 2 2 2 2 2 2 2 2 2 2 2 2 2 2 2 2 2 2 2 2 2 2 2 2 2
left_child=5 3 7 11 9 21 10 13 14 22 27 12 28 -3 -7 -13 -11 -8 -6 -9 -12 -1 -5 -10 -14 -21 -26 -4 -2 -29
right_child=1 2 6 4 18 8 17 19 23 16 20 15 24 -15 -16 -17 -18 -19 -20 25 -22 -23 -24 -25 26 -27 -28 29 -30 -31
leaf_value=-0.080726562600223206 -0.00024425387382507327 0.0498592023425109 0.014517954124258487 0.018372212251738851 0.0081006317644031958 -0.068573930595651186 0.015619238007641279 0.060927821038888122 -0.074476265493222726 0.01049836282970229 0.035857613319598573 0.00058718447812476009 -0.040594891357039545 0.038452910869474929 -0.058401175517403314 -0.021439351328625914 0.022982940953077145 0.00072098004735670013 -0.0053506202290202901 0.047196941759770038 0.058847235556957977 -0.095297459323400974 0.034027956143831549 -0.091083619775823688 -0.0095674825389556288 0.06392875087980418 -0.027329437710426282 0.031645841712300858 0.052616873476654294 0.019699306982610087
leaf_weight=694 40 1033 324 234 495 1267 659 1150 648 794 828 869 114 1760 2043 205 977 421 789 683 105 312 884 208 223 173 250 596 19 412
leaf_count=694 40 1033 324 234 495 1267 659 1150 648 794 828 869 114 1760 2043 205 977 421 789 683 105 312 884 208 223 173 250 596 19 412
internal_value=-9.68883e-11 0.0255867 0.0381496 0.00822492 0.0155663 -0.0694431 0.0233622 0.0484567 -0.0656272 0.0225579 0.0298234 -0.00958638 -0.0195105 0.0426716 -0.0622951 -0.00361714 0.0173857 0.00981168 -0.000164974 0.0565116 0.0384449 -0.0852456 0.0307512 -0.0785117 -0.023158 0.0505785 -0.0189554 0.0237844 0.0167788 0.0267629
internal_weight=19209 14037 8144 5893 4173 5172 3345 4799 4166 2889 2265 1720 646 2793 3310 1074 1771 1080 1284 2006 933 1006 1118 856 587 856 473 1332 59 1008
internal_count=19209 14037 8144 5893 4173 5172 3345 4799 4166 2889 2265 1720 646 2793 3310 1074 1771 1080 1284 2006 933 1006 1118 856 587 856 473 1332 59 1008
is_linear=0
shrinkage=0.1


Tree=6
num_leaves=31
num_cat=0
split_feature=2 1 0 1 1 0 1 0 0 1 1 0 1 1 0 0 0 1 0 1 1 1 0 0 1 0 0 0 1 1
split_gain=2764.6 249.997 110.88 42.5851 34.1104 27.6155 25.5605 25.4311 15.4265 13.5222 10.346 9.00531 7.79774 6.33147 5.80325 5.73095 5.49467 5.17077 4.92818 4.46134 7.33914 4.17925 3.90305 3.82623 3.77888 3.59402 3.45073 3.29087 3.21146 3.56469
threshold=1.0000000180025095e-35 176.50000000000003 33.500000000000007 157.50000000000003 194.50000000000003 32.500000000000007 133.50000000000003 39.500000000000007 32.500000000000007 187.50000000000003 210.50000000000003 26.500000000000004 168.50000000000003 209.50000000000003 38.500000000000007 43.500000000000007 41.500000000000007 120.50000000000001 32.500000000000007 101.50000000000001 144.50000000000003 183.50000000000003 40.500000000000007 48.500000000000007 254.50000000000003 47.500000000000007 29.500000000000004 32.500000000000007 233.50000000000003 154.50000000000003
decision_type=2 2 2 2 2 2 2 2 2 2 2 2 2 2 2 2 2 2 2 2 2 2 2 2 2 2 2 2 2 2
left_child=6 3 4 16 11 12 17 9 28 -4 23 -3 -5 18 -7 -10 19 -1 -6 -2 -21 -13 -19 -9 -11 -12 -15 -22 29 -8
right_child=1 2 7 5 13 14 8 10 15 24 25 21 -14 26 -16 -17 -18 22 -20 20 27 -23 -24 -25 -26 -27 -28 -29 -30 -31
leaf_value=-0.081335433847656666 0.016155079993660806 0.039832214638605014 0.012914305099653503 0.0092040524835378598 0.045460869305381131 0.0038021228168460246 -0.055337165520112919 0.0078396439588999649 -0.062790324535568084 0.029835980518532413 0.027481072648348405 0.021024943807523899 0.021528605871413448 0.0574339774821978 -0.0096860367021403253 -0.078718661950950175 -0.035465290348489831 -0.066623036234488855 0.025623091531451793 -0.030826113513349046 -0.0043310311614969624 0.031642474460648148 -0.083350977372014676 -0.0066136308067225487 0.051392060245365606 0.0066883480581627396 0.047435564864203333 -0.019384663404737851 -0.10912224411964418 -0.04690803797979972
leaf_weight=507 54 1025 559 938 1581 657 1403 1047 1089 1496 361 577 1134 771 620 285 109 933 136 191 498 1037 164 222 86 108 625 205 9.9999999999999982 781
leaf_count=507 54 1025 559 938 1581 657 1403 1047 1089 1496 361 577 1134 771 620 285 109 933 136 191 498 1037 164 222 86 108 625 205 10 781
internal_value=-1.08111e-10 0.023028 0.0320544 0.00329724 0.0408658 0.00882039 -0.0624988 0.0189885 -0.0577853 0.0262837 0.0100017 0.032502 0.0159492 0.0479561 -0.00274655 -0.0660942 -0.0142023 -0.0729837 0.0438896 -0.0117575 -0.0134435 0.0278467 -0.0691238 0.00531118 0.0310078 0.022693 0.0529576 -0.00872078 -0.0525818 -0.0523229
internal_weight=19209 14037 9631 4406 5752 3349 5172 3879 3568 2141 1738 2639 2072 3113 1277 1374 1057 1604 1717 948 894 1614 1097 1269 1582 469 1396 703 2194 2184
internal_count=19209 14037 9631 4406 5752 3349 5172 3879 3568 2141 1738 2639 2072 3113 1277 1374 1057 1604 1717 948 894 1614 1097 1269 1582 469 1396 703 2194 2184
is_linear=0
shrinkage=0.1


Tree=7
num_leaves=31
num_cat=0
split_feature=2 1 0 1 1 1 1 0 0 0 0 0 1 1 0 1 1 1 0 0 1 1 1 1 0 0 1 1 1 1
split_gain=2239.33 202.501 99.4522 41.9457 25.5199 21.1513 17.1877 15.7383 13.7128 12.8576 9.1018 8.64427 7.12379 5.65879 5.48581 4.79228 4.45636 5.01361 6.31927 4.19122 3.67752 3.55492 3.13378 3.06486 2.97099 2.94729 2.9371 2.87356 2.83973 2.64312
threshold=1.0000000180025095e-35 174.50000000000003 36.500000000000007 187.50000000000003 157.50000000000003 126.50000000000001 194.50000000000003 30.500000000000004 29.500000000000004 34.500000000000007 30.500000000000004 43.500000000000007 203.50000000000003 209.50000000000003 45.500000000000007 141.50000000000003 101.50000000000001 144.50000000000003 32.500000000000007 43.500000000000007 253.50000000000003 234.50000000000003 276.50000000000006 78.500000000000014 38.500000000000007 34.500000000000007 255.50000000000003 165.50000000000003 145.50000000000003 177.50000000000003
decision_type=2 2 2 2 2 2 2 2 2 2 2 2 2 2 2 2 2 2 2 2 2 2 2 2 2 2 2 2 2 2
left_child=5 4 3 10 16 25 14 27 13 15 -3 21 -10 -5 -4 -7 23 -18 -19 28 -14 -8 26 -2 -9 -1 -13 -6 -11 -16
right_child=1 2 6 8 7 9 11 24 12 19 -12 22 20 -15 29 -17 17 18 -20 -21 -22 -23 -24 -25 -26 -27 -28 -29 -30 -31
leaf_value=-0.066136307844230649 -0.016736331227279844 0.027942814001148526 0.0067156230041668557 0.041331971589888938 0.0083975340196823702 -0.05452145940002881 0.021253575587964896 0.0014183533171723997 0.027898804254659605 -0.063716502531498284 0.015708956961091685 0.0079117090792433196 0.037188075454710048 0.051690579165557186 -0.028703056465495719 -0.046364569933455939 -0.028430719133973638 -0.0038979282586304211 -0.022308499446754414 -0.071145767286463199 0.055589078015064776 0.036649623360458967 -0.047377498969435695 0.030866149009058354 -0.0087047124931448581 -0.078311867700702156 0.056070291308256297 0.017782012101391877 -0.052561887488566522 -0.004350643019201828
leaf_weight=642 21 1794 965 1669 619 1214 899 770 1072 461 920 490 1244 771 55 1771 202 498 298 344 119 180 9.9999999999999982 38 465 288 12.999999999999998 690 452 235
leaf_count=642 21 1794 965 1669 619 1214 899 770 1072 461 920 490 1244 771 55 1771 202 498 298 344 119 180 10 38 465 288 13 690 452 235
internal_value=-1.7073e-11 0.0207252 0.0277806 0.0337597 0.000278102 -0.0562489 0.0118424 0.00570444 0.0393069 -0.0532546 0.0237957 0.0187411 0.0339978 0.0446051 0.00309124 -0.049682 -0.0127821 -0.0143608 -0.0107903 -0.0617386 0.0387946 0.023822 0.00805434 0.0139229 -0.00239317 -0.0699068 0.00915636 0.0133443 -0.0581942 -0.0089692
internal_weight=19209 14037 10436 7589 3601 5172 2847 2544 4875 4242 2714 1592 2435 2440 1255 2985 1057 998 796 1257 1363 1079 513 59 1235 930 503 1309 913 290
internal_count=19209 14037 10436 7589 3601 5172 2847 2544 4875 4242 2714 1592 2435 2440 1255 2985 1057 998 796 1257 1363 1079 513 59 1235 930 503 1309 913 290
is_linear=0
shrinkage=0.1


Tree=8
num_leaves=31
num_cat=0
split_feature=2 1 0 1 0 1 0 1 0 0 1 0 1 1 0 1 1 0 0 0 0 0 0 1 1 0 1 1 0 1
split_gain=1813.85 165.838 67.4612 42.0474 26.3025 17.1326 16.0241 12.2212 10.4147 8.07677 6.81815 6.31206 5.90644 5.40801 5.16475 4.0176 3.88175 3.60936 3.59153 3.51158 3.32188 3.18385 3.10144 2.9909 2.64238 2.5969 2.47704 2.47677 2.3873 2.19878
threshold=1.0000000180025095e-35 183.50000000000003 33.500000000000007 163.50000000000003 29.500000000000004 126.50000000000001 41.500000000000007 196.50000000000003 34.500000000000007 38.500000000000007 210.50000000000003 41.500000000000007 147.50000000000003 101.50000000000001 25.500000000000004 172.50000000000003 141.50000000000003 32.500000000000007 26.500000000000004 47.500000000000007 46.500000000000007 24.500000000000004 18.500000000000004 172.50000000000003 212.50000000000003 24.500000000000004 254.50000000000003 145.50000000000003 34.500000000000007 237.50000000000003
decision_type=2 2 2 2 2 2 2 2 2 2 2 2 2 2 2 2 2 2 2 2 2 2 2 2 2 2 2 2 2 2
left_child=5 3 7 11 15 28 10 14 16 23 -4 12 13 -2 -3 -5 -7 22 21 27 -8 -9 -14 -6 -20 -24 -12 -10 -1 -18
right_child=1 2 6 4 9 8 20 18 19 -11 26 -13 17 -15 -16 -17 29 -19 24 -21 -22 -23 25 -25 -26 -27 -28 -29 -30 -31
leaf_value=-0.059522678476114213 0.013039705678130743 0.037427267321691035 0.017800181989063375 0.014469772086028426 0.0029033516889169263 -0.049069313946529296 0.011406681063676491 0.039603382696040107 -0.058128558340804083 -0.0040773015577317759 0.027124252160683412 -0.025455923889341311 -0.033538069087080659 -0.021180383053894351 0.026709050985659066 0.02389479086397928 -0.041462590111829956 -0.010172234046995557 0.034181510404131747 -0.068795204894735631 3.5121335372585373e-05 0.052342966122772616 0.012186970684984276 0.012014547154321679 0.041740954946767411 -0.00059126109109529487 0.043635026680394297 -0.04856620745030496 -0.070480679298634649 -0.088486716076731697
leaf_weight=642 54 640 1485 760 596 1214 659 409 554 789 675 172 24 319 1511 1117 1761 357 1007 173 421 377 220 911 855 574 105 530 288 9.9999999999999982
leaf_count=642 54 640 1485 760 596 1214 659 409 554 789 675 172 24 319 1511 1117 1761 357 1007 173 421 377 220 911 855 574 105 530 288 10
internal_value=-6.49147e-12 0.0186527 0.0278987 0.00587489 0.0112979 -0.050624 0.0169972 0.0354972 -0.0479292 0.00411963 0.0217765 -0.00728225 -0.00526295 -0.0162263 0.0298981 0.0200786 -0.0447138 -0.00178268 0.0400455 -0.0555647 0.00697388 0.0457138 0.00187877 0.00841118 0.0376527 0.00294931 0.0293469 -0.0534532 -0.0629161 -0.0417281
internal_weight=19209 14037 8144 5893 4173 5172 3345 4799 4242 2296 2265 1720 1548 373 2151 1877 2985 1175 2648 1257 1080 786 818 1507 1862 794 780 1084 930 1771
internal_count=19209 14037 8144 5893 4173 5172 3345 4799 4242 2296 2265 1720 1548 373 2151 1877 2985 1175 2648 1257 1080 786 818 1507 1862 794 780 1084 930 1771
is_linear=0
shrinkage=0.1


Tree=9
num_leaves=31
num_cat=0
split_feature=2 1 0 1 1 0 0 1 0 1 1 0 0 1 0 1 0 0 0 1 0 1 1 0 0 1 1 1 1 0
split_gain=1469.22 134.479 60.4535 23.0792 18.6778 15.1203 14.1619 14.1175 9.27682 7.89069 6.78454 5.67034 5.35696 4.84272 3.71627 3.71308 3.35983 3.23735 3.18719 3.16066 2.81665 2.62459 2.56324 2.516 2.5063 2.38079 4.176 2.22364 2.43994 2.25093
threshold=1.0000000180025095e-35 176.50000000000003 33.500000000000007 157.50000000000003 194.50000000000003 36.500000000000007 39.500000000000007 132.50000000000003 32.500000000000007 192.50000000000003 210.50000000000003 26.500000000000004 26.500000000000004 171.50000000000003 26.500000000000004 115.50000000000001 41.500000000000007 21.500000000000004 46.500000000000007 212.50000000000003 52.500000000000007 178.50000000000003 212.50000000000003 41.500000000000007 32.500000000000007 101.50000000000001 147.50000000000003 233.50000000000003 154.50000000000003 30.500000000000004
decision_type=2 2 2 2 2 2 2 2 2 2 2 2 2 2 2 2 2 2 2 2 2 2 2 2 2 2 2 2 2 2
left_child=7 3 4 16 11 12 9 15 27 -4 20 -3 -5 -14 17 -1 25 22 -10 24 -8 -13 -6 -17 -16 -2 -27 28 -9 -30
right_child=1 2 6 5 14 -7 10 8 18 -11 -12 21 13 -15 19 23 -18 -19 -20 -21 -22 -23 -24 -25 -26 26 -28 -29 29 -31
leaf_value=-0.064178060937624917 0.011735734674665663 0.029541495016983301 0.011225046770095493 0.016143098046924088 0.018995678900941233 -0.0057210946592130447 0.0042389086639236431 -0.04037862211121046 -0.046693684696744689 0.023823037368875921 0.017330967223292578 0.0065743830573177873 0.0026407984042537552 0.014089592600230648 0.031366769105043782 -0.049562326804379817 -0.027193439803128945 0.042644121130810585 -0.060913813109278105 0.037566859798775838 -0.019311188639334911 0.021239281488605447 0.054001605145346666 -0.062666026009081388 0.017888616268362873 -0.019062344752818487 -0.0047957713231646824 -0.085195134356617935 -0.030613386058636633 -0.043650687675504292
leaf_weight=272 54 1025 785 935 107 789 1216 1437 1220 1356 469 133 1057 568 1138 1102 109 830 181 855 53 1481 26 169 157 319 575 9.9999999999999982 612 169
leaf_count=272 54 1025 785 935 107 789 1216 1437 1220 1356 469 133 1057 568 1138 1102 109 830 181 855 53 1481 26 169 157 319 575 10 612 169
internal_value=-2.37074e-11 0.0167874 0.0234077 0.00231622 0.0299139 0.00638222 0.01376 -0.0455616 -0.0421549 0.019204 0.00705365 0.0237248 0.0101125 0.00664259 0.0351605 -0.053574 -0.0105665 0.0403232 -0.0485308 0.0328482 0.00325533 0.0200308 0.0258389 -0.0513047 0.0297327 -0.00865478 -0.00988642 -0.0381456 -0.0379335 -0.0334345
internal_weight=19209 14037 9631 4406 5752 3349 3879 5172 3629 2141 1738 2639 2560 1625 3113 1543 1057 963 1401 2150 1269 1614 133 1271 1295 948 894 2228 2218 781
internal_count=19209 14037 9631 4406 5752 3349 3879 5172 3629 2141 1738 2639 2560 1625 3113 1543 1057 963 1401 2150 1269 1614 133 1271 1295 948 894 2228 2218 781
is_linear=0
shrinkage=0.1


Tree=10
num_leaves=31
num_cat=0
split_feature=2 1 0 1 0 0 1 1 1 0 0 0 1 1 1 0 0 0 1 0 0 1 0 0 1 1 1 0 0 0
split_gain=1190.07 110.413 44.6436 28.1714 17.9514 12.6095 11.5773 7.84414 6.67561 6.49752 5.31501 4.23744 3.74637 3.72868 3.5482 3.38159 2.75962 2.65618 2.62004 2.5647 2.51236 2.22947 2.14829 2.13896 2.12332 2.02088 1.9504 1.94387 1.92499 2.94002
threshold=1.0000000180025095e-35 183.50000000000003 32.500000000000007 163.50000000000003 29.500000000000004 41.500000000000007 136.50000000000003 202.50000000000003 210.50000000000003 36.500000000000007 38.500000000000007 41.500000000000007 115.50000000000001 147.50000000000003 101.50000000000001 33.500000000000007 26.500000000000004 32.500000000000007 171.50000000000003 46.500000000000007 18.500000000000004 243.50000000000003 23.500000000000004 34.500000000000007 85.500000000000014 188.50000000000003 238.50000000000003 24.500000000000004 19.500000000000004 25.500000000000004
decision_type=2 2 2 2 2 2 2 2 2 2 2 2 2 2 2 2 2 2 2 2 2 2 2 2 2 2 2 2 2 2
left_child=6 3 7 11 18 8 12 16 -4 -8 -6 13 -1 14 24 -14 -3 20 28 25 -15 23 -20 26 -2 -7 -10 -22 -5 -30
right_child=1 2 5 4 10 19 9 -9 21 -11 -12 -13 15 17 -16 -17 -18 -19 22 -21 27 -23 -24 -25 -26 -27 -28 -29 29 -31
leaf_value=-0.057760255563719998 -0.0034593731475373113 0.029977183375948915 0.014767825906804564 -0.0095534041955521939 0.0066725557625115133 -0.0022459806859000653 -0.03466567445767476 0.03457075703428894 0.034005549689511048 -0.04552070815471429 -0.0034582282909480159 -0.020977474677885428 -0.042029566489937449 -0.030402647418668494 -0.017156109895752773 -0.051210090035581447 0.023303236569824973 -0.00886431093463356 0.026310958633656095 -0.00056098231375482899 0.010429461107335308 0.035045330049370459 0.016670388223083223 0.019355657396168964 0.038605233902732537 0.012057093098339 -0.0060247386877353383 -0.00062600482739540609 0.01970721609742632 0.0062106957865226175
leaf_weight=272 36 1033 1774 41 1507 121 2399 1803 191 716 789 172 1176 24 319 609 1548 357 314 421 220 187 876 515 18 538 12.999999999999998 574 315 331
leaf_count=272 36 1033 1774 41 1507 121 2399 1803 191 716 789 172 1176 24 319 609 1548 357 314 421 220 187 876 515 18 538 13 574 315 331
internal_value=9.49505e-12 0.0151087 0.022653 0.00468252 0.00912143 0.0146583 -0.0410055 0.0295098 0.0183345 -0.0371608 0.0031912 -0.006087 -0.0468277 -0.0044325 -0.0131433 -0.0451617 0.0259744 -0.00166729 0.0163755 0.00553591 0.00147371 0.0253183 0.0192142 0.0227885 0.0105622 0.00943088 0.0314546 0.00243722 0.0114583 0.0127918
internal_weight=19209 14037 8144 5893 4173 3760 5172 4384 2680 3115 2296 1720 2057 1548 373 1785 2581 1175 1877 1080 818 906 1190 719 54 659 204 794 687 646
internal_count=19209 14037 8144 5893 4173 3760 5172 4384 2680 3115 2296 1720 2057 1548 373 1785 2581 1175 1877 1080 818 906 1190 719 54 659 204 794 687 646
is_linear=0
shrinkage=0.1


Tree=11
num_leaves=31
num_cat=0
split_feature=2 1 0 1 0 1 1 0 1 0 0 0 0 0 1 1 1 0 0 0 1 0 1 1 0 1 1 1 0 0
split_gain=963.957 89.4345 36.8579 22.8826 11.9767 9.82628 8.72941 6.15623 6.14646 5.67025 5.55682 4.92738 4.14586 3.70069 3.43668 3.38181 2.47969 2.2619 2.0126 1.84271 1.80133 1.77462 1.69217 1.68533 1.62644 1.52321 1.51626 1.64825 2.89005 2.86428
threshold=1.0000000180025095e-35 183.50000000000003 36.500000000000007 168.50000000000003 29.500000000000004 126.50000000000001 202.50000000000003 41.500000000000007 157.50000000000003 30.500000000000004 44.500000000000007 33.500000000000007 38.500000000000007 30.500000000000004 193.50000000000003 145.50000000000003 263.50000000000006 41.500000000000007 19.500000000000004 27.500000000000004 238.50000000000003 30.500000000000004 187.50000000000003 203.50000000000003 37.500000000000007 110.50000000000001 209.50000000000003 206.50000000000003 24.500000000000004 26.500000000000004
decision_type=2 2 2 2 2 2 2 2 2 2 2 2 2 2 2 2 2 2 2 2 2 2 2 2 2 2 2 2 2 2
left_child=5 3 6 8 -5 24 9 15 17 -3 14 -10 -6 23 -4 19 -15 18 -2 -7 -16 -17 -11 -8 25 -1 27 28 -25 -29
right_child=1 2 10 4 12 7 13 -9 11 22 -12 -13 -14 16 20 21 -18 -19 -20 -21 -22 -23 -24 26 -26 -27 -28 29 -30 -31
leaf_value=-0.055988993180875225 -0.028303412565701576 0.024330570523771605 0.0054672582540478062 0.016317272446817879 0.0076947041010943969 -0.032328589257312239 0.053605530496586021 -0.0456176450164461 0.0053132143936789221 0.0098346151181730873 0.0015564834635976392 -0.0067676592472423087 -0.0023263881509644601 0.023751141496568224 0.014045968674038376 -0.027608600290615765 0.043026291016279396 -0.022376348293138618 -0.0061610266438798557 -0.038733541384836236 0.025843573709386655 -0.03388036369319896 0.018113345563758258 0.011500442178364385 -0.054005429793323859 -0.042214209536517354 0.034179122987470827 0.031953947397245878 0.036969935051713358 0.0027003819359323156
leaf_weight=92 43 2114 477 1497 1205 704 37 473 995 346 624 511 628 1113 1031 1006 71 109 905 1241 148 818 862 57 208 630 926 69 204 65
leaf_count=92 43 2114 477 1497 1205 704 37 473 995 346 624 511 628 1113 1031 1006 71 109 905 1241 148 818 862 57 208 630 926 69 204 65
internal_value=1.52937e-11 0.0135978 0.0203877 0.00421427 0.00968111 -0.0369049 0.0245826 -0.034864 -0.00288858 0.0212075 0.00959885 0.00121406 0.0042614 0.0289933 0.0126293 -0.0335145 0.024907 -0.00873396 -0.00716538 -0.0364152 0.0155269 -0.0304213 0.0157421 0.032556 -0.0462141 -0.0439694 0.0319664 0.0267791 0.0314076 0.0177638
internal_weight=19209 14037 8144 5893 3330 5172 5864 4242 2563 3322 2280 1506 1833 2542 1656 3769 1184 1057 948 1945 1179 1824 1208 1358 930 722 1321 395 261 134
internal_count=19209 14037 8144 5893 3330 5172 5864 4242 2563 3322 2280 1506 1833 2542 1656 3769 1184 1057 948 1945 1179 1824 1208 1358 930 722 1321 395 261 134
is_linear=0
shrinkage=0.1


Tree=12
num_leaves=31
num_cat=0
split_feature=2 1 0 1 0 1 0 1 0 0 0 0 1 1 1 0 1 0 1 0 1 1 0 0 0 1 1 0 1 1
split_gain=780.805 73.3227 26.4026 24.2634 15.0636 8.19381 6.67088 5.16238 4.93823 4.75668 4.48296 3.55201 3.50607 3.38477 3.22202 3.12849 2.62628 2.28984 2.14752 2.23715 2.13641 2.13513 2.13827 3.10552 2.02049 3.38978 2.96036 1.80412 1.74806 1.72852
threshold=1.0000000180025095e-35 187.50000000000003 37.500000000000007 168.50000000000003 30.500000000000004 141.50000000000003 29.500000000000004 154.50000000000003 27.500000000000004 41.500000000000007 39.500000000000007 46.500000000000007 223.50000000000003 234.50000000000003 122.50000000000001 30.500000000000004 101.50000000000001 50.500000000000007 78.500000000000014 26.500000000000004 209.50000000000003 139.50000000000003 29.500000000000004 19.500000000000004 31.500000000000004 242.50000000000003 249.50000000000003 26.500000000000004 250.50000000000003 154.50000000000003
decision_type=2 2 2 2 2 2 2 2 2 2 2 2 2 2 2 2 2 2 2 2 2 2 2 2 2 2 2 2 2 2
left_child=5 3 6 7 27 9 20 16 -9 14 -6 12 -4 -8 -1 29 18 -12 -2 -20 -3 -18 23 -23 25 -15 -27 -5 -22 -7
right_child=1 2 11 4 10 15 13 8 -10 -11 17 -13 -14 24 -16 -17 21 -19 19 -21 28 22 -24 -25 -26 26 -28 -29 -30 -31
leaf_value=-0.042576544046707514 -0.014990229212812015 0.025025028168772608 0.0085141495762591814 0.017858953541827264 0.0069349179262095844 -0.029266197945552287 0.018485499200354714 0.0075441772633602902 -0.0034663076336236445 -0.048453928453540206 -0.00051506566287206495 2.5962958081141534e-06 0.020926496657523684 0.068276983126997953 -0.033553311491403386 -0.032637734801637085 -0.023812377175291707 -0.018180140474152458 -0.0069120307053838455 0.043388204633568725 0.032998611997359442 -0.036850770906312391 -0.014665124618271956 0.00079497405187419011 0.024651529943190111 -0.01660022313396136 0.039718625029282917 0.012299642984508665 0.017297216665141193 -0.021843252392681017
leaf_weight=506 21 1669 1044 1211 1538 635 2356 618 1195 324 698 358 291 32 1816 1271 114 82 13.999999999999998 24 692 24 301 252 243 11.999999999999998 42 1127 79 620
leaf_count=506 21 1669 1044 1211 1538 635 2356 618 1195 324 698 358 291 32 1816 1271 114 82 14 24 692 24 301 252 243 12 42 1127 79 620
internal_value=-1.67761e-11 0.012238 0.0196749 0.00521422 0.00951557 -0.0332144 0.0232516 -0.00259972 0.000286853 -0.0371034 0.00380311 0.00884779 0.0112198 0.0198123 -0.0355196 -0.0291407 -0.00957753 -0.00237216 0.0106738 0.0248565 0.0270362 -0.0113067 -0.00883585 -0.00247857 0.0293136 0.0424865 0.0272033 0.0151792 0.0313898 -0.0255991
internal_weight=19209 14037 6818 7219 4656 5172 5125 2563 1813 2646 2318 1693 1335 2685 2322 2526 750 780 59 38 2440 691 577 276 329 86 54 2338 771 1255
internal_count=19209 14037 6818 7219 4656 5172 5125 2563 1813 2646 2318 1693 1335 2685 2322 2526 750 780 59 38 2440 691 577 276 329 86 54 2338 771 1255
is_linear=0
shrinkage=0.1


Tree=13
num_leaves=31
num_cat=0
split_feature=2 1 0 1 1 0 1 1 0 0 0 0 1 1 1 0 0 0 1 1 1 1 0 1 1 1 0 0 1 1
split_gain=632.452 60.5111 27.3183 10.027 8.50193 7.14761 6.80925 6.63699 3.86406 3.85291 3.54328 2.78329 2.93458 2.91229 2.6603 2.54659 2.49163 2.20193 1.92687 1.78611 1.76175 2.26088 2.1174 1.96014 1.76159 1.79274 1.71625 2.27576 2.09759 1.71334
threshold=1.0000000180025095e-35 176.50000000000003 33.500000000000007 157.50000000000003 196.50000000000003 36.500000000000007 203.50000000000003 141.50000000000003 39.500000000000007 41.500000000000007 26.500000000000004 43.500000000000007 204.50000000000003 276.50000000000006 124.50000000000001 31.500000000000004 23.500000000000004 18.500000000000004 255.50000000000003 167.50000000000003 101.50000000000001 139.50000000000003 32.500000000000007 85.500000000000014 284.50000000000006 305.50000000000006 26.500000000000004 21.500000000000004 212.50000000000003 178.50000000000003
decision_type=2 2 2 2 2 2 2 2 2 2 2 2 2 2 2 2 2 2 2 2 2 2 2 2 2 2 2 2 2 2
left_child=7 3 4 20 10 16 8 9 -4 14 -3 12 -8 18 -1 -9 17 -5 -13 -18 23 -22 -23 -2 -14 -26 27 28 -6 -12
right_child=1 2 6 5 26 -7 11 15 -10 -11 29 13 24 -15 -16 -17 19 -19 -20 -21 21 22 -24 -25 25 -27 -28 -29 -30 -31
leaf_value=-0.037780251962427354 -0.0029557385062798859 0.020527783726491562 0.0092116814327389065 -0.012752304490034781 0.005930842669047893 -0.0043344759795884398 0.055083263038020386 -0.023379104179696047 0.00090682105167798712 -0.043608535654888848 0.0026458510892689788 0.0060382502208983771 0.014890337910127845 -0.047207587137818335 -0.029996598515002439 -0.029767074974251292 0.0016102787760946041 0.015313362356775054 0.045302462348571194 0.0075238392484284315 -0.021431139712998024 -0.0027088740981990479 -0.012839899519151847 0.036053043466649559 0.067325523839547069 0.018591575365927485 0.022337101953741924 0.030010812009373306 0.038728544803766106 0.014414786991676178
leaf_weight=588 40 1202 1227 30 78 789 19 1400 1031 324 133 324 1224 9.9999999999999982 1734 1126 858 410 12.999999999999998 1262 114 556 328 19 13.000000000000002 18 1862 682 26 1769
leaf_count=588 40 1202 1227 30 78 789 19 1400 1031 324 133 324 1224 10 1734 1126 858 410 13 1262 114 556 328 19 13 18 1862 682 26 1769
internal_value=1.36281e-11 0.0110142 0.0154551 0.00130702 0.0198287 0.00398707 0.00896962 -0.029893 0.00541969 -0.0333931 0.0162777 0.0139145 0.0160771 0.00597478 -0.0319677 -0.0262266 0.0065518 0.0133998 0.00755289 0.00513052 -0.00718448 -0.00817713 -0.0064679 0.00960641 0.0154866 0.0390284 0.0239912 0.0279096 0.0141303 0.0135918
internal_weight=19209 14037 9631 4406 5752 3349 3879 5172 2258 2646 3104 1621 1274 347 2322 2526 2560 440 337 2120 1057 998 884 59 1255 31 2648 786 104 1902
internal_count=19209 14037 9631 4406 5752 3349 3879 5172 2258 2646 3104 1621 1274 347 2322 2526 2560 440 337 2120 1057 998 884 59 1255 31 2648 786 104 1902
is_linear=0
shrinkage=0.1


Tree=14
num_leaves=31
num_cat=0
split_feature=2 1 0 1 0 1 0 0 1 0 0 1 0 1 1 1 0 0 1 1 1 1 1 0 0 0 1 1 0 0
split_gain=512.286 49.4907 17.7801 15.8368 10.2925 5.48549 4.80841 3.83029 4.61422 3.81658 3.09666 2.58312 2.54329 2.51577 2.45026 2.1644 2.01919 1.84681 1.83758 2.44246 1.67446 4.40279 1.66756 1.74752 1.58434 1.5832 1.53899 1.82658 1.50523 1.89704
threshold=1.0000000180025095e-35 187.50000000000003 37.500000000000007 168.50000000000003 30.500000000000004 126.50000000000001 27.500000000000004 33.500000000000007 147.50000000000003 43.500000000000007 50.500000000000007 269.00000000000006 46.500000000000007 223.50000000000003 110.50000000000001 145.50000000000003 18.500000000000004 24.500000000000004 226.50000000000003 214.50000000000003 209.50000000000003 208.50000000000003 207.50000000000003 31.500000000000004 28.500000000000004 39.500000000000007 270.50000000000006 284.50000000000006 31.500000000000004 32.500000000000007
decision_type=2 2 2 2 2 2 2 2 2 2 2 2 2 2 2 2 2 2 2 2 2 2 2 2 2 2 2 2 2 2
left_child=5 3 6 7 -5 -1 -3 8 14 15 25 20 13 -4 17 24 -10 -2 19 -17 21 22 -8 -24 -7 28 -15 -28 -6 -30
right_child=1 2 12 4 10 9 11 -9 16 -11 -12 -13 -14 26 -16 18 -18 -19 -20 -21 -22 -23 23 -25 -26 -27 27 -29 29 -31
leaf_value=-0.033859090304830843 -0.01897952169753038 0.023371371302138351 0.0068529405339863656 0.012298875107274869 -0.0022692414375276053 -0.02348008768150834 0.015004041514399914 -0.0076876703920521474 -0.021969728803378531 -0.035475841838308764 -0.016190744005143642 0.035443427883190652 -0.0003468899225410303 0.020056176439993578 -0.01467705117323507 -0.02198783108397195 0.0034358169183915134 0.02689672426355106 -0.048989135473966605 0.023273286223411561 0.019165091802861706 -0.012064795785893997 0.0091424555634148415 0.051146275120285849 -0.029167812115629705 -0.00035450127903136216 -0.027195060998201372 0.018663074350670765 0.015118627180819447 0.0049632507908452918
leaf_weight=930 12.999999999999998 1666 1044 2338 220 846 1936 844 32 344 82 73 358 256 249 1852 1398 27 25 11.999999999999998 1348 60 15.999999999999998 26 1163 698 15.999999999999998 19 221 1097
leaf_count=930 13 1666 1044 2338 220 846 1936 844 32 344 82 73 358 256 249 1852 1398 27 25 12 1348 60 16 26 1163 698 16 19 221 1097
internal_value=-6.97475e-12 0.00991279 0.0160227 0.00414228 0.00761734 -0.0269037 0.0189578 -0.00217061 0.000538181 -0.0253788 0.00289542 0.016832 0.00713771 0.00914482 -0.0109865 -0.0244877 0.0028673 0.0119869 -0.0220577 -0.0216965 0.0164308 0.0146222 0.0154317 0.0351448 -0.0267727 0.00359536 0.0173672 -0.00230064 0.00538795 0.00666609
internal_weight=19209 14037 6818 7219 4656 5172 5125 2563 1719 4242 2318 3459 1693 1335 289 3898 1430 40 1889 1864 3386 2038 1978 42 2009 2236 291 35 1538 1318
internal_count=19209 14037 6818 7219 4656 5172 5125 2563 1719 4242 2318 3459 1693 1335 289 3898 1430 40 1889 1864 3386 2038 1978 42 2009 2236 291 35 1538 1318
is_linear=0
shrinkage=0.1


Tree=15
num_leaves=31
num_cat=0
split_feature=2 1 0 1 1 1 1 0 0 0 0 1 1 0 0 1 1 0 1 1 0 1 0 1 1 1 0 0 1 1
split_gain=414.952 40.7813 20.6753 8.54176 4.98463 4.51505 4.50678 3.95728 3.71591 3.49691 2.71718 2.21946 4.63115 1.91051 1.8476 1.78871 1.84499 2.5674 1.67271 1.66948 1.51661 1.50265 1.48012 1.37151 1.35116 3.54094 3.07367 1.30417 1.28106 1.23263
threshold=1.0000000180025095e-35 174.50000000000003 36.500000000000007 187.50000000000003 157.50000000000003 194.50000000000003 132.50000000000003 27.500000000000004 32.500000000000007 27.500000000000004 50.500000000000007 209.50000000000003 208.50000000000003 47.500000000000007 26.500000000000004 238.50000000000003 263.50000000000006 45.500000000000007 233.50000000000003 248.50000000000003 46.500000000000007 115.50000000000001 41.500000000000007 202.50000000000003 199.50000000000003 197.50000000000003 33.500000000000007 42.500000000000007 147.50000000000003 284.50000000000006
decision_type=2 2 2 2 2 2 2 2 2 2 2 2 2 2 2 2 2 2 2 2 2 2 2 2 2 2 2 2 2 2
left_child=6 4 3 14 22 10 21 -6 18 -5 -4 12 23 15 -3 -7 17 27 -8 -15 28 -1 -2 24 25 -11 -26 -17 -10 -18
right_child=1 2 5 9 7 13 8 -9 20 11 -12 -13 -14 19 -16 16 29 -19 -20 -21 -22 -23 -24 -25 26 -27 -28 -29 -30 -31
leaf_value=-0.035486164535669718 -0.0047575085872939233 0.013961025942977438 0.0015656641985162521 0.02103423428936109 0.0076338544921485995 0.0084156272713583925 -0.019567036458839705 -0.00068956636947108043 -0.028609438011296041 0.011853257970692503 -0.017263240271770373 0.01855173109331567 -0.015392517207021065 0.0021186057045495354 0.0084490885338361858 0.027728806247553195 -0.010206796267423136 0.072081855616786261 -0.06055796056985855 -0.034733615786983418 -0.034865777553522249 -0.027296725375422833 -0.017062149150724258 0.019045500020235164 0.012707751048859997 0.027912167671288447 -0.010494912393056811 0.0027707428804465703 -0.022101068776258195 0.020792776832114099
leaf_weight=272 948 920 1173 1666 866 1179 2218 1678 554 968 82 1311 55 226 1794 83 29 10.999999999999998 9.9999999999999982 12.999999999999998 181 1271 109 424 213 160 78 28 666 23
leaf_count=272 948 920 1173 1666 866 1179 2218 1678 554 968 82 1311 55 226 1794 83 29 11 10 13 181 1271 109 424 213 160 78 28 666 23
internal_value=-4.76608e-13 0.00892151 0.0120877 0.0148139 -0.000254392 0.00482067 -0.0242133 0.0021438 -0.0222885 0.0173171 0.000335409 0.0153874 0.0132017 0.00835647 0.0103175 0.00981244 0.0192771 0.0259998 -0.019751 0.000114092 -0.0263238 -0.0287404 -0.00602639 0.014055 0.0125638 0.0141311 0.00648848 0.0214331 -0.0250565 0.00350455
internal_weight=19209 14037 10436 7589 3601 2847 5172 2544 3629 4875 1255 3209 1898 1592 2714 1353 174 122 2228 239 1401 1543 1057 1843 1419 1128 291 111 1220 52
internal_count=19209 14037 10436 7589 3601 2847 5172 2544 3629 4875 1255 3209 1898 1592 2714 1353 174 122 2228 239 1401 1543 1057 1843 1419 1128 291 111 1220 52
is_linear=0
shrinkage=0.1


Tree=16
num_leaves=31
num_cat=0
split_feature=2 1 0 1 1 1 1 0 0 0 1 0 0 0 1 0 1 1 1 1 0 0 1 1 1 1 1 1 1 1
split_gain=336.111 33.0329 16.747 6.91883 4.03755 3.77159 3.6694 3.20539 2.93599 2.64185 2.41571 2.26463 1.75204 1.6681 1.66091 1.60464 1.51135 1.50449 1.43497 1.49444 2.0796 1.38971 1.33655 3.31525 1.66712 1.31447 1.28803 2.02575 1.96748 1.24992
threshold=1.0000000180025095e-35 174.50000000000003 36.500000000000007 187.50000000000003 157.50000000000003 141.50000000000003 193.50000000000003 27.500000000000004 29.500000000000004 41.500000000000007 234.50000000000003 50.500000000000007 47.500000000000007 29.500000000000004 115.50000000000001 23.500000000000004 237.50000000000003 249.50000000000003 238.50000000000003 263.50000000000006 45.500000000000007 18.500000000000004 211.50000000000003 210.50000000000003 250.50000000000003 248.50000000000003 154.50000000000003 149.50000000000003 147.50000000000003 101.50000000000001
decision_type=2 2 2 2 2 2 2 2 2 2 2 2 2 2 2 2 2 2 2 2 2 2 2 2 2 2 2 2 2 2
left_child=5 4 3 15 29 9 11 -6 22 14 -10 -4 18 21 -1 -3 -12 -18 -8 20 -20 -7 23 -5 -24 -14 27 28 -23 -2
right_child=1 2 6 8 7 13 12 -9 10 -11 16 -13 25 -15 -16 -17 17 -19 19 -21 -22 26 24 -25 -26 -27 -28 -29 -30 -31
leaf_value=-0.031127440867906749 0.0087193101107821622 0.014920955411986665 0.0013484499510468596 0.017033593009221523 0.0068704688127970487 0.017759892763569953 0.0076304228788956763 -0.00062060988781442565 0.011954885419651234 -0.032889444258403219 0.036060316366111414 -0.016153550137842334 0.0014167724632866809 -0.021270646450789764 -0.02234210833011311 0.0082365824216909609 0.0082972899618509576 0.024509815840954415 0.019289770257566966 0.0031540982210292267 0.064873669364235623 -0.019149208377260068 0.023869942522398945 -0.030176058461268748 0.0083556845124009294 -0.031260252715303354 -0.012973821301222127 -0.027671533804116907 -0.00069921897673929072 -0.0062598620837914553
leaf_weight=240 59 426 1152 1784 866 11.999999999999998 1197 1678 2138 324 58 79 232 1434 2082 2288 95 144 111 52 10.999999999999998 264 562 14.999999999999998 79 12.999999999999998 535 207 74 998
leaf_count=240 59 426 1152 1784 866 12 1197 1678 2138 324 58 79 232 1434 2082 2288 95 144 111 52 11 264 562 15 79 13 535 207 74 998
internal_value=-1.98417e-11 0.00802936 0.0108789 0.0133325 -0.000228953 -0.021792 0.0043386 0.00192942 0.0155854 -0.0244305 0.0131288 0.000225251 0.00747198 -0.0190282 -0.0232502 0.00928579 0.0215796 0.0180655 0.0088639 0.0173494 0.0233998 -0.0160833 0.018037 0.01664 0.0219579 -0.000317111 -0.0164594 -0.019881 -0.0151099 -0.00542375
internal_weight=19209 14037 10436 7589 3601 5172 2847 2544 4875 2646 2435 1231 1616 2526 2322 2714 297 239 1371 174 122 1092 2440 1799 641 245 1080 545 338 1057
internal_count=19209 14037 10436 7589 3601 5172 2847 2544 4875 2646 2435 1231 1616 2526 2322 2714 297 239 1371 174 122 1092 2440 1799 641 245 1080 545 338 1057
is_linear=0
shrinkage=0.1


Tree=17
num_leaves=31
num_cat=0
split_feature=2 1 0 1 1 1 0 0 0 1 1 0 1 0 0 1 1 1 0 0 1 0 0 1 0 1 0 0 1 1
split_gain=272.25 26.9623 13.0626 4.8151 4.35312 3.96214 3.34754 3.17426 2.97068 2.16596 2.11091 1.86637 1.73201 1.50379 1.43488 1.36324 1.34928 2.53601 1.31557 1.65507 1.28061 1.20035 1.37474 1.99315 3.25021 2.16589 1.70363 1.57358 1.18568 1.67763
threshold=1.0000000180025095e-35 176.50000000000003 32.500000000000007 163.50000000000003 194.50000000000003 210.50000000000003 34.500000000000007 34.500000000000007 39.500000000000007 175.50000000000003 133.50000000000003 46.500000000000007 143.50000000000003 28.500000000000004 34.500000000000007 234.50000000000003 270.50000000000006 284.50000000000006 52.500000000000007 53.500000000000007 169.50000000000003 18.500000000000004 27.500000000000004 144.50000000000003 23.500000000000004 160.50000000000003 22.500000000000004 26.500000000000004 193.50000000000003 192.50000000000003
decision_type=2 2 2 2 2 2 2 2 2 2 2 2 2 2 2 2 2 2 2 2 2 2 2 2 2 2 2 2 2 2
left_child=7 3 4 11 13 8 -5 10 -4 20 -1 21 -9 -3 -7 -16 -17 -18 -10 -20 -8 -2 23 24 -23 -25 -27 -28 29 -15
right_child=1 2 5 6 -6 14 9 12 18 -11 -12 -13 -14 28 15 16 17 -19 19 -21 -22 22 -24 25 -26 26 27 -29 -30 -31
leaf_value=-0.021631043716284472 -0.021900594717590139 0.012344345689652248 0.006796215294103636 0.0057077532926882064 0.016204531361047932 0.017526521625785298 -0.005781898335669707 -0.02650809055890372 0.0011868059606417536 -0.019494769722223283 -0.016394863977183361 -0.01974628735611688 -0.019791747683705507 0.0070411918684085157 0.0064070240623263141 0.016896453253931205 -0.02647226794876836 0.017359464852647347 -0.040623530816725074 -0.0027644481147742934 0.0027791771423414319 -0.029134414547269106 -0.0045573572878600688 0.0070695855014775077 0.0057609851072941516 0.017686623684130608 -0.028803816437721255 0.0078175124945119023 -0.013847317747198619 0.032361678515250486
leaf_weight=1109 32 1534 1851 1878 2835 260 281 832 1216 65 2518 67 713 848 633 293 22 33 17 36 462 51 1027 411 56 15.999999999999998 44 15.999999999999998 26 27
leaf_count=1109 32 1534 1851 1878 2835 260 281 832 1216 65 2518 67 713 848 633 293 22 33 17 36 462 51 1027 411 56 16 44 16 26 27
internal_value=1.59217e-11 0.00722643 0.0101908 0.000746731 0.0135409 0.00614229 0.00339213 -0.0196128 0.00424129 -0.00198997 -0.0179959 -0.0033844 -0.0234086 0.0104398 0.0109216 0.00917103 0.0141987 -0.000173228 0.000514607 -0.0149079 -0.000458592 -0.00272121 -0.0023426 0.00148663 -0.0108714 0.00420184 -0.0113066 -0.0190381 0.00719719 0.00782251
internal_weight=19209 14037 9631 4406 5270 4361 2686 5172 3120 808 3627 1720 1545 2435 1241 981 348 55 1269 53 743 1653 1621 594 107 487 76 60 901 875
internal_count=19209 14037 9631 4406 5270 4361 2686 5172 3120 808 3627 1720 1545 2435 1241 981 348 55 1269 53 743 1653 1621 594 107 487 76 60 901 875
is_linear=0
shrinkage=0.1


Tree=18
num_leaves=31
num_cat=0
split_feature=2 1 0 1 0 0 0 1 1 0 0 1 1 1 1 0 1 0 1 0 0 1 1 1 0 1 0 1 0 0
split_gain=220.522 22.1976 9.30749 5.34561 4.74078 2.75727 2.70448 2.55701 2.53153 1.72352 1.60756 1.60378 1.31726 1.4163 1.24882 1.21167 1.18329 1.13902 1.10757 1.08057 1.07571 1.53467 1.07408 1.86919 1.27895 1.4352 1.07352 1.07118 1.41244 1.36947
threshold=1.0000000180025095e-35 181.50000000000003 32.500000000000007 163.50000000000003 29.500000000000004 41.500000000000007 39.500000000000007 136.50000000000003 202.50000000000003 18.500000000000004 37.500000000000007 234.50000000000003 206.50000000000003 205.50000000000003 208.50000000000003 49.500000000000007 167.50000000000003 23.500000000000004 108.50000000000001 18.500000000000004 48.500000000000007 244.50000000000003 174.50000000000003 154.50000000000003 43.500000000000007 157.50000000000003 18.500000000000004 147.50000000000003 24.500000000000004 34.500000000000007
decision_type=2 2 2 2 2 2 2 2 2 2 2 2 2 2 2 2 2 2 2 2 2 2 2 2 2 2 2 2 2 2
left_child=5 3 8 10 9 7 12 -1 17 -5 26 -8 13 -4 -14 -6 -17 -3 -7 -9 -13 -22 23 -20 -25 -26 -2 29 -29 -28
right_child=1 2 6 4 15 18 11 19 -10 -11 -12 20 14 -15 -16 16 -18 -19 22 -21 21 -23 -24 24 25 -27 27 28 -30 -31
leaf_value=-0.019747845157877947 -0.019710535067133605 0.015476367990197862 0.0066148745901916375 -0.01663468948982913 0.00098306212774849498 -0.055453259294683289 0.0017871271000514375 0.013856242697399396 0.015691263848923189 0.0079507577362932097 -0.0095277386739070491 0.015481150485013764 0.026879687064016861 -0.029408370229330932 0.010321570896256961 -0.037522650829383303 -0.0059487428446001831 0.009991694188529316 -0.025016529226783091 -0.015042325271741364 0.018117823985151264 -0.034705474261533135 -0.038101824352760681 0.0061715442122835104 0.0066285860103865463 -0.026133221155928019 -0.0085246450248917544 0.0075360757910477166 -0.0014981740399932148 0.0098461673773349613
leaf_weight=1800 32 452 1398 29 2005 10.999999999999998 1389 12.999999999999998 1803 1702 313 141 48 10.999999999999998 892 13.999999999999998 78 2333 442 2757 11.000000000000002 10.999999999999998 46 33 18 52 297 220 811 47
leaf_count=1800 32 452 1398 29 2005 11 1389 13 1803 1702 313 141 48 11 892 14 78 2333 442 2757 11 11 46 33 18 52 297 220 811 47
internal_value=6.03753e-12 0.00650378 0.0097186 0.0015848 0.00366549 -0.0176515 0.00612763 -0.0168135 0.0127719 0.00753887 -0.00304596 0.00288834 0.00826785 0.00633364 0.0111671 0.000468155 -0.0107535 0.0108818 -0.0240132 -0.0149067 0.0122723 -0.00829383 -0.023428 -0.0221895 -0.0100578 -0.0177088 -0.00160403 -0.00118264 0.0004296 -0.00601468
internal_weight=19209 14037 8489 5548 3828 5172 3901 4570 4588 1731 1720 1552 2349 1409 940 2097 92 2785 602 2770 163 22 591 545 103 70 1407 1375 1031 344
internal_count=19209 14037 8489 5548 3828 5172 3901 4570 4588 1731 1720 1552 2349 1409 940 2097 92 2785 602 2770 163 22 591 545 103 70 1407 1375 1031 344
is_linear=0
shrinkage=0.1


Tree=19
num_leaves=31
num_cat=0
split_feature=2 1 0 1 0 0 1 0 0 0 1 1 0 1 0 1 0 0 0 1 1 0 1 1 0 1 0 1 1 0
split_gain=178.623 18.3191 6.65873 5.83619 4.9567 2.41374 2.41226 1.76956 1.42144 1.3816 1.36164 1.98507 1.36641 1.26321 1.34574 1.32575 1.21981 1.20589 1.54985 1.13574 1.10497 1.08969 0.988563 3.67981 3.21489 1.16615 0.96644 0.948702 2.16713 2.06785
threshold=1.0000000180025095e-35 187.50000000000003 32.500000000000007 163.50000000000003 33.500000000000007 44.500000000000007 126.50000000000001 47.500000000000007 49.500000000000007 46.500000000000007 260.50000000000006 238.50000000000003 47.500000000000007 178.50000000000003 25.500000000000004 179.50000000000003 19.500000000000004 28.500000000000004 25.500000000000004 243.50000000000003 319.00000000000006 27.500000000000004 242.50000000000003 234.50000000000003 31.500000000000004 269.00000000000006 27.500000000000004 160.50000000000003 157.50000000000003 21.500000000000004
decision_type=2 2 2 2 2 2 2 2 2 2 2 2 2 2 2 2 2 2 2 2 2 2 2 2 2 2 2 2 2 2
left_child=6 3 20 9 13 19 -1 17 -6 27 11 -7 -13 14 16 -15 -5 18 -8 -4 21 -3 23 -23 -25 -24 -20 28 -2 -29
right_child=1 2 5 4 8 10 7 -9 -10 -11 -12 12 -14 15 -16 -17 -18 -19 26 -21 -22 22 25 24 -26 -27 -28 29 -30 -31
leaf_value=-0.020498756709363394 -0.0037005588094434355 0.014278241822803576 0.0068454183568806134 -0.0044807557151585386 0.00061781454408045685 -0.00082722684074389315 -0.015345545310836007 -0.024780454169494516 -0.01009110672665494 -0.01681888528279404 -0.029634126027425128 0.046406198243300119 0.0076115345339412277 0.021836426882478208 0.0026106475052475654 0.0076591918207902553 0.0095541781779195159 -0.015834142291354544 -0.0064174181108349708 0.014346728634766557 0.040543165696518765 0.010400140709002061 -0.0042730035707524905 0.044018173950203396 -0.0042617339433895221 0.02078915780875832 -0.013746310479637289 0.036245540156960486 0.0048977183859040332 -0.010273622831459656
leaf_weight=930 1016 1660 2445 69 1821 475 817 173 133 67 14.999999999999998 14.999999999999998 23 69 1306 1497 604 2477 491 220 13.999999999999998 1768 82 59 18 24 284 9.9999999999999982 412 215
leaf_count=930 1016 1660 2445 69 1821 475 817 173 133 67 15 15 23 69 1306 1497 604 2477 491 220 14 1768 82 59 18 24 284 10 412 215
internal_value=1.78593e-11 0.00585341 0.00957068 0.00234262 0.00393281 0.00624085 -0.0158864 -0.0148752 -0.000111094 -0.00274136 6.38516e-05 0.000932213 0.0229252 0.0061618 0.0044826 0.00828386 0.00811523 -0.014454 -0.0123067 0.00746466 0.0125037 0.012395 0.0107926 0.0113321 0.032732 0.00140145 -0.0091031 -0.00217077 -0.00121982 -0.0082061
internal_weight=19209 14037 6818 7219 5499 3193 5172 4242 1954 1720 528 513 38 3545 1979 1566 673 4069 1592 2665 3625 3611 1951 1845 77 106 775 1653 1428 225
internal_count=19209 14037 6818 7219 5499 3193 5172 4242 1954 1720 528 513 38 3545 1979 1566 673 4069 1592 2665 3625 3611 1951 1845 77 106 775 1653 1428 225
is_linear=0
shrinkage=0.1


Tree=20
num_leaves=31
num_cat=0
split_feature=2 1 0 1 0 0 1 0 1 1 1 0 0 1 0 1 1 0 0 0 0 0 1 0 1 1 1 1 1 1
split_gain=144.685 14.9545 7.87345 3.49421 2.616 2.2469 2.29577 2.03493 1.97996 1.7543 1.60614 1.59943 1.54919 1.46376 1.4464 1.86783 2.52935 1.31643 1.29187 1.29154 1.25323 1.20461 1.68445 1.1859 1.05683 1.05464 2.18818 1.5536 1.40155 1.04474
threshold=1.0000000180025095e-35 174.50000000000003 39.500000000000007 196.50000000000003 23.500000000000004 32.500000000000007 147.50000000000003 37.500000000000007 110.50000000000001 210.50000000000003 136.50000000000003 24.500000000000004 18.500000000000004 127.50000000000001 32.500000000000007 199.50000000000003 200.50000000000003 36.500000000000007 37.500000000000007 18.500000000000004 19.500000000000004 45.500000000000007 177.50000000000003 25.500000000000004 202.50000000000003 226.50000000000003 202.50000000000003 179.50000000000003 164.50000000000003 110.50000000000001
decision_type=2 2 2 2 2 2 2 2 2 2 2 2 2 2 2 2 2 2 2 2 2 2 2 2 2 2 2 2 2 2
left_child=7 5 3 4 19 6 8 10 11 21 29 -2 -8 -10 20 -16 17 -17 -19 -3 24 -4 -23 -14 -5 26 27 28 -12 -1
right_child=1 2 9 14 -6 -7 12 -9 13 -11 25 -13 23 -15 15 16 -18 18 -20 -21 -22 22 -24 -25 -26 -27 -28 -29 -30 -31
leaf_value=-0.026076971061284777 -0.014683918210749443 -0.0086041197249734844 0.0016770000718711146 -0.032756933332844206 0.0057635541958348212 -0.0035178306328843677 -0.017162331977957173 -0.018154220315137134 -0.041727862986070771 0.006612317485480146 -0.012168119496625539 0.028275352379736992 0.0064618429854850883 -0.0083890639520292215 0.020631441964373529 -0.014694795704838871 0.0085142592408507089 0.030895341249803705 -0.0057068121654016007 0.013767810921523384 0.012478170162527322 -0.020958080645650627 -0.0023745763115584854 0.0013367158816367086 0.0061915679197562376 -0.035792433160046738 0.014480423973873259 -0.021030572497106173 -0.0050689635012442103 -0.01510385382730136
leaf_weight=92 12.999999999999998 27 920 11.000000000000002 4145 1348 38 1082 13.999999999999998 469 1927 26 715 222 111 76 1177 14.999999999999998 27 583 2370 55 431 1225 19 18 32 171 325 1525
leaf_count=92 13 27 920 11 4145 1348 38 1082 14 469 1927 26 715 222 111 76 1177 15 27 583 2370 55 431 1225 19 18 32 171 325 1525
internal_value=2.68162e-11 0.00526806 0.00718538 0.00847083 0.00666336 -0.000288476 0.00164369 -0.0142977 -0.00691743 0.0013162 -0.0132775 0.0139556 0.00283394 -0.0103668 0.010729 0.00818202 0.00711492 -0.00684287 0.00736539 0.0127776 0.0122211 -0.000450424 -0.00447765 0.00322562 -0.00808955 -0.0116751 -0.0114983 -0.0118414 -0.0111436 -0.0157282
internal_weight=19209 14037 10436 8561 4755 3601 2253 5172 275 1875 4090 39 1978 236 3806 1406 1295 118 42 610 2400 1406 486 1940 30 2473 2455 2423 2252 1617
internal_count=19209 14037 10436 8561 4755 3601 2253 5172 275 1875 4090 39 1978 236 3806 1406 1295 118 42 610 2400 1406 486 1940 30 2473 2455 2423 2252 1617
is_linear=0
shrinkage=0.1


Tree=21
num_leaves=31
num_cat=0
split_feature=2 1 0 1 0 1 0 0 0 0 1 0 1 1 1 0 0 1 0 1 0 0 1 1 1 1 1 0 1 1
split_gain=117.195 12.3953 4.67733 4.00728 3.20822 1.79862 1.68453 1.90499 1.66307 1.50168 1.35988 1.22031 1.17102 1.13349 1.05863 1.05479 1.48003 1.02763 2.29667 1.00637 0.98276 1.79815 1.68081 1.20363 0.986953 0.956033 1.50825 1.49813 1.23878 0.93657
threshold=1.0000000180025095e-35 187.50000000000003 38.500000000000007 168.50000000000003 30.500000000000004 122.50000000000001 27.500000000000004 25.500000000000004 27.500000000000004 42.500000000000007 169.50000000000003 47.500000000000007 269.00000000000006 145.50000000000003 165.50000000000003 19.500000000000004 27.500000000000004 144.50000000000003 23.500000000000004 223.50000000000003 31.500000000000004 32.500000000000007 182.50000000000003 182.50000000000003 171.50000000000003 270.50000000000006 284.50000000000006 39.500000000000007 255.50000000000003 183.50000000000003
decision_type=2 2 2 2 2 2 2 2 2 2 2 2 2 2 2 2 2 2 2 2 2 2 2 2 2 2 2 2 2 2
left_child=5 3 8 9 10 -1 7 -7 -3 15 -5 13 -10 -8 -11 -2 17 18 -17 -4 23 22 24 -6 -22 27 -27 -21 -29 -24
right_child=1 2 19 4 20 6 11 -9 12 14 -12 -13 -14 -15 -16 16 -18 -19 -20 25 21 -23 29 -25 -26 26 -28 28 -30 -31
leaf_value=-0.018104990769463314 -0.01156822113608498 0.011799118789409719 0.0015020873662218463 0.023629101577468895 -0.010183323970545204 -0.012211211997736351 -0.014776400448092687 -0.004657094778233002 0.0077246936728169501 -0.011921028759493732 0.0058811266935485688 -0.021275904652552937 0.020032828320053559 -0.01086431523750489 0.0072083187837372808 -0.024447981833775598 -0.0021111980840453821 0.0044895816887072738 0.0067013907495753052 0.029247759979750428 0.00028487827075878157 0.00062734540394166285 -0.029734469679268922 0.0060286538388866651 0.020016088359082713 -0.033020711796624323 0.0097746660700067881 0.0045106373466640426 0.027656410958689565 0.0021821737347636374
leaf_weight=582 84 1666 1177 44 155 877 1622 539 3592 194 2294 189 79 1363 34 41 1423 731 56 35 32 1877 10.999999999999998 65 122 13.999999999999998 20 209 26 56
leaf_count=582 84 1666 1177 44 155 877 1622 539 3592 194 2294 189 79 1363 34 41 1423 731 56 35 32 1877 11 65 122 14 20 209 26 56
internal_value=-1.61719e-11 0.00474126 0.00779901 0.00185336 0.00360141 -0.012868 -0.0122039 -0.00933574 0.00917876 -0.00132219 0.00621513 -0.0134835 0.00798956 -0.0129901 -0.00906841 -0.000565812 -0.000155238 0.00320627 -0.00646484 0.00282689 0.000965132 0.0016319 0.0101638 -0.00539342 0.0159161 0.00795613 -0.00784696 0.00994615 0.00707145 -0.00305787
internal_weight=19209 14037 6818 7219 4656 5172 4590 1416 5337 2563 2338 3174 3671 2985 228 2335 2251 828 97 1481 2318 2098 221 220 154 304 34 270 235 67
internal_count=19209 14037 6818 7219 4656 5172 4590 1416 5337 2563 2338 3174 3671 2985 228 2335 2251 828 97 1481 2318 2098 221 220 154 304 34 270 235 67
is_linear=0
shrinkage=0.1


Tree=22
num_leaves=31
num_cat=0
split_feature=2 1 0 1 0 1 1 0 1 0 0 1 1 1 0 1 0 1 0 0 1 1 0 0 0 0 1 0 0 1
split_gain=94.9277 10.0702 5.50112 2.78612 1.9975 1.68657 1.65939 1.71346 1.54984 1.52633 1.40785 1.12778 1.6518 1.24044 1.10281 1.09601 1.883 1.05428 0.972338 1.13597 1.17375 1.04558 1.26382 0.932252 0.927128 1.74937 1.0784 0.922032 0.904653 0.932307
threshold=1.0000000180025095e-35 171.50000000000003 36.500000000000007 202.50000000000003 23.500000000000004 170.50000000000003 154.50000000000003 25.500000000000004 193.50000000000003 34.500000000000007 18.500000000000004 101.50000000000001 85.500000000000014 122.50000000000001 49.500000000000007 204.50000000000003 24.500000000000004 127.50000000000001 19.500000000000004 28.500000000000004 144.50000000000003 153.50000000000003 23.500000000000004 50.500000000000007 28.500000000000004 34.500000000000007 203.50000000000003 19.500000000000004 27.500000000000004 269.00000000000006
decision_type=2 2 2 2 2 2 2 2 2 2 2 2 2 2 2 2 2 2 2 2 2 2 2 2 2 2 2 2 2 2
left_child=9 5 3 4 10 6 11 27 -4 -1 -3 12 -2 -13 -9 16 -5 -11 -15 20 -20 -22 -23 -16 -18 26 -26 -8 -17 -30
right_child=1 2 8 15 -6 -7 7 14 -10 17 -12 13 -14 18 23 28 24 -19 19 -21 21 22 -24 -25 25 -27 -28 -29 29 -31
leaf_value=-0.01045995039723021 -0.0026114726543892178 -0.009828935784753412 -0.00048697559637826329 -0.014526058633678727 0.0050389640571147712 -0.01391560065970626 -0.0054125570258698784 3.635796636859797e-06 0.0041220918008152106 -0.019406251224333971 0.011623586013372118 -0.040447537600994114 0.033198000353417904 -0.021453481518855209 -0.039855222573334521 0.01238006540914071 0.038942260265110003 -0.012899226480787632 -0.0090639388943289795 -0.0076161534708042286 0.0090045024383025585 -0.036482893365124863 0.0032635598133007684 -0.0078646265848908783 -0.0074235376591483757 0.04317620826983138 0.024017362445592882 0.0072351944331955249 0.0076690542467557979 0.019452261017369375
leaf_weight=3627 40 32 1330 13.999999999999998 4605 93 65 1736 1616 312 695 9.9999999999999982 19 34 10.999999999999998 716 31 1233 82 380 149 11.999999999999998 24 53 24 19 20 509 1648 70
leaf_count=3627 40 32 1330 14 4605 93 65 1736 1616 312 695 10 19 34 11 716 31 1233 82 380 149 12 24 53 24 19 20 509 1648 70
internal_value=-2.28975e-11 0.00426713 0.0057276 0.00710681 0.00580801 -0.000644994 -0.000249934 0.00104548 0.00204128 -0.0115812 0.0106793 -0.00435036 0.00892039 -0.00548346 -0.000471623 0.00983114 0.0196887 -0.0142133 -0.00497004 -0.00410383 0.000894976 0.0053092 -0.00998526 -0.013363 0.0247845 0.0178179 0.00686778 0.00580296 0.00939375 0.00814916
internal_weight=19209 14037 10820 7874 5332 3217 3124 2374 2946 5172 727 750 59 691 1800 2542 108 1545 681 647 267 185 36 64 94 63 44 574 2434 1718
internal_count=19209 14037 10820 7874 5332 3217 3124 2374 2946 5172 727 750 59 691 1800 2542 108 1545 681 647 267 185 36 64 94 63 44 574 2434 1718
is_linear=0
shrinkage=0.1


Tree=23
num_leaves=31
num_cat=0
split_feature=2 1 0 1 0 0 1 1 0 1 1 0 0 0 0 1 0 0 1 0 0 0 1 1 0 1 1 0 0 0
split_gain=76.8914 8.43594 4.11405 2.20665 1.65766 1.44036 1.39625 1.25009 1.18676 1.16452 1.48417 1.09364 1.01611 1.01394 1.31158 0.957986 1.65572 1.63974 1.3919 1.17797 0.928972 0.891297 0.876544 0.818751 0.790452 0.787106 1.24792 1.17823 2.77361 1.30327
threshold=1.0000000180025095e-35 183.50000000000003 32.500000000000007 163.50000000000003 26.500000000000004 44.500000000000007 145.50000000000003 179.50000000000003 34.500000000000007 260.50000000000006 238.50000000000003 47.500000000000007 18.500000000000004 40.500000000000007 35.500000000000007 160.50000000000003 21.500000000000004 26.500000000000004 157.50000000000003 30.500000000000004 26.500000000000004 25.500000000000004 210.50000000000003 202.50000000000003 29.500000000000004 164.50000000000003 160.50000000000003 31.500000000000004 26.500000000000004 34.500000000000007
decision_type=2 2 2 2 2 2 2 2 2 2 2 2 2 2 2 2 2 2 2 2 2 2 2 2 2 2 2 2 2 2
left_child=6 3 23 15 12 22 8 25 -1 10 -7 -12 -5 14 -9 18 -17 -18 -2 24 21 -20 -4 -3 -19 26 -8 28 -28 -29
right_child=1 2 5 4 -6 9 7 13 -10 -11 11 -13 -14 -15 -16 16 17 19 20 -21 -22 -23 -24 -25 -26 -27 27 29 -30 -31
leaf_value=-0.010484593544477229 -0.0030491903087407502 0.0068650536717528013 0.0031857611311224918 -0.012659795653695863 0.00099514577910651499 -0.0014844114065834732 -0.0076675268676457912 -0.015573512540443219 -0.014748379362472308 -0.028414892752965295 0.03993246297041575 0.0052252435811248653 0.0059960964607050889 -0.027820313432590761 0.0018448558771474795 0.031899733156897127 -0.025478355463722027 -0.0012702072761021557 0.0069200544094735195 -0.010795900139103955 0.00058574315889304738 0.02858317040068948 0.006728369994234526 0.0096423321139739952 0.023963754712086588 -0.0035944276243597938 -0.040671578384935861 -0.061448344588279726 0.0047519493620933563 -0.0215477155870758
leaf_weight=2190 1057 2581 2086 30 3055 571 1224 202 930 14.999999999999998 14.999999999999998 23 1088 47 55 9.9999999999999982 51 40 109 120 292 23 1050 1803 18 420 20 10.999999999999998 41 32
leaf_count=2190 1057 2581 2086 30 3055 571 1224 202 930 15 15 23 1088 47 55 10 51 40 109 120 292 23 1050 1803 18 420 20 11 41 32
internal_value=3.71095e-11 0.00384042 0.00592577 0.000958511 0.00220085 0.00349884 -0.010423 -0.00839703 -0.0117555 -0.00088887 -0.000210889 0.0189255 0.00549549 -0.0143156 -0.0118458 -0.0020556 -0.00793041 -0.00966972 -0.00110753 -0.00514027 0.00373287 0.0106947 0.0043719 0.00800726 0.00656102 -0.00736772 -0.00856108 -0.0190775 -0.010141 -0.0317549
internal_weight=19209 14037 8144 5893 4173 3760 5172 2052 3120 624 609 38 1118 304 257 1720 239 229 1481 178 424 132 3136 4384 58 1748 1328 104 61 43
internal_count=19209 14037 8144 5893 4173 3760 5172 2052 3120 624 609 38 1118 304 257 1720 239 229 1481 178 424 132 3136 4384 58 1748 1328 104 61 43
is_linear=0
shrinkage=0.1


Tree=24
num_leaves=31
num_cat=0
split_feature=2 1 0 0 1 1 1 0 0 1 0 0 1 1 0 1 1 1 0 0 1 1 0 0 1 1 1 1 1 1
split_gain=62.282 6.98001 2.73976 2.25919 2.0181 1.28504 1.21133 1.20897 1.52813 1.12918 1.08108 1.05995 1.03187 1.15441 0.975593 0.939717 1.34296 1.10124 0.886101 0.862999 1.04769 1.27499 1.16947 0.845296 1.21625 0.824411 0.977742 0.774198 0.837561 1.24635
threshold=1.0000000180025095e-35 187.50000000000003 38.500000000000007 33.500000000000007 147.50000000000003 122.50000000000001 110.50000000000001 27.500000000000004 25.500000000000004 169.50000000000003 24.500000000000004 26.500000000000004 178.50000000000003 179.50000000000003 51.500000000000007 286.00000000000006 283.50000000000006 295.50000000000006 26.500000000000004 21.500000000000004 190.50000000000003 212.50000000000003 20.500000000000004 50.500000000000007 184.50000000000003 186.50000000000003 163.50000000000003 145.50000000000003 226.50000000000003 214.50000000000003
decision_type=2 2 2 2 2 2 2 2 2 2 2 2 2 2 2 2 2 2 2 2 2 2 2 2 2 2 2 2 2 2
left_child=5 3 11 4 6 -1 10 8 -7 -5 -2 19 -6 18 27 16 -13 -17 -14 20 22 -22 -3 -11 -25 26 -10 -9 29 -29
right_child=1 2 -4 9 12 7 -8 14 25 23 -12 15 13 -15 -16 17 -18 -19 -20 -21 21 -23 -24 24 -26 -27 -28 28 -30 -31
leaf_value=-0.013807366609983818 -0.013055458650566065 0.039539898099998638 0.0019455539704898103 -0.0040314647537297577 0.0019780004692057404 -0.0089650215142942271 -0.008110923490072806 -0.011080964701127051 -0.0032008118959275045 0.00093938079362388077 0.022044340610780099 0.0059508219233262204 0.034951360523700715 0.004589182291742609 -0.021022206764250945 0.049931489825248726 -0.030741300955414774 0.011767581835268968 0.010322978867528339 0.010352009482017364 -0.0052200515339730167 0.019224189193202901 0.0021881078516966419 -0.0044293643744743386 -0.038922987629969916 -0.024559067469090225 0.0095756499987581511 -0.007875815628428165 -0.027730287274434454 0.025918129628354852
leaf_weight=582 12.999999999999998 14.999999999999998 1481 876 2856 877 249 1678 454 1551 27 4001 21 1497 77 9.9999999999999982 9.9999999999999982 31 48 1106 119 26 19 69 11.999999999999998 15.999999999999998 69 1387 21 10.999999999999998
leaf_count=582 13 15 1481 876 2856 877 249 1678 454 1551 27 4001 21 1497 77 10 10 31 48 1106 119 26 19 69 12 16 69 1387 21 11
internal_value=-2.11952e-11 0.00345638 0.00575094 0.00128927 0.00258003 -0.00938074 -0.00551607 -0.00881945 -0.00638963 -0.00113528 0.0106369 0.00680693 0.00310915 0.00517209 -0.00990345 0.00601331 0.00585934 0.0210759 0.0178186 0.00930945 0.00286768 -0.000836946 0.0186668 0.000419288 -0.00953953 -0.00219925 -0.0015152 -0.00962701 -0.00790768 -0.00760991
internal_weight=19209 14037 6818 7219 4711 5172 289 4590 1416 2508 40 5337 4422 1566 3174 4052 4011 41 69 1285 179 145 34 1632 81 539 523 3097 1419 1398
internal_count=19209 14037 6818 7219 4711 5172 289 4590 1416 2508 40 5337 4422 1566 3174 4052 4011 41 69 1285 179 145 34 1632 81 539 523 3097 1419 1398
is_linear=0
shrinkage=0.1


Tree=25
num_leaves=31
num_cat=0
split_feature=2 1 0 1 0 1 0 0 1 1 0 0 1 1 1 0 0 1 0 1 1 1 0 0 1 0 0 1 1 1
split_gain=50.4484 5.65381 2.31064 1.8842 1.73691 1.11943 1.06245 0.995413 0.966113 1.16651 0.88585 0.823257 0.950671 0.860483 0.805815 1.32481 1.37116 1.05323 0.901675 0.739877 0.727375 0.715316 0.71108 1.2142 0.709554 0.707542 0.72195 0.673873 0.667318 1.3896
threshold=1.0000000180025095e-35 187.50000000000003 32.500000000000007 163.50000000000003 30.500000000000004 115.50000000000001 47.500000000000007 44.500000000000007 260.50000000000006 238.50000000000003 47.500000000000007 50.500000000000007 184.50000000000003 167.50000000000003 160.50000000000003 21.500000000000004 26.500000000000004 157.50000000000003 30.500000000000004 319.00000000000006 94.500000000000014 172.50000000000003 27.500000000000004 25.500000000000004 188.50000000000003 26.500000000000004 25.500000000000004 234.50000000000003 101.50000000000001 78.500000000000014
decision_type=2 2 2 2 2 2 2 2 2 2 2 2 2 2 2 2 2 2 2 2 2 2 2 2 2 2 2 2 2 2
left_child=5 3 19 14 -5 20 22 24 9 -9 -11 -6 13 -13 17 -16 -17 28 -18 -3 -1 -15 23 -7 -4 26 -19 -26 29 -2
right_child=1 2 7 4 11 6 -8 8 -10 10 -12 12 -14 21 15 16 18 25 -20 -21 -22 -23 -24 -25 27 -27 -28 -29 -30 -31
leaf_value=0.0059980272781103849 -0.012858225626959688 0.0068146529693391958 0.015922670720183118 0.0038337072503676437 0.00061679627612783736 -0.0082157217927040557 -0.015125039230706622 -0.0013697069256090081 -0.025767958362897237 0.035744660695393886 0.004508163743530926 -0.029911885162194569 -0.035030688469608627 0.012356527851751217 0.02851195983588696 -0.023128319221238296 0.0057071206312433913 0.0060302492777962206 -0.0094784243055619308 0.029847944064282012 -0.015979751330905855 -0.0080930315181612974 -0.0086397201525353386 -0.0023908938137436864 0.0031244678220566195 0.00060514551818638743 0.025527053844669592 0.0077250490072975232 -0.0031587760603519152 0.019194881038397157
leaf_weight=15.999999999999998 21 3611 49 2761 2638 945 206 475 14.999999999999998 14.999999999999998 23 11.999999999999998 11.999999999999998 26 9.9999999999999982 51 58 109 120 13.999999999999998 256 50 3173 576 2245 292 23 371 998 38
leaf_count=16 21 3611 49 2761 2638 945 206 475 15 15 23 12 12 26 10 51 58 109 120 14 256 50 3173 576 2245 292 23 371 998 38
internal_value=2.0284e-12 0.00311074 0.00517585 0.00116034 0.00206388 -0.00844266 -0.00809604 0.00321433 -0.00075241 -2.09612e-05 0.0168384 0.000279188 -0.00862693 -0.00502641 -0.00172836 -0.00711641 -0.00867224 -0.000858848 -0.00453033 0.00690361 -0.0146869 -0.00109713 -0.00778757 -0.00600987 0.00400024 0.0033517 0.00942742 0.00377692 -0.00254785 0.00778615
internal_weight=19209 14037 6818 7219 5499 5172 4900 3193 528 513 38 2738 100 88 1720 239 229 1481 178 3625 272 76 4694 1521 2665 424 132 2616 1057 59
internal_count=19209 14037 6818 7219 5499 5172 4900 3193 528 513 38 2738 100 88 1720 239 229 1481 178 3625 272 76 4694 1521 2665 424 132 2616 1057 59
is_linear=0
shrinkage=0.1


Tree=26
num_leaves=31
num_cat=0
split_feature=2 1 0 1 1 0 1 1 1 0 0 1 1 0 0 1 0 1 1 0 0 1 1 0 0 1 1 1 1 1
split_gain=40.8632 4.66168 2.8518 1.50197 1.28872 1.99687 1.77025 1.68368 1.18212 1.56253 1.12941 1.0772 1.99411 1.02632 1.25204 1.05605 1.57722 0.939753 0.939157 0.801023 0.788388 0.777037 0.75193 0.731567 0.729524 0.721568 2.16302 1.45855 0.825257 1.49181
threshold=1.0000000180025095e-35 171.50000000000003 39.500000000000007 170.50000000000003 197.50000000000003 23.500000000000004 199.50000000000003 202.50000000000003 204.50000000000003 24.500000000000004 48.500000000000007 340.50000000000006 322.50000000000006 19.500000000000004 25.500000000000004 144.50000000000003 23.500000000000004 210.50000000000003 112.50000000000001 37.500000000000007 27.500000000000004 94.500000000000014 168.50000000000003 24.500000000000004 18.500000000000004 267.00000000000006 254.50000000000003 279.50000000000006 237.50000000000003 227.50000000000003
decision_type=2 2 2 2 2 2 2 2 2 2 2 2 2 2 2 2 2 2 2 2 2 2 2 2 2 2 2 2 2 2
left_child=18 3 4 10 5 24 -6 -8 9 -9 13 12 20 -2 15 16 -15 -4 21 -20 25 -1 -17 -23 -3 26 28 -27 29 -10
right_child=1 2 17 -5 6 -7 7 8 11 -11 -12 -13 -14 14 -16 22 -18 -19 19 -21 -22 23 -24 -25 -26 27 -28 -29 -30 -31
leaf_value=0.0053982244804501537 -0.0098026211120886744 -0.0068449714807151205 -0.0009045350653495162 -0.013065778997836895 0.013372535118431415 0.0027659232708523033 2.8805380528555812e-05 -0.015309436739023245 0.0076717759771098466 0.020276134760710052 -0.01114669068285346 -0.024059430696070194 0.04845939481800253 -0.02000652024658715 -0.00063788519992049317 0.0037990531707834071 0.010465746353669413 0.0042318804182364415 -0.0067175030925236863 -0.0098242249769509692 0.0048178386765541543 -0.0012680311263962227 0.012467893927832992 -0.021228922189733535 0.0093766123155457157 -0.033414196223020547 0.04258700297459176 0.012705837655812503 -0.0029221402484158024 0.023195952739832659
leaf_weight=15.999999999999998 100 29 1481 93 297 4466 511 13.999999999999998 535 104 91 11.999999999999998 10.999999999999998 41 2251 486 29 469 3974 1049 2085 22 126 111 630 12.000000000000002 19 15.999999999999998 59 70
leaf_count=16 100 29 1481 93 297 4466 511 14 535 104 91 12 11 41 2251 486 29 469 3974 1049 2085 22 126 111 630 12 19 16 59 70
internal_value=1.61873e-11 0.00279967 0.00379334 -0.000542454 0.00455455 0.00352417 0.00596461 0.00532652 0.00624825 0.0160541 -0.00016964 0.00583779 0.0059656 0.000159707 0.000499371 0.00425298 -0.0073823 0.000330839 -0.0075984 -0.00736631 0.00579842 -0.0154224 0.00558381 -0.0179271 0.00866276 0.00867396 0.00931898 -0.00705989 0.00836703 0.00946796
internal_weight=19209 14037 10820 3217 8870 5125 3745 3448 2937 118 3124 2819 2807 3033 2933 682 70 1950 5172 5023 2796 149 612 133 659 711 683 28 664 605
internal_count=19209 14037 10820 3217 8870 5125 3745 3448 2937 118 3124 2819 2807 3033 2933 682 70 1950 5172 5023 2796 149 612 133 659 711 683 28 664 605
is_linear=0
shrinkage=0.1


Tree=27
num_leaves=31
num_cat=0
split_feature=2 1 0 0 0 1 1 0 1 1 0 0 1 0 0 1 1 0 0 0 0 1 0 1 0 1 1 0 1 0
split_gain=33.0992 3.86373 2.02041 1.17765 1.10051 0.918657 2.17128 0.986984 0.885086 1.49304 1.69923 0.899968 0.848106 1.11325 0.813452 0.798435 0.795342 0.959724 1.0387 0.779842 0.762823 1.0543 1.15331 0.86155 0.728178 0.709885 0.701083 0.629809 0.784144 0.948136
threshold=1.0000000180025095e-35 183.50000000000003 32.500000000000007 37.500000000000007 18.500000000000004 180.50000000000003 182.50000000000003 41.500000000000007 154.50000000000003 155.50000000000003 29.500000000000004 51.500000000000007 186.50000000000003 25.500000000000004 42.500000000000007 163.50000000000003 210.50000000000003 52.500000000000007 53.500000000000007 41.500000000000007 26.500000000000004 144.50000000000003 23.500000000000004 140.50000000000003 34.500000000000007 108.50000000000001 194.50000000000003 19.500000000000004 184.50000000000003 24.500000000000004
decision_type=2 2 2 2 2 2 2 2 2 2 2 2 2 2 2 2 2 2 2 2 2 2 2 2 2 2 2 2 2 2
left_child=8 3 27 4 -2 -5 7 -7 19 14 12 -12 13 -11 -10 -15 17 -4 -19 -1 21 22 23 -6 -18 -21 -14 -3 29 -29
right_child=1 2 16 5 20 6 -8 -9 9 10 11 -13 26 15 -16 -17 24 18 -20 25 -22 -23 -24 -25 -26 -27 -28 28 -30 -31
leaf_value=-0.0070876018391398919 -0.01194302304197223 -0.0037576151404504644 0.0014604716149958933 -0.0030194258305712412 -0.010385318081825972 0.0015372167407934154 -0.011062597741838546 0.028427089111974991 0.0013199189939441976 -0.0060003676602173074 -0.0086729283224081175 -0.034294197921242033 -0.024620646009078394 -0.0015956051366509132 0.023087609922023199 0.010139032794177183 0.0090075630663285187 -0.038708773526983958 -0.0037265122129485524 -0.036598797277970746 0.00053362113829941149 0.0038764434311562485 0.0051759870545495124 -0.041986180706457661 0.0030552804926200273 -0.010880890837923216 -0.0034213014615651891 -0.0034080535063848779 0.0053837639783311242 0.024312409692340428
leaf_weight=3388 62 74 2478 1119 40 21 40 39 178 160 661 13.999999999999998 26 106 19 128 260 11.999999999999998 29 10.999999999999998 3016 1503 42 10.999999999999998 981 442 39 17 4248 45
leaf_count=3388 62 74 2478 1119 40 21 40 39 178 160 661 14 26 106 19 128 260 12 29 11 3016 1503 42 11 981 442 39 17 4248 45
internal_value=6.87169e-12 0.0025197 0.00393099 0.000569329 0.00129126 -0.00219877 0.00698434 0.0190156 -0.00683856 -0.00461629 -0.00601225 -0.00920433 -0.00131801 0.000427927 0.00341934 0.00482334 0.00223023 0.0012094 -0.0139652 -0.00760863 0.00146917 0.00323711 -0.00709537 -0.0172012 0.00430233 -0.0115054 -0.011901 0.00538966 0.00554672 0.0167116
internal_weight=19209 14037 8144 5893 4674 1219 100 60 5172 1331 1134 675 459 394 197 234 3760 2519 41 3841 4612 1596 93 51 1241 453 65 4384 4310 62
internal_count=19209 14037 8144 5893 4674 1219 100 60 5172 1331 1134 675 459 394 197 234 3760 2519 41 3841 4612 1596 93 51 1241 453 65 4384 4310 62
is_linear=0
shrinkage=0.1


Tree=28
num_leaves=31
num_cat=0
split_feature=2 1 0 1 1 0 1 1 1 0 1 1 0 1 1 0 1 0 0 1 1 0 1 0 0 0 0 1 0 0
split_gain=26.8104 3.24134 1.99914 1.21395 0.892068 1.58422 1.45482 1.33086 0.980584 1.26904 0.8752 1.61465 0.854151 0.757113 0.75587 0.731775 1.41435 0.932595 0.713161 0.700892 1.74397 0.693156 0.692979 0.668406 1.05501 1.40788 0.655966 1.61269 0.620609 0.611206
threshold=1.0000000180025095e-35 171.50000000000003 39.500000000000007 170.50000000000003 197.50000000000003 23.500000000000004 199.50000000000003 202.50000000000003 204.50000000000003 24.500000000000004 340.50000000000006 322.50000000000006 48.500000000000007 122.50000000000001 168.50000000000003 33.500000000000007 198.50000000000003 28.500000000000004 44.500000000000007 180.50000000000003 182.50000000000003 51.500000000000007 198.50000000000003 20.500000000000004 26.500000000000004 25.500000000000004 28.500000000000004 203.50000000000003 27.500000000000004 24.500000000000004
decision_type=2 2 2 2 2 2 2 2 2 2 2 2 2 2 2 2 2 2 2 2 2 2 2 2 2 2 2 2 2 2
left_child=13 3 4 12 5 -3 15 23 9 -9 11 28 14 -1 -2 16 -6 -18 -16 -4 -21 -15 -17 -8 25 -25 -11 -28 29 -10
right_child=1 2 19 -5 6 -7 7 8 10 26 -12 -13 -14 21 18 22 17 -19 -20 20 -22 -23 -24 24 -26 -27 27 -29 -30 -31
leaf_value=-0.0095524871415123384 -0.00063391347412673207 0.0074533339168822354 -0.0036689510998296399 -0.011777842506485921 0.0043444517708508771 0.002201002342514104 -0.025981007032096388 -0.014186278411320278 0.0036091882724102347 0.030070894698221842 -0.022174643934704363 0.043126807565038859 -0.0097300792230641132 -0.0055633532416959073 0.0028145042767273691 0.025701565547761592 0.009964878240535999 0.035551082236426217 0.023058273953696095 0.020311055186650027 0.00054866784819960839 -0.015131848909009199 0.0007820757388669466 0.001965382930975926 -0.0022763257800766123 0.027727575041353703 -0.0015562301207529871 0.028195462727120948 0.0038687574713741043 0.0096254868873919576
leaf_weight=582 2491 659 378 93 171 4466 9.9999999999999982 13.999999999999998 276 31 11.999999999999998 10.999999999999998 91 4513 524 55 29 28 18 46 1526 77 13.999999999999998 79 393 29 38 35 2085 435
leaf_count=582 2491 659 378 93 171 4466 10 14 276 31 12 11 91 4513 524 55 29 28 18 46 1526 77 14 79 393 29 38 35 2085 435
internal_value=-3.62753e-11 0.00226773 0.00309631 -0.000519119 0.00373364 0.00287638 0.0049068 0.00432835 0.00514783 0.0140788 0.00477399 0.0048892 -0.000183952 -0.0061547 0.000102463 0.0116224 0.00889172 0.0225335 0.00348681 0.000197288 0.00112696 -0.00572387 0.0206454 -0.000381685 0.000129279 0.00888301 0.0178837 0.0127083 0.00473876 0.00729005
internal_weight=19209 14037 10820 3217 8870 5125 3745 3448 2937 118 2819 2807 3124 5172 3033 297 228 57 542 1950 1572 4590 69 511 501 108 104 73 2796 711
internal_count=19209 14037 10820 3217 8870 5125 3745 3448 2937 118 2819 2807 3124 5172 3033 297 228 57 542 1950 1572 4590 69 511 501 108 104 73 2796 711
is_linear=0
shrinkage=0.1


Tree=29
num_leaves=31
num_cat=0
split_feature=2 1 0 1 0 1 1 1 1 1 1 1 1 0 0 0 1 0 0 1 1 0 1 1 0 1 1 1 0 1
split_gain=21.7164 2.72792 1.16802 1.07985 1.14729 2.42212 1.92026 1.02475 1.02032 0.988123 1.04741 0.950665 2.86852 0.936876 0.77395 0.776199 1.00175 0.712229 0.772165 1.24359 1.7633 1.57614 0.712121 1.36067 2.716 1.23799 1.1264 1.11604 1.07925 0.865929
threshold=1.0000000180025095e-35 187.50000000000003 29.500000000000004 234.50000000000003 31.500000000000004 242.50000000000003 249.50000000000003 154.50000000000003 232.50000000000003 250.50000000000003 257.50000000000006 211.50000000000003 210.50000000000003 26.500000000000004 46.500000000000007 49.500000000000007 216.50000000000003 20.500000000000004 24.500000000000004 249.50000000000003 243.50000000000003 27.500000000000004 227.50000000000003 230.50000000000003 26.500000000000004 220.50000000000003 234.50000000000003 235.50000000000003 28.500000000000004 218.50000000000003
decision_type=2 2 2 2 2 2 2 2 2 2 2 2 2 2 2 2 2 2 2 2 2 2 2 2 2 2 2 2 2 2
left_child=-1 7 9 8 5 -5 -7 -2 14 11 -11 12 -3 -9 -4 16 -16 -13 -19 20 22 -22 25 24 -24 28 -25 -28 -20 -30
right_child=1 2 3 4 -6 6 -8 13 -10 10 -12 17 -14 -15 15 -17 -18 18 19 -21 21 -23 23 26 -26 -27 27 -29 29 -31
leaf_value=-0.0055392308412900429 -0.0028129391887225211 0.0048413622070935742 0.0024343304254366206 0.039026087010279299 0.0046711061238927697 -0.030972610972821713 0.014386194800248459 0.0030828567355426525 -0.022547335085897326 -0.025549460677430039 0.00093131799377122165 0.034382305362007835 -0.03907250630358855 0.00036445532325163148 -0.0050427427358894807 0.0017106882519966485 -0.030314026488405133 0.0017008134400532619 0.0083342563740150654 0.037194818104891218 -0.044753638892011199 0.010100700967013836 0.061476485451890363 -0.02014575878327543 0.0096135957085567991 -0.0031090933557910224 0.032756161423666136 0.0024858402618174926 0.016229007776322156 0.044188648974522952
leaf_weight=5172 750 1784 3487 32 474 11.999999999999998 42 1731 17 20 59 10.999999999999998 14.999999999999998 4738 122 174 18 123 167 17 11.000000000000002 9.9999999999999982 18 10.999999999999998 23 69 21 29 36 15.999999999999998
leaf_count=5172 750 1784 3487 32 474 12 42 1731 17 20 59 11 15 4738 122 174 18 123 167 17 11 10 18 11 23 69 21 29 36 16
internal_value=2.32647e-11 0.00204096 0.00347542 0.00249828 0.00659909 0.0172254 0.00430646 0.000686177 0.0018968 0.00522865 -0.00577268 0.00559676 0.00447521 0.00109186 0.00200613 -0.00274907 -0.00829191 0.00918691 0.00868392 0.0106907 0.00959447 -0.0186325 0.0111144 0.0182947 0.0323827 0.00857138 0.00882566 0.0151994 0.0122515 0.024832
internal_weight=19209 14037 6818 4378 560 86 54 7219 3818 2440 79 2361 1799 6469 3801 314 140 562 551 428 411 21 390 102 41 288 61 50 219 52
internal_count=19209 14037 6818 4378 560 86 54 7219 3818 2440 79 2361 1799 6469 3801 314 140 562 551 428 411 21 390 102 41 288 61 50 219 52
is_linear=0
shrinkage=0.1


Tree=30
num_leaves=31
num_cat=0
split_feature=2 1 0 1 1 1 0 1 0 1 1 1 0 1 1 0 0 0 1 1 1 1 1 0 1 0 0 1 1 1
split_gain=17.5903 2.25799 1.52169 0.997513 0.911717 0.889682 0.83207 0.989667 0.869878 1.96192 1.55541 0.824357 0.783691 1.57239 0.757738 0.76122 0.69476 0.976121 0.706055 1.10964 2.75629 0.684689 1.21292 1.36869 0.686966 0.901731 0.675943 0.672099 1.13425 0.848402
threshold=1.0000000180025095e-35 171.50000000000003 44.500000000000007 170.50000000000003 177.50000000000003 260.50000000000006 29.500000000000004 234.50000000000003 31.500000000000004 242.50000000000003 249.50000000000003 232.50000000000003 47.500000000000007 175.50000000000003 238.50000000000003 48.500000000000007 19.500000000000004 27.500000000000004 152.50000000000003 101.50000000000001 78.500000000000014 154.50000000000003 155.50000000000003 29.500000000000004 186.50000000000003 25.500000000000004 42.500000000000007 250.50000000000003 209.50000000000003 257.50000000000006
decision_type=2 2 2 2 2 2 2 2 2 2 2 2 2 2 2 2 2 2 2 2 2 2 2 2 2 2 2 2 2 2
left_child=21 3 6 16 12 14 27 11 9 -9 -11 -8 -4 -14 -6 -16 -2 -18 19 20 -19 -1 26 24 25 -24 -23 28 -3 -29
right_child=1 2 4 -5 5 -7 7 8 -10 10 -12 -13 13 -15 15 -17 17 18 -20 -21 -22 22 23 -25 -26 -27 -28 29 -30 -31
leaf_value=-0.005662612591716229 -0.0083860622539650657 0.0033697027673699614 -0.019564747259172857 -0.010694964267394847 -0.00061807170445028921 -0.024441855748494466 0.0017635192556617657 0.035123479319736362 0.0044456319638202417 -0.027875348863502344 0.012947575074975334 -0.020292601624832436 0.0057962910603317954 -0.038042159480974086 0.025973958454348824 -0.0026925952406600118 0.0026304793934455021 -0.022931255613054549 -0.00026133762134337719 -0.0066630946722027315 0.033828190714120868 0.0022981855451924666 -0.0042900722471131301 -0.0071537950204650846 -0.0096006773835352558 0.0054512664094630986 0.022140909160340304 -0.022994515672326091 0.0078087919073263406 0.00083818612146680644
leaf_weight=3841 100 3422 49 93 660 14.999999999999998 5295 32 412 11.999999999999998 42 17 45 9.9999999999999982 22 15.999999999999998 1006 13.999999999999998 1624 358 22 178 160 675 65 234 19 20 692 59
leaf_count=3841 100 3422 49 93 660 15 5295 32 412 12 42 17 45 10 22 16 1006 14 1624 358 22 178 160 675 65 234 19 20 692 59
internal_value=-1.36726e-12 0.00183686 0.00252843 -0.000489149 -0.00162114 -0.000345315 0.00286735 0.00209255 0.00635511 0.0155029 0.00387581 0.00169293 -0.0103679 -0.00217434 0.000172519 0.0139038 -0.000185327 8.58613e-05 -0.00118266 -0.00498022 0.0117551 -0.00498531 -0.00303074 -0.00428895 -7.59461e-05 0.00149539 0.00421195 0.00394094 0.00411638 -0.00519541
internal_weight=19209 14037 10820 3217 817 713 10003 5810 498 86 54 5312 104 55 698 38 3124 3024 2018 394 36 5172 1331 1134 459 394 197 4193 4114 79
internal_count=19209 14037 10820 3217 817 713 10003 5810 498 86 54 5312 104 55 698 38 3124 3024 2018 394 36 5172 1331 1134 459 394 197 4193 4114 79
is_linear=0
shrinkage=0.1


Tree=31
num_leaves=31
num_cat=0
split_feature=2 1 0 0 1 1 1 1 1 0 1 1 1 1 1 1 0 0 1 1 0 0 1 1 1 1 0 1 0 1
split_gain=14.2481 1.88776 0.81505 0.794426 0.690328 1.87835 1.59821 1.14751 1.03181 1.66353 1.53591 1.37156 0.688544 0.669794 0.65646 0.647856 1.01935 1.41304 0.622217 0.638035 0.619351 0.61235 1.05714 2.3881 0.812597 0.700919 1.17747 1.73073 0.588086 0.580208
threshold=1.0000000180025095e-35 187.50000000000003 48.500000000000007 44.500000000000007 276.50000000000006 270.50000000000006 327.00000000000006 316.00000000000006 281.00000000000006 38.500000000000007 286.00000000000006 295.50000000000006 260.50000000000006 238.50000000000003 163.50000000000003 160.50000000000003 21.500000000000004 26.500000000000004 112.50000000000001 94.500000000000014 47.500000000000007 26.500000000000004 254.50000000000003 249.50000000000003 269.00000000000006 227.50000000000003 25.500000000000004 234.50000000000003 19.500000000000004 157.50000000000003
decision_type=2 2 2 2 2 2 2 2 2 2 2 2 2 2 2 2 2 2 2 2 2 2 2 2 2 2 2 2 2 2
left_child=18 2 14 4 5 21 7 8 -6 10 -10 -12 13 -5 15 29 -17 -18 19 -1 -15 22 23 25 -23 28 -27 -28 -3 -2
right_child=1 3 -4 12 6 -7 -8 -9 9 -11 11 -13 -14 20 -16 16 17 -19 -20 -21 -22 24 -24 -25 -26 26 27 -29 -30 -31
leaf_value=0.0080114854499697685 -0.0015077558924145218 -0.0066038746579498474 -0.0055240186562446917 -0.00128374106353639 0.037759342949305268 -0.023793724515976816 -0.011494082520189493 0.050189166143536572 -0.03031492866575718 0.043525515347719194 0.031681009431680035 -0.013676981596897045 -0.021997671027978262 0.028322104985515281 0.0012556409319303217 0.025282013341784478 -0.021951781812251783 -0.0029602457931783253 -0.0042978677032678662 -0.01312484715407 0.0022034523927647134 0.002562369123515592 0.029874839600833026 -0.036299920294966016 0.025135250831954184 0.0064029451851782054 0.059661242117484393 0.0059532614269604293 0.0050585666318946343 0.0029115319880461945
leaf_weight=15.999999999999998 1027 45 216 475 13.999999999999998 26 23 9.9999999999999982 12.999999999999998 9.9999999999999982 15.000000000000002 11.999999999999998 14.999999999999998 14.999999999999998 5328 9.9999999999999982 51 169 5023 133 23 4890 17 13.999999999999998 15.999999999999998 57 12.000000000000002 11.999999999999998 1104 418
leaf_count=16 1027 45 216 475 14 26 23 10 13 10 15 12 15 15 5328 10 51 169 5023 133 23 4890 17 14 16 57 12 12 1104 418
internal_value=-5.96667e-12 0.00165317 0.00052617 0.00284646 0.00315921 0.0030281 0.01153 0.0186861 0.0137638 0.00704505 -0.00207507 0.0115219 -0.000879226 -0.000261727 0.000712781 -0.001014 -0.00594349 -0.00736283 -0.00448678 -0.0108552 0.0125134 0.00314118 0.00510666 0.00476819 0.00263599 0.00523563 0.0142264 0.0328073 0.00460181 -0.000229374
internal_weight=19209 14037 7219 6818 6290 6193 97 74 64 50 40 27 528 513 7003 1675 230 220 5172 149 38 6167 1261 1244 4906 1230 81 24 1149 1445
internal_count=19209 14037 7219 6818 6290 6193 97 74 64 50 40 27 528 513 7003 1675 230 220 5172 149 38 6167 1261 1244 4906 1230 81 24 1149 1445
is_linear=0
shrinkage=0.1


Tree=32
num_leaves=31
num_cat=0
split_feature=2 1 0 1 1 1 1 0 1 0 1 1 0 1 0 1 0 1 1 1 1 1 0 0 0 1 1 0 0 1
split_gain=11.541 1.54908 1.05178 1.9853 0.829136 1.30935 0.899233 0.902689 1.51363 1.4581 0.81068 0.689221 0.820082 0.652705 0.595757 0.601054 0.575466 0.568662 1.59321 0.553717 1.21916 0.874517 1.13446 2.05287 0.872591 1.10508 0.921289 0.621148 0.790309 0.561903
threshold=1.0000000180025095e-35 168.50000000000003 32.500000000000007 169.50000000000003 178.50000000000003 179.50000000000003 175.50000000000003 31.500000000000004 171.50000000000003 30.500000000000004 174.50000000000003 174.50000000000003 29.500000000000004 210.50000000000003 47.500000000000007 124.50000000000001 45.500000000000007 226.50000000000003 214.50000000000003 179.50000000000003 164.50000000000003 161.50000000000003 31.500000000000004 26.500000000000004 41.500000000000007 202.50000000000003 206.50000000000003 40.500000000000007 35.500000000000007 154.50000000000003
decision_type=2 2 2 2 2 2 2 2 2 2 2 2 2 2 2 2 2 2 2 2 2 2 2 2 2 2 2 2 2 2
left_child=14 -2 3 -3 6 -6 7 9 -9 11 -11 -5 -13 16 15 -1 -4 18 19 20 21 29 23 -23 25 -21 -27 28 -22 -17
right_child=1 2 13 4 5 -7 -8 8 -10 10 -12 12 -14 -15 -16 17 -18 -19 -20 24 27 22 -24 -25 -26 26 -28 -29 -30 -31
leaf_value=-0.0066560592382431602 -0.0007348498934341655 0.021582365579005065 0.00076391969168004684 5.0881233141990376e-05 0.018054599857936473 0.0030700431135232235 -0.0040926964204579738 -0.0056664772107507351 0.024542966588985089 -0.0039388702023360469 -0.025379395889567918 0.0078318143252759272 -0.0095897443483894083 0.0029013334533286349 -0.0091790569184619624 -0.0039743430363161063 -0.0027341572730648265 -0.017854365113156814 0.030383090621658733 -0.0090039262084733 0.0029480415559452189 -0.033590874760685598 -0.028587589785456658 0.0083900609104013129 -0.029857982267789979 0.033085643313825124 -0.0031037952203084446 0.01376473507503184 -0.0093033095971691189 -0.00035916981944315206
leaf_weight=647 2563 56 3280 500 59 5012 331 27 43 45 29 272 30 1241 216 3031 549 27 13.999999999999998 202 297 17 32 37 17 12.000000000000002 17 41 64 501
leaf_count=647 2563 56 3280 500 59 5012 331 27 43 45 29 272 30 1241 216 3031 549 27 14 202 297 17 32 37 17 12 17 41 64 501
internal_value=-2.13372e-11 0.00148786 0.00198435 0.00283624 0.00267087 0.00324439 0.000393438 0.00196311 0.0128908 0.0010899 -0.0123412 0.00232918 0.0061012 0.000908315 -0.0040381 -0.00381404 0.000262367 -0.00338731 -0.00329608 -0.00340656 -0.00312365 -0.00370414 -0.0136676 -0.00482616 -0.0079924 -0.00638325 0.0118711 0.00210077 0.000776057 -0.00346155
internal_weight=19209 14037 11474 6404 6348 5071 1277 946 70 876 74 802 302 5070 5172 4956 3829 4309 4282 4268 4020 3618 86 54 248 231 29 402 361 3532
internal_count=19209 14037 11474 6404 6348 5071 1277 946 70 876 74 802 302 5070 5172 4956 3829 4309 4282 4268 4020 3618 86 54 248 231 29 402 361 3532
is_linear=0
shrinkage=0.1


Tree=33
num_leaves=31
num_cat=0
split_feature=2 1 0 1 1 0 1 0 0 0 0 1 1 1 0 0 1 1 0 1 1 1 1 1 1 0 1 0 1 1
split_gain=9.3482 1.32375 0.660531 0.870107 0.995472 0.833938 0.878381 0.826678 0.630214 0.593065 0.491174 0.644402 0.618549 0.511434 0.917958 0.575073 0.848998 0.505364 1.01957 0.912794 0.490886 1.92636 0.516577 0.746244 0.699774 0.581537 0.45505 0.949567 0.449587 0.592375
threshold=1.0000000180025095e-35 187.50000000000003 34.500000000000007 147.50000000000003 110.50000000000001 27.500000000000004 129.50000000000003 24.500000000000004 19.500000000000004 38.500000000000007 41.500000000000007 189.50000000000003 108.50000000000001 136.50000000000003 18.500000000000004 19.500000000000004 128.50000000000003 154.50000000000003 44.500000000000007 156.50000000000003 226.50000000000003 214.50000000000003 202.50000000000003 206.50000000000003 179.50000000000003 36.500000000000007 150.50000000000003 19.500000000000004 169.50000000000003 175.50000000000003
decision_type=2 2 2 2 2 2 2 2 2 2 2 2 2 2 2 2 2 2 2 2 2 2 2 2 2 2 2 2 2 2
left_child=10 2 3 4 7 6 -6 -2 -8 -3 13 12 -12 15 -15 16 -1 -14 -19 -20 21 22 24 -24 -16 -26 27 -5 -4 -30
right_child=1 9 28 26 5 -7 8 -9 -10 -11 11 -13 17 14 20 -17 -18 18 19 -21 -22 -23 23 -25 25 -27 -28 -29 29 -31
leaf_value=-0.0025862126960419112 -0.011108591178288827 0.002829631318681703 -0.0030189619543477503 -0.022133584171533587 -0.028652267564426771 -0.012840530447378432 -0.017283845495651751 0.019081897203965734 0.0032994751826304347 0.00056783408781791529 -0.029200881787321789 -0.023968585990369322 -0.0068675154912532042 0.024082698550326034 -0.0022766641394158689 -0.0043602149093626887 -0.036306404042989016 0.011240986468014766 0.016187217618737901 -0.012001789247733541 -0.017100965280247772 0.041379510834813116 0.029777077523370579 -0.002793415723478093 -0.011007314572393597 0.0027299792211698862 0.0012036354345770764 0.010027727963045307 0.0029398396767694023 -0.0014037299076895878
leaf_weight=16.000000000000004 12.999999999999998 5337 759 9.9999999999999982 10.999999999999998 115 17 30 119 1481 10.999999999999998 20 442 12.999999999999998 2494 1770 13.999999999999998 51 13.999999999999998 64 23 9.9999999999999982 12.000000000000002 17 163 38 4591 112 462 980
leaf_count=16 13 5337 759 10 11 115 17 30 119 1481 11 20 442 13 2494 1770 14 51 14 64 23 10 12 17 163 38 4591 112 462 980
internal_value=5.75706e-12 0.00133907 0.000395323 0.00102883 -0.00414747 -0.00646192 -0.00147186 0.00995454 0.00072656 0.00233833 -0.00363429 -0.00631931 -0.00571281 -0.00328059 -0.00242782 -0.00459292 -0.0183223 -0.00526032 0.000246487 -0.00694222 -0.00255283 -0.00243044 -0.00259127 0.010684 -0.00273412 -0.00841021 0.00136381 0.00739155 -0.001049 -1.21008e-05
internal_weight=19209 14037 7219 5018 305 262 147 43 136 6818 5172 602 582 4570 2770 1800 30 571 129 78 2757 2734 2724 29 2695 201 4713 122 2201 1442
internal_count=19209 14037 7219 5018 305 262 147 43 136 6818 5172 602 582 4570 2770 1800 30 571 129 78 2757 2734 2724 29 2695 201 4713 122 2201 1442
is_linear=0
shrinkage=0.1


Tree=34
num_leaves=31
num_cat=0
split_feature=2 1 0 0 0 1 0 1 1 1 1 1 1 0 1 0 0 0 0 1 1 0 0 0 1 1 1 1 1 1
split_gain=7.57204 1.09915 0.761254 0.668266 1.10402 0.964876 0.561637 0.503798 1.15069 0.960291 0.808729 0.700381 0.672912 0.953304 1.00506 0.611098 0.491505 0.473674 0.471196 1.62623 0.72223 0.581132 0.434163 1.24632 1.05507 1.06489 2.13577 0.505259 0.465441 0.423349
